0.608557 -0.349247 -0.812883 -0.656641 -0.525102 0.177709 0.285266 -0.0219746 0.994016 0.112976 -0.438549 -0.379411 -0.694372 -0.532966 -0.568909 -0.194261 -0.73332 0.0940703 0.0610243 -0.689452 -0.413694 -0.461352 0.806379 -0.186036 0.79608 -0.668052 -0.0059885 0.00893483 -0.501241 0.982404 0.581636 0.614635 0.744075 0.586293 0.20441 -0.58359 0.42764 -0.0466091 -0.531472 0.371487 -0.233808 0.0671495 0.450592 0.123678 -0.85777 -0.0919517 0.58938 0.710974 0.0327869 -0.576546 -0.548032 -0.723047 -0.726515 0.499025 -0.373672 0.417459 0.339377 -0.679164 0.119836 -0.238635 -0.637758 0.650282 -0.55066 0.489908 -0.538534 0.65971 -0.0269299 -0.154279 -0.0682187 0.316147 -0.267644 0.255253 0.884587 0.203793 -0.992126 0.719447 -0.713805 -0.989778 0.702962 0.358019 0.415184 -0.772949 0.531602 -0.877444 -0.187243 0.0900707 0.240199 0.993688 0.552519 -0.501824 -0.210899 0.345584 0.345971 -0.88912 0.454565 0.673004 0.202456 0.465607 -0.172902 0.873303 0.474576 0.122382 -0.167241 0.224578 -0.618793 0.325784 0.613261 -0.587348 -0.757233 0.360227 0.560721 0.15711 -0.784197 -0.170499 -0.636509 0.255773 0.406361 -0.72337 -0.164989 0.540972 0.526723 0.176565 0.978078 0.216872 0.029931 -0.545088 0.88138 0.527428 -0.155931 0.767067 0.693264 -0.370028 -0.802069 0.997714 -0.437985 0.18505 -0.968946 0.194704 0.708823 -0.129083 -0.657237 -0.608628 0.329805 0.914513 -0.697126 0.744787 -0.341872 -0.274595 0.0464306 -0.309523 -0.309971 -0.485632 -0.100368 0.0596809 0.573004 0.884956 0.357515 -0.283386 -0.908204 0.19396 0.0592129 -0.411739 -0.0729482 -0.149813 0.90412 0.0103642 0.105679 0.931083 0.771988 0.170765 0.728934 -0.563978 -0.674751 0.366844 -0.472942 0.800235 0.324664 0.0928904 0.53054 -0.313531 0.0536547 0.874956 -0.02676 -0.413948 0.155792 -0.835246 -0.9554 0.0739703 -0.146648 -0.899228 0.802386 -0.848296 -0.466994 0.339707 -0.515477 0.656198 0.0121033 -0.464472 -0.632734 0.350943 -0.240938 -0.639344 0.273507 0.765874 0.0854395 -0.268147 -0.815432 0.856269 0.63452 0.811291 0.882231 -0.593322 -0.423965 -0.196806 0.361838 0.505448 0.393912 -0.33356 -0.199417 -0.0992295 0.277366 -0.0295114 0.37723 -0.789493 0.0292527 -0.332452 -0.204768 -0.433692 0.749907 -0.542338 -0.580081 -0.97694 -0.286605 -0.32091 -0.51388 -0.155717 -0.142307 -0.309384 0.73612 -0.155595 -0.915266 0.811676 -0.513604 -0.401775 -0.711605 0.20703 -0.582121 0.0110687 0.52592 0.95834 -0.977978 -0.684878 0.172997 0.916957 -0.641802 0.403087 -0.267002 0.538698 -0.722204 -0.994692 -0.302033 0.946055 -0.7733 -0.449909 -0.685574 -0.915103 -0.0511625 -0.0223013 -0.569473 0.812005 -0.670503 0.619774 -0.931296 -0.660673 -0.200384 -0.306019 0.338416 0.0869529 0.85473 -0.502733 -0.415989 0.368102 -0.798135 -0.827857 -0.835455 0.427645 0.867143 0.691407 -0.601393 0.729478 0.756844 0.481084 0.453251 -0.3194 -0.976812 -0.133872 -0.510538 0.992996 0.115137 0.406782 -0.275745 0.158965 -0.217604 -0.645359 0.309834 -0.795772 -0.409031 -0.684993 -0.584284 0.915703 0.43341 0.321998 -0.477628 0.958715 0.797809 -0.895204 0.260147 -0.384081 -0.775651 0.717524 -0.228041 0.458692 -0.767619 -0.568142 0.875578 0.105789 -0.819662 0.994964 0.321886 -0.628067 0.3045 0.893731 -0.387417 -0.909082 -0.0946465 -0.71927 -0.284859 -0.401297 0.0852612 0.641427 -0.0813068 0.96014 -0.028356 -0.960451 0.638508 -0.352191 0.0354282 0.383094 -0.609789 0.965538 -0.676434 -0.318464 -0.607408 0.727026 0.280688 -0.851454 -0.0369478 0.834872 -0.351107 -0.776796 -0.906066 -0.980766 -0.253157 0.545944 0.753262 -0.175868 0.741764 -0.343219 0.75395 -0.481875 -0.702211 -0.933987 -0.130551 -0.926401 0.124056 -0.589882 -0.280247 0.656294 0.91225 0.397431 0.47371 0.917669 -0.145093 0.445227 -0.462909 0.590832 -0.94941 -0.778722 0.799175 -0.969777 0.0701126 0.161048 0.121932 -0.351035 0.824385 -0.804334 -0.303863 0.892909 -0.435137 0.264132 0.494368 0.92514 0.266787 0.173064 0.785585 -0.762664 -0.785082 -0.322499 0.356318 -0.320726 -0.642533 -0.78069 0.536668 0.905154 0.19919 -0.440692 -0.197655 0.852274 -0.298889 0.455384 0.664122 0.183509 0.137017 -0.85581 0.640854 -0.81417 0.0921793 0.245312 -0.934829 0.809293 0.00725161 0.99134 -0.504578 -0.871805 0.304587 -0.594869 0.222478 0.358983 0.756243 0.866672 0.705385 -0.819972 0.941942 0.0351591 0.279277 0.952682 0.245182 0.0278142 0.0876221 -0.187596 0.598396 0.190907 -0.592488 -0.683807 0.946573 0.812266 0.269731 0.577414 -0.573831 -0.24982 0.0710574 -0.0890234 0.630539 0.815789 -0.368591 0.0042049 0.708786 -0.0821153 0.787192 0.4625 -0.306881 0.840632 -0.549773 -0.939764 -0.404843 -0.783778 0.165446 -0.788883 -0.932842 -0.0666378 -0.412377 0.408195 0.653782 -0.658367 0.518758 -0.00895707 0.0698382 -0.407712 0.0654985 -0.482525 -0.651133 0.305168 0.0373509 -0.80755 0.949086 -0.90213 0.248582 0.178363 -0.604156 -0.489497 -0.895221 -0.447321 -0.984547 -0.0489788 0.746569 -0.749053 -0.634377 -0.830748 -0.747227 -0.385804 0.0301825 -0.10164 -0.75064 -0.0628122 0.594459 0.750414 -0.0522002 -0.508782 0.429801 -0.102096 0.298105 -0.760151 -0.431322 -0.876705 0.969001 -0.668199 0.758872 -0.803314 -0.811244 -0.552716 -0.381162 -0.122001 -0.0370081 -0.767835 0.046336 -0.14563 -0.0424541 -0.01806 0.847692 0.504551 0.272098 -0.479325 0.354892 0.473039 -0.317246 0.801852 -0.968161 -0.398075 0.84619 -0.724113 -0.316404 -0.221082 0.992304 0.958328 -0.350488 0.820911 0.6373 -0.272484 -0.369665 0.682833 -0.715965 -0.395079 -0.662761 -0.85326 -0.548958 0.782897 -0.766978 0.00834843 -0.964952 0.923799 0.335081 0.90312 0.461676 -0.861093 0.0220167 0.52553 -0.334372 0.713004 0.385088 -0.781481 0.136967 0.55964 0.891334 -0.0423098 0.970178 0.677574 0.917991 0.355912 0.6322 0.385124 -0.858585 0.206142 0.0230799 0.707046 0.53619 -0.109831 0.22124 0.0598974 -0.827939 0.190833 -0.678462 -0.0137425 0.867569 0.519501 -0.41458 -0.939813 -0.0396666 -0.469128 0.797725 -0.122995 -0.375345 -0.357353 -0.738678 0.520813 -0.154145 0.99681 -0.643622 -0.703702 -0.80731 0.00148198 -0.216178 -0.158056 -0.256654 0.540174 0.88226 0.500934 0.455149 -0.246757 -0.480984 0.345023 -0.22378 0.776204 0.992457 -0.615431 0.948347 -0.829368 0.275862 -0.145673 -0.107846 -0.854061 0.904901 -0.234908 0.624697 -0.914858 -0.2697 0.665543 -0.421933 0.257401 0.257912 0.436323 -0.37411 -0.669675 -0.0939982 -0.583208 -0.902206 0.234017 -0.510379 0.156329 0.0917165 -0.274602 -0.203207 0.832994 -0.464715 -0.626605 -0.885121 0.76349 0.0745443 0.900099 0.197684 -0.615215 -0.438043 0.0603199 0.527138 -0.659598 0.963042 0.118457 -0.223424 0.343507 -0.693275 -0.745334 -0.834136 0.837265 -0.599199 -0.697577 -0.098714 0.119177 -0.988429 -0.692787 0.998484 -0.27247 -0.426147 -0.176889 -0.773297 -0.0491883 -0.638102 0.136261 0.478326 -0.210879 -0.598293 0.208608 0.949672 -0.109668 -0.421881 -0.990309 -0.742597 -0.589447 -0.325651 -0.439485 -0.853787 -0.56514 0.598008 0.120981 -0.0840024 -0.928528 -0.178275 -0.0471333 0.477699 -0.455582 0.325058 -0.438131 -0.337632 0.745442 0.245802 0.228026 0.961182 0.532131 0.804556 -0.818148 -0.556748 0.798804 -0.0646018 -0.769362 0.273524 0.127922 -0.678052 -0.840238 -0.297531 -0.296385 0.530657 0.335886 0.242127 0.276354 0.195043 0.410181 -0.325605 -0.44273 0.984959 -0.278738 -0.0929667 -0.826158 0.815619 0.564201 0.0389041 -0.598604 0.224922 0.514288 0.827063 -0.462606 -0.242989 0.185413 -0.930738 0.267911 -0.648094 -0.0792169 -0.45527 0.0294621 0.910514 -0.261952 0.28171 0.667662 -0.473095 0.203974 -0.53543 -0.284028 0.0736148 0.208715 -0.187694 0.0228345 0.168235 0.621781 -0.536795 0.563359 -0.692051 -0.716945 
-0.721083 0.403396 -0.559473 0.96099 0.958314 -0.369346 -0.393532 -0.0443104 -0.769934 0.275695 -0.916197 0.742592 0.565129 -0.682445 -0.0160292 0.947269 0.961742 0.57331 -0.504114 0.293468 -0.859227 -0.742151 0.176031 0.418752 -0.278734 -0.58351 -0.327318 -0.918506 -0.387658 -0.231212 0.813965 0.191138 -0.377488 -0.53681 -0.351782 0.812159 -0.821222 0.576543 -0.480539 -0.141492 -0.0577764 -0.525322 0.240733 -0.417721 0.86291 0.349694 0.735199 -0.910216 -0.905316 -0.082236 -0.69961 -0.647099 0.27676 -0.27943 0.438003 0.0567588 -0.889479 0.556179 -0.971095 0.337615 -0.858784 -0.606508 -0.346951 0.743988 0.568962 0.536302 -0.94406 -0.750203 0.994783 0.138118 0.883626 -0.184671 -0.695061 0.691276 0.674422 -0.973828 -0.99297 -0.845322 0.277996 -0.646504 -0.272561 -0.571056 -0.0276296 -0.0242621 -0.54157 -0.511103 0.413218 -0.344478 -0.489903 0.977267 -0.853258 -0.472214 0.0904137 -0.237383 -0.906182 -0.920228 0.537115 -0.290959 0.568621 0.406328 -0.239021 0.080807 -0.368819 -0.0475152 0.859086 -0.0173221 -0.39495 0.47059 -0.756694 -0.851569 -0.574605 0.620352 -0.456112 -0.857065 -0.519591 -0.97622 -0.64481 0.929833 0.13052 0.542293 0.318365 -0.442385 -0.790066 0.651221 -0.0627177 0.45872 0.484415 -0.712662 0.918164 0.238063 0.103147 -0.0352663 -0.715281 0.253412 -0.336267 0.00217975 0.428886 -0.775829 0.528349 0.625917 0.97404 -0.34159 0.454401 -0.279407 0.00999356 -0.826109 0.503576 -0.948861 -0.522561 0.126693 -0.0073792 0.733275 0.614988 -0.249917 -0.802284 0.937505 0.161486 0.663112 -0.834102 0.0508128 0.507696 -0.10266 -0.0380188 -0.742056 -0.929818 -0.963581 0.130128 0.14104 -0.675459 0.193195 0.00851147 0.390859 0.847407 -0.0596364 0.281888 0.22809 0.506589 0.305799 0.0308022 -0.506378 0.0983792 0.259016 -0.801501 0.330925 -0.53685 0.779776 -0.299033 0.960191 -0.968477 -0.135178 0.892922 -0.814234 -0.042275 -0.164295 0.947426 0.745118 -0.666557 -0.324111 0.807807 -0.562993 0.192582 0.161927 0.932233 0.804457 0.990479 -0.49395 -0.0479608 -0.482547 -0.62827 -0.704532 -0.0202135 0.166779 0.200255 0.614971 0.0625108 0.497013 0.540014 -0.746681 0.615521 -0.767146 0.219218 -0.817518 0.115974 -0.502262 0.697593 0.455209 0.636627 -0.360662 -0.595579 0.782176 -0.648276 -0.334847 0.787644 0.240303 -0.998157 0.0550292 0.89916 0.881512 -0.564962 -0.734862 -0.124401 0.964302 -0.783006 -0.858332 0.846831 -0.378812 0.473872 -0.813625 -0.432846 0.650727 -0.389798 0.167254 -0.571196 -0.560001 0.814234 -0.959137 -0.430576 -0.681549 -0.442024 0.650138 -0.301492 0.427589 0.40497 0.896803 -0.619422 0.705473 0.471553 -0.0228913 0.659606 -0.757736 -0.0873395 -0.433499 0.536355 -0.0799818 -0.139251 0.254787 -0.509025 0.224734 -0.590956 -0.835146 -0.522799 0.0791546 0.765336 0.223731 -0.0126453 -0.458168 -0.11922 -0.485442 0.952575 -0.833792 -0.468883 -0.881685 -0.477609 0.299494 -0.00112205 0.937115 -0.781782 -0.670729 0.993199 -0.147514 0.489411 -0.55754 0.68049 -0.0700877 -0.305481 0.665091 -0.232511 -0.737796 -0.381447 0.484514 0.886502 -0.269241 -0.190418 0.272744 -0.547955 -0.28264 -0.719196 -0.116128 -0.61541 0.0275319 -0.454009 -0.457136 0.992638 0.571835 0.671408 0.849916 0.774474 0.89509 0.139207 -0.372567 0.934478 -0.224942 -0.757427 -0.113862 -0.693969 -0.558062 0.583472 0.370526 -0.869376 0.687174 -0.764566 -0.989983 0.232479 0.817868 -0.527492 0.170062 0.845404 -0.34097 0.110253 -0.399885 -0.932816 -0.997153 -0.337005 0.10304 0.251931 -0.596887 0.873432 0.993629 -0.0904878 0.600658 -0.20502 -0.616878 -0.492672 0.222847 -0.53366 0.492934 0.0139374 -0.786103 0.0967328 -0.870044 0.0208862 0.43475 -0.64707 -0.499729 0.919704 -0.743174 -0.35461 -0.643999 -0.381172 -0.645279 0.575446 0.336288 -0.998869 0.298112 0.699956 0.678036 -0.759402 -0.164694 -0.893793 0.99369 -0.316533 -0.733118 0.372537 0.791338 0.876148 -0.577173 0.931804 0.746853 -0.455 0.986363 -0.743017 -0.513177 -0.00834653 0.0989551 -0.849186 -0.351664 0.302093 -0.103761 0.859586 -0.544 -0.519691 0.468981 -0.255899 -0.0449956 -0.220105 0.530186 0.841325 -0.957849 -0.382106 0.727716 -0.6172 0.968663 0.837315 0.588508 0.429324 0.539338 -0.746156 0.170583 -0.166565 -0.489379 -0.686163 0.227028 -0.261402 0.409254 0.631811 -0.176857 -0.786814 0.624759 -0.688154 0.0482233 -0.149723 0.0573613 -0.351161 -0.304952 0.259036 0.158242 0.178892 0.870228 0.174618 0.82457 -0.995043 -0.756 -0.823108 -0.251189 -0.713728 -0.509259 0.586103 -0.299078 -0.648167 -0.239355 -0.0572239 0.737159 0.955729 0.894966 -0.415502 0.850347 0.0776912 -0.865234 -0.757021 -0.715407 0.0467969 0.434621 -0.773986 -0.156609 0.725098 -0.160676 0.795406 0.936089 -0.0742869 0.6768 0.0501694 0.731232 0.0116988 -0.0752564 0.514927 0.278038 0.00615388 0.399295 0.942061 -0.592495 0.242454 0.0126746 -0.0419054 -0.858428 -0.219678 -0.0711797 0.860805 -0.332013 -0.089623 -0.982073 0.995388 -0.0987982 -0.850116 -0.0721688 0.1634 -0.928706 0.787313 0.324184 -0.924669 0.316692 0.969357 0.473449 0.509564 0.10832 0.857063 0.0807122 0.571749 -0.132374 0.617905 0.0219429 -0.579635 -0.652209 0.453239 -0.589185 0.729358 0.716352 0.568077 -0.26842 0.458613 0.56047 -0.358771 -0.982198 -0.198014 -0.83295 0.31211 0.856106 -0.900092 -0.0712742 0.505033 -0.248626 -0.393699 0.533822 -0.583351 -0.0724062 -0.734892 -0.727704 0.903127 0.193248 0.811117 -0.613901 0.337722 0.211477 0.179901 0.297566 -0.786883 -0.859126 -0.373849 0.810332 -0.384707 -0.640155 0.108299 0.849057 0.784437 -0.78139 -0.518311 -0.0982582 -0.599129 0.576769 0.587409 -0.832695 -0.971987 0.521207 -0.92235 0.485348 0.159763 0.748838 -0.152188 -0.48205 -0.362804 0.0863799 -0.0795381 0.17771 0.388296 -0.725119 -0.154042 0.803702 0.513535 0.456193 -0.534254 -0.0493961 -0.520568 -0.475417 0.679702 -0.529266 0.423584 -0.465675 -0.595388 -0.755222 -0.267124 -0.597595 0.249039 0.591817 -0.849941 -0.508007 0.192239 0.545429 -0.0444574 -0.952495 -0.887552 0.19644 0.384107 0.133124 -0.734333 0.849606 0.718786 0.160216 0.809892 -0.466727 -0.279522 0.839698 0.402834 0.751101 0.81081 0.170826 -0.224037 -0.237403 -0.996899 -0.881613 0.916025 -0.0172898 0.317345 0.546385 -0.897545 -0.790068 0.969188 0.769323 0.65792 -0.538661 0.918354 0.501946 -0.961554 -0.959593 0.457816 -0.209503 -0.157916 0.982975 0.21146 0.953185 0.823702 -0.487447 -0.145682 -0.62221 0.110503 -0.43675 0.771199 0.528844 0.149423 -0.48362 0.21442 -0.745487 -0.647618 -0.215913 0.766284 -0.806685 -0.895493 -0.356421 -0.19489 -0.93615 -0.506138 0.426797 -0.129027 0.0530232 -0.0153994 0.0594088 0.555704 -0.0530275 -0.540614 0.0298249 0.91741 -0.96359 0.987976 -0.153381 0.113724 -0.326362 -0.598963 -0.605473 0.335286 -0.293647 -0.0946596 -0.816393 0.770934 -0.922588 0.12397 -0.639411 -0.0655677 -0.469087 0.632943 -0.000968415 0.570116 0.96404 0.91221 0.729593 -0.78167 -0.52365 0.693137 -0.28326 -0.880642 0.638375 0.424503 0.294267 -0.410754 0.938388 -0.930845 0.373006 0.462091 0.475437 0.865332 -0.0922298 0.193632 0.246571 0.234552 -0.317011 0.924396 0.883939 0.179033 0.659658 -0.442553 -0.212781 -0.0276708 -0.0118041 -0.170656 0.0107474 0.427587 0.178402 0.251409 -0.817856 -0.0882254 -0.468198 -0.0670763 0.822259 -0.182611 0.623765 0.549117 -0.771493 -0.508396 -0.71962 -0.266795 0.507676 -0.0608074 0.989753 -0.297231 -0.433268 0.280626 -0.155571 -0.886194 0.0301434 0.612293 0.571675 -0.0346498 0.740295 -0.696103 0.152096 -0.833569 -0.737188 0.973365 0.15503 -0.731075 0.214804 0.300339 0.535765 0.807211 0.186282 -0.53501 0.226165 -0.239156 -0.940517 -0.520154 0.19598 -0.690458 -0.577668 0.62336 -0.381378 0.0663552 0.238999 
0.982095 0.882876 -0.294691 0.164176 0.0926629 0.186674 -0.616723 0.664152 0.0566077 -0.0602961 -0.647438 -0.929145 0.992284 0.601097 0.244316 0.284123 -0.0201026 -0.982675 0.18159 0.233094 -0.921892 -0.85792 -0.899815 0.00932088 -0.957185 0.486621 0.196159 -0.1624 -0.426271 0.656108 -0.876062 -0.159932 -0.553892 -0.923535 0.715303 -0.700951 0.294676 0.692925 -0.0254689 -0.717464 0.97673 0.69915 -0.214995 0.33948 0.352338 0.161735 -0.436753 0.298064 0.693781 -0.75459 0.0311507 0.814444 -0.361455 -0.747952 -0.85384 -0.0593871 -0.799148 -0.667163 -0.660532 0.159556 0.213099 -0.489348 -0.560288 -0.688119 -0.309458 -0.575163 0.0381138 -0.650277 -0.00650027 -0.865317 0.562379 -0.744088 -0.473281 -0.878701 0.0960839 -0.459595 0.644803 -0.933758 -0.798869 0.711618 -0.0614097 0.565614 -0.623678 0.403176 0.849379 0.554569 -0.113871 -0.2107 -0.630687 0.52836 -0.746706 0.657189 -0.518262 0.860782 0.993557 -0.595905 -0.727693 -0.717602 -0.448908 -0.00663352 0.513078 0.349758 -0.899983 0.0807264 -0.226052 -0.555351 0.628328 -0.797414 -0.784789 -0.30213 0.21615 0.0801969 0.0648594 -0.109246 -0.399137 0.750706 0.395681 0.074736 0.666509 -0.51514 0.922255 -0.0495654 0.285547 0.459671 -0.51149 -0.0759856 -0.429402 0.791515 0.738588 0.712437 0.00156935 -0.451444 -0.0788422 -0.0254515 0.649812 -0.468325 -0.779618 0.460231 0.776605 -0.808932 0.510001 -0.525717 -0.32948 0.964914 0.539582 -0.378048 -0.409985 0.0797314 -0.532834 0.310723 -0.56141 0.717376 0.463027 0.490571 0.402036 -0.737183 -0.37592 -0.146536 -0.231881 0.820923 0.459415 -0.916488 -0.633949 -0.676437 -0.943435 0.865905 0.359979 0.722282 -0.189674 -0.344339 -0.788817 0.915428 0.663002 -0.99324 0.326759 0.227409 0.290322 0.340035 -0.421237 -0.671094 -0.976359 -0.839947 -0.221128 -0.17596 -1.42934 -0.424066 -0.011742 -0.60592 -1.01939 -0.630225 0.00628663 0.587291 0.423976 0.494503 0.655189 0.331115 0.760556 -0.0162471 -0.485944 -0.651617 0.600796 -0.61952 0.795185 0.357467 -1.58796 0.065428 0.123116 -1.06814 -1.25659 -0.0950274 -1.43768 -0.791883 -1.62936 -0.913148 -1.10626 -1.20074 -0.503826 -0.393862 0.0827297 0.381423 0.283874 -0.37968 -0.203343 -0.391791 0.660015 0.637702 0.0611039 0.925964 -0.62587 0.3078 0.729816 -0.112602 -0.531276 0.072866 0.209013 -1.61418 -0.563432 -0.859565 -0.880944 -1.46642 -0.562562 0.13309 0.20839 0.404474 -0.873671 -0.296126 -0.198444 -0.584433 -0.239399 0.770825 0.98327 -0.192992 -0.588959 0.731632 -0.709863 0.130518 0.678258 0.147366 -0.50691 -0.658071 -1.08693 -0.351867 0.447918 0.0794206 -0.496306 -0.713467 -0.832655 0.324975 -0.832862 -0.101422 0.911835 0.864843 0.857026 -0.427168 -0.232969 -0.578121 -0.766316 0.911341 -0.185579 -0.520485 -0.361174 0.412127 -0.583213 0.489941 -0.77314 -0.792241 0.42261 -0.566468 -0.479568 -0.48876 -0.519833 -0.902733 -0.797299 -0.177743 -0.0591038 0.520986 -0.785324 -0.158497 -0.201669 -0.368619 -0.371651 -0.590904 0.0252418 -0.421129 0.363811 -0.00512331 0.837315 -0.217804 -0.0302952 0.975417 0.0868149 -0.623862 0.799931 0.266516 -0.722843 -0.910574 0.0158489 -0.622047 0.355806 -0.428419 -0.065954 0.0289598 0.667953 -0.584058 0.424399 0.422397 0.704913 0.293972 0.654827 -0.540459 -0.637924 -0.205602 -0.286379 0.289924 0.282959 -0.601188 0.734061 0.792326 0.7085 -0.0976751 -0.88646 -0.284047 -0.723083 -0.220025 -0.359684 0.520367 0.864137 0.523582 0.0680827 -0.246157 0.490845 -0.787558 0.129305 0.883375 0.38129 -0.991485 -0.381125 0.861183 -0.471237 -0.173792 -0.33709 -0.638176 0.109149 -0.400847 0.593104 0.539915 0.822862 0.813013 0.946233 -0.755026 -0.7377 0.638041 -0.603025 -0.0210123 -0.679653 -0.0611146 -0.467964 -0.671459 -0.34256 0.0163097 0.277589 -0.812711 -0.950331 0.728964 -0.638623 -0.0560597 0.634763 0.936901 -0.976757 0.621185 -0.165535 0.613333 -0.910259 0.154332 0.18641 -0.651346 0.177354 -0.491563 -0.315686 -0.472557 0.079474 -0.57921 -0.81877 0.109167 0.0833017 -0.156888 0.219887 -1.744 -0.376249 0.249406 0.628869 0.107142 -0.810095 0.464315 -0.129266 -0.158727 -0.427858 0.847912 -0.289596 -0.883427 0.0548094 -0.787411 -0.436817 -0.839855 0.180858 0.087352 0.207127 -0.881222 0.24264 0.252419 0.53315 -0.643207 0.470267 0.802789 -0.427496 -0.0595144 -1.24297 -1.70148 0.361544 -0.683301 -0.668068 -0.836056 -0.392636 0.324315 -0.181422 -0.902878 0.500751 0.779387 0.703332 -0.525594 0.686373 0.229935 0.101282 0.679882 0.918228 0.211021 0.57916 -0.689196 -0.796173 0.746707 0.488744 -0.0418434 -0.59825 -0.442133 -1.25202 -0.715037 -1.38868 -0.167259 -0.227851 -0.428622 -0.121942 0.519482 0.933281 -0.50269 0.843672 -0.831926 0.506159 0.335644 0.443106 0.255272 -0.861253 -0.203561 0.552921 0.895209 0.0237078 0.687018 -0.659705 0.157445 -0.383312 -0.658545 0.491797 0.726029 -0.270065 -0.758697 -1.72479 0.134129 -0.299041 -0.495681 0.900262 0.344754 -0.756265 0.0362151 0.0576944 -0.67701 -0.648876 -0.714192 0.376202 -0.681158 0.9453 -0.426792 -0.0887581 0.405067 0.206448 0.542446 0.119495 -0.375347 0.469842 -0.865464 0.213476 -0.829448 0.122988 -0.838838 -0.590357 -0.484357 0.268602 0.363412 0.114341 -0.678648 -0.134528 0.559351 -0.232429 -0.517503 -0.570107 0.116286 0.255366 -0.125329 -0.279254 -0.0436897 0.750166 0.0642315 -0.990164 0.490444 0.736035 -0.580065 -0.405153 -1.14848 -0.999483 -0.261805 -1.75402 -1.4285 -0.793496 -1.20151 0.671326 0.18043 0.108873 0.131817 0.327972 -0.316194 0.268631 -0.343962 -0.845429 -0.835377 0.620751 0.954803 0.0591895 -0.65416 0.47909 0.149688 -0.122352 0.671971 0.879528 -1.3497 0.104184 -1.70049 -0.408287 -1.66127 -1.36379 -1.27806 -0.382204 0.554981 0.681621 0.790929 0.296301 0.470584 0.783567 0.261595 0.984263 0.382555 0.965585 -0.76261 0.560361 -0.661111 0.414666 -0.823736 0.86878 0.35186 -0.742547 -0.0905361 -0.958841 -0.164461 0.183767 -1.47179 -1.25075 -0.986368 0.0905697 -0.971978 0.992358 0.855564 0.75686 -0.548831 -0.674617 0.0521771 0.457799 -0.951922 0.830686 0.922342 0.594523 -0.407929 -0.692585 0.359265 0.74119 -0.316638 -0.404422 -1.52363 -0.472626 -0.77782 -0.388002 -0.673963 -1.19955 0.0200748 0.721703 0.358644 -0.178046 0.195793 0.852712 0.642103 -0.85918 0.819121 -0.55546 0.411603 0.680444 -0.343432 0.490415 -0.163486 0.99749 0.876755 -0.0620786 -0.706957 -0.0186901 -1.49297 -1.02469 -0.423674 0.00725335 -1.46575 -1.12203 -0.965654 -0.262601 -0.790258 0.986163 -0.67184 -0.321911 -0.966021 0.418156 -0.475349 0.625796 -0.182181 0.495529 0.765161 -0.332316 0.381184 -0.528748 0.245467 0.00876048 -0.0892762 0.0428852 -0.48763 0.169699 0.185103 -0.49746 -1.27802 -0.667387 -0.251656 -0.204994 0.243712 0.168346 -0.484674 -0.290578 0.386711 0.683928 -0.882038 -0.474961 0.836182 -0.822944 0.719759 -0.32692 -0.186306 0.322493 -0.873643 -0.398012 -0.979974 -0.326456 -0.341724 -0.131973 0.864661 -0.958556 0.190467 0.143362 0.965922 0.333262 -0.570448 0.62819 0.777206 0.659947 0.642023 0.65864 -0.959631 -0.943813 -0.483621 -0.348285 0.785445 0.500791 0.101461 0.510268 0.747891 -0.724987 0.755755 0.177616 -0.989697 0.522313 -0.209908 0.110123 0.451143 -0.0967871 -0.918963 -0.60548 0.345393 0.211172 -0.214803 -0.634969 0.299944 -0.13516 -0.105775 0.101729 -0.202083 -0.992054 -0.18291 0.0712739 0.749275 0.944593 0.0183648 -0.536351 0.940286 0.364375 -0.000798334 0.336187 0.667344 0.223215 -0.345108 -0.743461 0.468301 0.0630727 -0.184242 0.320249 -0.686064 -0.839405 0.0660279 0.71617 0.862881 -0.874235 -0.4165 0.379056 -0.623435 0.48928 -0.661016 0.340729 -0.855867 0.768942 -0.189934 -0.899126 -0.149488 -0.284524 0.119701 0.740142 0.31022 
-0.513373 -0.0893691 -0.689973 0.255765 0.514062 0.237011 -0.684554 0.0332209 -0.428378 0.122299 -0.377999 -0.965589 0.839744 0.383279 0.782598 0.375103 -0.442036 0.088083 -0.49283 0.276548 0.718436 -0.529729 0.192211 0.734138 -0.47566 0.727688 0.785677 -0.54228 -0.569916 -0.523076 0.940006 0.940696 -0.73509 0.981314 -0.962915 0.50892 0.238813 -0.0568464 -0.421526 0.655238 -0.777181 -0.147935 0.880601 -0.374969 0.285603 -0.585999 -0.729741 -0.721501 -0.884018 -0.491209 -0.345791 -0.735494 -0.364144 -0.932126 -0.928236 0.557973 -0.761446 -0.537892 -0.132405 0.77358 0.97546 0.106095 0.821557 -0.637084 0.410969 -0.748209 -0.364942 0.494634 -0.379165 0.076274 0.517356 -0.314863 0.913759 -0.328018 0.53141 -0.099094 -0.826582 0.0264404 -0.165037 -0.786749 0.543869 -0.797529 -0.0461492 -0.299092 0.982906 -0.250334 0.836884 0.923153 -0.102938 -0.766997 -0.898923 0.503566 -0.258874 0.416772 0.226894 -0.485139 -0.788958 -0.806074 0.97467 0.108594 -0.564317 0.354883 -0.776493 0.207801 0.962191 0.053743 0.844705 -0.242917 -0.850444 0.549218 0.530352 0.174317 -0.179068 0.898407 -0.971422 0.796146 0.891711 -0.158964 0.369002 -0.698319 -0.517323 0.90977 -0.487523 -0.110045 0.169258 0.444219 -0.160137 0.0985885 0.726066 0.247371 -0.362826 0.0679953 0.447616 -0.553074 0.281548 0.946439 -0.990487 0.371461 0.203403 -0.485522 -0.673761 0.873843 -0.417697 0.117494 -0.498684 -0.192512 0.0274494 -0.31222 0.628391 0.853106 0.959906 0.408966 -0.83569 -0.463657 0.361031 -0.846133 0.344084 0.764447 0.334291 0.968188 -0.712766 0.415435 0.630277 -1.05304 0.156245 0.704577 -0.424937 0.0226599 -0.695894 0.470058 0.825365 0.0379117 0.50364 -0.526997 0.52307 -0.635424 0.314627 -0.0168791 -0.11678 0.88925 0.584858 -0.669986 -0.00343382 0.0553094 -0.697555 -0.0446565 0.62706 0.727803 -1.09573 -0.755417 0.159024 0.766591 0.142961 -0.276164 0.18572 0.904041 0.23553 -0.273586 0.241024 -0.284706 0.821816 0.598294 -0.391207 -0.949923 0.152811 0.662978 -0.212569 -0.434882 0.845545 0.868028 0.541228 -0.835146 0.134769 -0.557504 -0.24361 -0.284586 0.695336 0.599987 0.576357 -0.832496 0.440111 -0.486707 -0.746189 -0.679073 -0.799034 -0.934272 0.0876439 -0.0631647 0.952022 -0.617104 0.0675728 -0.985467 -0.801788 0.319173 -0.868871 0.659013 -0.940408 -0.00995659 0.128126 -1.05423 0.645679 -0.074908 -0.638675 -0.911851 0.387406 -0.995368 0.264876 0.162306 -0.0237463 -0.423987 -0.573482 -0.801053 -0.35921 0.303701 -0.266591 0.993821 -0.0376613 0.202695 0.174803 0.248761 -0.0426449 -0.575365 0.307476 -1.07659 0.00583935 0.729592 0.0931653 0.576178 -0.521414 -1.03545 -0.16106 0.58353 -0.450643 0.446374 0.537194 -0.471832 -0.21597 0.554823 0.409077 -0.152604 0.423644 0.640685 -0.0681094 -0.0473932 -0.805665 0.108659 0.346852 -0.118745 0.318349 -0.0286812 0.542687 0.464264 0.433825 0.134245 0.126827 0.165367 -0.733553 -0.102063 -0.0498373 -0.0615748 0.323987 -0.912359 0.646117 0.046171 -0.712212 0.00902118 -0.977848 0.786179 -0.843213 0.414895 -0.212284 0.892632 -0.306119 0.265662 0.46236 0.995107 -0.253841 -0.565045 0.00822221 0.775565 0.827054 0.581178 -0.319795 0.113958 0.502987 0.926424 -0.124963 0.600978 -0.140402 0.287388 0.509154 0.708227 0.205462 -0.751578 0.158275 -0.424528 -0.38433 -0.959523 -0.219016 0.983345 0.720388 -0.262677 0.929449 -0.875664 -0.782374 0.562099 0.408721 0.729225 -0.373916 0.487929 -0.341446 0.404671 0.847408 0.279437 -0.795091 -0.276484 0.456073 -0.800251 -0.609471 0.655177 0.0287273 -0.723746 -0.766606 -0.439709 0.376359 -0.787483 0.786703 0.384786 0.82232 0.536405 -0.100923 -0.474082 -0.767964 0.241894 0.280421 -0.168916 -0.100441 0.478348 0.660555 0.281896 0.436243 0.153696 -0.544092 0.13545 0.846856 -0.438662 0.659723 -0.74199 -0.674383 -0.421455 0.189462 0.314712 0.656237 0.287956 -0.674926 -0.995545 0.600741 -0.550651 -0.550609 -0.0328949 0.423958 -0.234491 0.752216 -0.0839054 0.368427 -0.344337 0.487889 -0.0678335 0.214866 0.321136 0.28857 -0.277133 -0.348589 -0.367585 0.53302 0.00231147 0.530153 0.793328 -0.0845768 0.761552 0.819887 -0.909684 -0.745632 -0.118767 -0.299774 0.0181116 0.831237 -0.759268 0.0340055 0.136998 0.919667 0.651993 -0.521733 0.60863 -0.894023 -0.18195 -0.421017 -1.00404 -0.502875 0.810677 -0.305509 -0.502117 0.31557 -0.478271 -0.531177 -0.547319 -0.969279 -0.844233 0.181431 -0.617028 -0.831713 -0.90022 0.135184 0.504042 0.810918 0.324566 0.305569 0.894506 0.00393792 0.779107 0.802253 -0.911567 -0.994691 -0.499435 -0.162984 0.429362 -0.766394 0.859402 -0.0496561 -0.343825 -0.436513 0.82482 0.298606 -0.328697 -0.27717 -0.62209 0.831112 -0.0890339 0.935721 -0.069523 0.808792 -0.341325 0.2593 0.248716 0.0811662 0.265383 -0.349176 -0.830914 -0.483015 0.753696 0.817817 -0.098307 -0.357968 -1.11264 -1.08475 -0.57293 -0.872 0.481788 -0.290399 0.122932 -0.00832113 0.700885 0.253164 0.131117 -0.360552 -0.0959198 0.304259 0.708582 -0.539297 0.411135 -0.547059 0.820965 -0.648425 0.38665 -0.29187 0.776186 -0.541229 0.166936 -0.865142 0.551515 -0.105282 -0.143038 -0.153302 0.287372 0.0400623 -0.615149 -0.834608 0.150655 -0.949301 -0.0552703 -0.0559667 -0.695748 0.674774 0.129076 -0.644732 0.892222 0.576203 0.587051 0.529314 0.743651 -0.60001 0.414903 0.196875 0.286053 -0.256069 -0.208466 0.799802 -0.576861 -0.486604 0.489434 0.0255463 -0.0451554 -0.676488 -0.542215 0.781036 -0.424346 0.311217 0.220523 -0.150111 0.0290022 0.536667 -0.334142 -0.549258 0.702221 0.443307 -0.0765895 -0.116605 -0.465572 0.97028 -0.00726995 0.744499 -0.276554 -0.570659 -0.53465 -0.736516 0.581427 0.374858 -0.799516 -0.0249947 0.796899 0.855486 -0.617992 0.402069 0.671773 -0.223499 0.295296 -0.0820747 0.710006 0.971518 -0.432198 0.0168396 0.54185 -0.310824 -0.302327 -0.269532 0.808848 0.34941 -0.299118 -0.258304 0.818375 0.2253 0.193985 0.370754 0.213072 0.43295 -0.0854688 -0.454436 0.420741 -0.487913 -0.608825 0.897876 -0.768557 0.443815 0.769926 0.063815 0.302298 -0.66417 -0.156972 0.470044 0.0261521 -0.748626 -0.649344 -0.498313 -0.884393 0.508459 0.373005 -0.419905 -0.84141 -0.941388 -0.701099 -0.124742 -0.780149 0.573428 -0.0823389 -0.635937 0.946516 0.0484585 -0.0523162 -0.998719 -0.808864 0.69832 0.638355 -0.280827 0.769345 -0.346732 -0.302205 -0.402315 0.795113 -0.0734415 0.315154 -0.0579497 0.137345 -0.750814 -0.154358 0.481763 -0.710459 -0.182759 -0.63281 -0.611406 0.00398941 -0.517068 -0.208929 -0.15634 0.501185 -0.441615 -0.0772608 0.732953 0.801852 0.933437 -0.205077 0.127787 0.964298 0.510026 -0.652484 0.306702 -0.19364 -0.300654 0.173465 0.814369 -0.165213 -1.06543 0.623967 -0.956868 0.127827 0.464884 -0.127546 -0.325709 0.87906 -0.28283 -0.898506 0.0938197 -0.0952353 -0.0144072 -0.881124 -0.586219 0.268963 -0.852883 -0.927588 -0.0104622 0.980952 -0.118873 -0.986864 0.405971 -0.994151 0.188739 -0.817485 -0.367399 -0.244222 -0.450059 -0.0985997 0.948586 0.791339 -0.212009 -0.632959 -0.0293748 0.155713 -0.683959 -0.829295 -0.335501 -0.40663 0.802795 -0.219382 0.267676 0.922926 -0.366716 -0.922314 -0.478072 0.476309 -0.338603 -0.011237 -0.906906 0.31011 0.609732 0.346064 -0.785259 -0.235748 -0.636249 0.218468 0.22562 0.567053 0.551051 0.539325 -0.522645 -0.974741 -0.327927 0.628178 -0.232021 0.0744073 0.16644 0.805187 -0.994178 -0.209472 -0.106004 0.714754 -0.69318 -0.209744 0.901578 0.900096 -0.517081 -0.403975 -0.0802089 0.0168401 -0.49128 0.830864 0.72942 -0.955924 -0.42725 -0.329479 0.834493 -0.254379 -0.592171 0.123181 -0.547181 -0.601279 0.471787 0.240937 -0.122831 -0.524959 0.797884 0.842531 -0.376552 0.497976 -0.926837 0.608029 
0.194608 0.663771 0.83137 0.215359 0.180278 0.289616 -0.23217 -0.16254 0.690112 -0.457664 -0.245466 0.055272 0.606976 0.148353 0.65473 0.709716 0.0499343 -0.723268 0.860245 -0.256697 0.245106 -0.010933 0.346642 0.654086 -0.603132 -0.482373 0.849897 0.0821658 -0.786252 0.118762 -0.30431 0.660643 0.245842 -0.615147 -0.720817 -0.256993 -0.402395 0.37818 0.457301 -0.456671 -0.388668 0.0965815 -0.429302 -0.699729 0.973587 0.233987 0.559429 -0.411988 0.00240229 0.180155 -0.403221 -0.0428837 0.823349 0.0715133 0.488852 0.951336 0.360613 -0.606527 -0.187486 0.408266 0.135037 0.699948 -0.184245 0.806958 0.260322 0.329177 -0.281099 0.204981 0.575187 -0.554123 0.356436 0.486084 -0.279745 0.512391 0.081287 -0.949078 0.845984 -0.963845 0.642267 -0.145444 0.890941 -0.10835 0.293586 0.456612 0.957076 -0.610886 0.841417 -0.988083 0.794949 -0.406105 0.504885 0.687955 -0.319794 0.0676724 0.108994 -0.302258 0.829879 0.410284 0.0490122 -0.596424 0.148476 -0.74004 -0.748349 0.390033 0.835618 -0.119019 -0.986699 0.136296 0.103349 -0.966876 -0.210307 0.843169 -0.843102 -0.302575 -0.547272 0.771339 0.56803 0.626607 -0.756936 -0.164209 0.920473 -0.0752438 -0.390262 0.662767 -0.656087 0.684645 -0.840486 0.856138 -0.985905 -0.422686 0.631243 -0.348668 -0.6848 -0.845351 -0.912653 -0.960916 -0.0813499 -0.966492 0.325495 -0.409713 0.762646 -0.454374 0.249784 -0.8214 -0.75298 -0.167922 -0.910281 0.0187103 0.103036 0.872025 -0.817526 0.722396 -0.650983 0.899984 0.566271 -0.845824 0.188319 -0.0213602 0.496091 -0.431695 -0.493223 0.205131 0.626267 1.04453 -0.572757 -0.421593 -0.437468 0.106934 -0.211577 -0.917464 -0.0185466 -0.346709 0.420798 0.972921 0.97861 -0.900133 -0.396891 -0.543442 0.273042 0.74509 1.23858 1.24562 0.998746 0.595153 0.743135 -0.161335 0.939361 1.12743 0.349315 -0.441065 0.184532 0.0887775 -0.683133 -0.537687 -0.776582 -0.31847 0.0700635 0.428205 -0.950168 -0.485262 -0.74837 0.805036 0.838467 0.876584 -0.421943 0.263318 0.310692 0.374587 1.00594 0.0706804 -0.0413588 0.370786 0.0400535 0.119086 -0.338559 -0.689624 0.30934 1.07419 -0.657555 0.613292 0.867792 0.650656 0.971394 0.862075 -0.859793 0.0736664 -0.458288 -0.672759 -0.491118 0.0941892 0.94736 0.606435 0.876486 1.09813 0.352691 -0.0485293 1.44885 0.735166 1.38046 0.387434 0.124897 1.35207 -0.82889 -0.224135 -0.990912 -0.60686 0.859064 0.276944 0.929884 -0.369815 0.0814022 -0.768701 0.00425809 0.152157 -0.301248 0.0193671 -0.842224 0.299298 -0.640861 0.461195 0.198722 0.893084 0.288377 0.684206 1.40958 -0.250032 0.816326 -0.0749401 -0.408062 0.129755 -0.821154 0.507968 -0.952183 0.631817 -0.992243 0.672014 -0.711252 0.0861993 -0.166345 0.0741617 -0.737634 0.118535 0.587429 0.223655 -0.66667 0.332384 0.260616 -0.802771 -0.050045 0.92266 -0.45187 1.16492 0.20695 1.02849 -0.32432 -0.513076 -0.999267 -0.0639029 0.324958 0.393647 -0.46231 -0.424809 0.214828 0.827955 -0.662075 -0.249876 0.566608 -0.0834973 0.186517 0.512011 0.895569 0.903276 0.25483 0.784672 0.796698 0.356867 0.107974 -0.658093 0.390417 -0.376326 0.254866 -0.553901 0.702856 -0.365119 -0.466699 0.395658 0.484676 0.769235 0.98964 -0.693619 0.00105189 -0.107184 -0.19693 -0.668478 0.150473 -0.175049 -0.4396 0.916436 -0.943492 -0.650602 -0.793887 0.42508 0.842577 -0.86068 0.554644 -0.280085 -0.140354 0.123585 0.952326 0.142819 -0.69124 0.839845 -0.824536 -0.853978 -0.396833 0.464464 -0.846865 -0.599767 0.841424 -0.950219 -0.188687 0.304496 -0.465979 -0.349008 0.0381921 -0.546639 -0.347216 0.776769 -0.309847 -0.470456 0.458184 0.143111 -0.347653 0.917275 0.120975 0.980443 -0.410202 1.31035 0.460612 0.790608 0.902112 0.681125 0.263354 -0.927177 0.962137 0.481661 -0.989076 -0.888869 -0.868804 0.0551166 -0.679841 0.120518 -0.418528 -0.722514 0.263729 -0.979507 0.351407 -0.337146 0.47375 0.227166 -0.587269 0.296915 0.191218 0.484495 -0.665968 -0.219781 1.30226 -0.217969 0.557262 -0.213417 0.718361 -0.768909 0.982021 -0.789709 -0.866659 -0.674909 0.367019 -0.0437215 0.842457 -0.735999 0.966852 0.914057 -0.162485 0.227604 -0.0529918 0.50177 0.460594 0.829495 -0.89987 -0.30114 0.320096 -0.581086 -0.526735 -0.935208 0.241803 0.361493 1.16456 1.05337 -0.0813494 0.549947 0.824944 -0.818376 -0.757582 0.174624 0.944961 -0.0123234 0.0547342 -0.78791 0.139764 -0.98753 -0.963276 0.214863 0.392748 0.727065 -0.127279 -0.832517 -0.277148 -0.583795 0.0635838 0.706423 -0.704913 0.177351 0.314337 -0.839733 1.00748 1.30074 -0.45861 -0.154528 -0.989681 0.329057 -0.450663 0.564759 0.699769 0.681936 0.734985 -0.193186 0.388735 0.274256 -0.568167 -0.0953285 -0.145578 -0.913157 -0.312028 -0.80729 0.671492 0.752508 -0.868046 -0.398128 0.0750634 -0.834362 0.588722 0.407262 -0.130028 0.0188154 0.463164 1.35152 -0.785928 0.784132 -0.707089 -0.309926 -0.580422 0.913829 0.745173 -0.880745 0.30102 0.167524 -0.273314 0.374375 -0.342633 0.716624 -0.496671 0.35404 -0.373952 0.800198 0.263383 0.477559 -0.744027 -0.218618 1.01217 -0.735083 -0.264074 -0.192095 0.424551 0.758499 0.92797 0.117909 -0.651508 0.0957533 0.704457 0.367199 0.372711 -0.560976 -0.930211 0.440765 -0.879028 -0.60133 -0.122496 0.648429 -0.694688 -0.893913 -0.382607 0.546799 0.384673 -0.973292 0.926276 1.25557 0.336285 1.20864 1.25888 -0.179088 0.652851 0.544538 0.828041 0.751015 -0.773099 0.188708 -0.966152 0.353876 -0.680495 -0.54468 -0.305129 -0.806755 0.656408 -0.895415 -0.29055 -0.325681 0.577249 0.0338276 0.18163 -0.143064 0.671339 -0.735341 0.027018 -0.47713 1.32247 0.739938 0.459753 0.683121 -0.0747105 0.832782 0.673478 0.707805 -0.0826985 -0.265107 -0.781059 -0.622894 0.54886 0.695786 -0.868834 -0.0129367 0.974933 -0.388293 0.571001 -0.142287 0.999153 0.719895 -0.900365 -0.346853 0.419438 1.27081 1.33046 0.0216531 1.2717 0.488915 0.573478 -0.512646 0.109651 -0.617223 -0.76967 0.770597 -0.285101 -0.647947 0.40696 0.23758 0.641456 0.955283 0.359454 0.949953 0.986153 -0.401142 -0.310559 0.449844 0.870455 1.12922 -0.0541675 0.347457 0.116113 1.44931 0.836176 0.000238273 0.297566 -0.863293 -0.687148 -0.808993 -0.834425 -0.926644 -0.393687 0.334997 0.0916939 -0.773456 -0.763926 -0.171236 -0.143679 -0.433916 0.618921 0.2695 -0.917282 -0.313397 -0.658016 1.34222 0.86514 -0.469708 1.10745 -0.261108 -0.162827 0.328127 0.0450501 -0.710516 0.891288 0.405747 0.742926 -0.677458 0.243987 0.0162776 -0.64229 -0.0338727 -0.0364915 0.483532 -0.505794 0.936108 -0.501554 -0.777397 0.49849 0.337475 0.371989 -0.27034 0.371091 0.599333 -0.203984 1.44208 1.41938 0.288249 -0.433916 0.78875 0.100431 -0.907674 -0.153461 -0.859638 -0.023567 -0.563455 0.891453 -0.49058 0.0425544 -0.812839 -0.0717793 -0.95044 -0.155329 0.471801 0.00859585 -0.981784 0.090394 0.144798 -0.377925 0.799403 -0.238065 0.978638 0.0376195 0.592127 -0.680506 -0.163441 0.760363 0.390673 -0.936121 0.0917283 -0.0239463 0.0778504 -0.855829 0.607376 -0.628144 -0.529985 0.837509 0.908984 -0.655684 -0.777734 -0.0323474 -0.205779 0.763428 0.672131 -0.606093 0.300443 0.593958 -0.101287 -0.842984 -0.648752 0.0186993 0.759785 0.535366 -0.867462 -0.330532 -0.91552 0.565059 0.795898 0.627203 -0.0592429 0.0252748 -0.655623 0.131271 -0.322414 0.693996 -0.540778 -0.277643 0.487842 0.652374 -0.354038 -0.283127 -0.411427 0.306477 -0.55586 -0.816978 -0.302755 0.0573504 0.04567 0.733246 0.327061 0.961033 -0.228642 -0.172017 -0.75068 0.671064 -0.813676 -0.79599 0.0769716 -0.177188 0.418945 0.647913 -0.933995 -0.453107 -0.55035 0.646136 -0.629738 -0.337693 0.98862 -0.613512 -0.715089 
-0.643585 -0.571304 -0.0169059 0.893943 -0.309149 0.731978 -0.923648 -0.624643 0.605672 -0.188043 0.0812929 0.322571 0.335227 -0.859374 0.750813 -0.145804 0.149185 -0.259765 -0.712723 -0.0547565 0.0403131 -0.996467 0.73446 -0.795748 -0.426417 0.0708511 0.64368 0.596102 -0.293447 0.0592548 0.857878 -0.0745453 -0.78892 -0.833648 0.0681589 0.773232 0.450596 -0.0506473 0.980527 -0.395833 0.51071 0.266169 -0.0636514 -0.433492 0.317782 0.980749 0.223513 0.813389 -0.989007 0.171158 -0.375467 -0.563253 0.664464 0.686272 -0.771631 0.908357 0.0564466 -0.270894 0.715741 0.215826 -0.737841 -0.986166 0.157595 -0.490654 0.617435 -0.973795 -0.777607 0.120366 -0.728596 -0.466672 -0.729782 -0.593024 -0.677756 -0.0483254 0.30802 0.298336 -0.874126 0.702642 0.877054 -0.212725 -0.530875 -0.995741 0.990382 0.860527 -0.768165 0.224946 -0.805255 -0.945805 0.045248 -0.0763266 -0.789861 0.311289 0.200915 0.354798 0.12254 0.820879 0.116463 -0.0853636 0.1656 -0.737681 0.448141 0.691759 0.409624 0.321377 0.612152 0.349764 0.996021 -0.942338 0.376536 -0.561109 0.860542 0.286957 -0.678169 0.762703 -0.371794 0.507571 0.927342 -0.67092 0.12805 -0.923233 -0.948259 -0.584797 -0.688387 0.738594 -0.983622 0.99526 -0.0594975 -0.625058 -0.267937 0.801909 -0.603542 0.176511 0.251425 0.585434 0.585712 0.266198 0.740116 -0.0296357 -0.746234 0.694754 -0.578616 -0.278855 0.034056 0.397231 -0.6239 -0.15179 0.762346 -0.875478 -0.167358 -0.338577 -0.84902 -0.212528 0.732922 -0.917451 0.987754 0.115379 -0.461745 0.80555 0.285818 0.820503 0.523527 0.790421 -0.43874 -0.42504 0.338358 0.308224 -0.793659 0.77138 -0.409845 -0.0475106 -0.155447 -0.96199 0.77019 0.347692 -0.408965 -0.657237 -0.39472 0.137377 0.456076 -0.558605 -0.83172 1.11367 0.426708 0.774038 -0.578111 0.877791 0.0875006 -0.251015 -0.762365 -0.690367 1.00359 -0.0996067 -0.652311 -0.711457 -0.838246 0.388121 -0.174911 -0.620903 0.24641 0.56894 -0.51957 0.125927 -0.290504 0.771977 1.01968 -0.677578 -0.438248 -0.311504 1.02002 0.824063 0.97036 -0.181766 0.0368737 0.615236 -0.716981 0.613169 0.47857 0.310494 0.104735 -0.588493 0.402293 0.902026 -0.660585 -0.333258 -0.816856 0.452238 -0.414667 -0.0270641 0.762552 -0.069186 -0.377594 0.898016 0.325401 0.187938 -0.658353 -0.54156 0.801562 0.721406 1.00512 0.558014 -0.378471 -0.351802 -0.789357 0.517678 0.66712 -0.523766 0.0721118 0.478261 0.651211 0.624999 -0.657814 0.989512 -0.312394 0.719028 0.869104 0.0823158 -0.586597 0.14461 0.364748 -0.612927 0.17772 -0.741005 -0.453048 0.205703 0.633966 0.130544 0.846255 0.647868 0.575204 -0.321339 0.344754 0.687952 -0.716344 -0.757184 0.361922 -0.98335 -0.598711 -0.0911306 -0.148632 0.526612 0.377856 0.83426 -0.548434 -0.366586 -0.0710764 -0.15654 0.841279 0.243745 -0.126253 -0.304384 0.520793 -0.417886 0.525991 1.02141 0.298229 0.147008 0.799299 0.498543 0.112408 -0.382575 -0.370904 0.0497289 0.631807 -0.743295 0.0446728 -0.464455 -0.360617 0.417856 -0.845547 0.585205 -0.766375 -0.220761 -0.113874 0.399582 -0.335421 -0.348953 0.254047 -0.668084 -0.407852 0.368231 -0.197112 0.38155 0.431846 0.000653617 -0.715263 -0.820353 0.378614 0.930067 0.910358 -0.682345 0.30638 0.0784011 0.94894 -0.155279 0.867618 0.971667 -0.760548 -0.255137 -0.694187 -0.416039 0.582909 -0.719738 0.55228 0.606931 0.058437 -0.527507 0.905397 0.88694 0.885672 1.01695 0.420842 -0.632964 0.568131 0.759146 -0.286888 0.789003 0.4004 0.988215 0.97248 -0.21984 -0.588802 0.982524 -0.727798 -0.235528 -0.701048 -0.184363 -0.422093 -0.731788 0.605206 0.684206 -0.184778 0.738182 0.799703 -0.154504 0.242982 0.825581 -0.715591 -0.36887 0.0598452 -0.489731 0.310107 -0.74234 -0.127717 -0.20799 0.434218 -0.050934 -0.797567 -0.0446996 0.0459578 -0.867216 -0.722353 -0.429681 0.955449 0.826334 -0.935013 0.280677 0.132942 -0.488206 -0.622505 0.656048 -0.372197 -0.92076 -0.10229 -0.986715 -0.62007 -0.922762 1.16005 0.502035 0.368156 -0.0594625 -0.136448 0.806011 -0.0695215 0.838089 -0.547602 0.851719 0.648394 -0.807538 0.162442 0.603512 0.0964873 0.915741 0.883442 -0.180173 0.298113 0.886301 -0.839113 0.0756117 0.0555809 -0.247965 -0.902324 -0.931793 -0.906188 -0.598972 0.518009 0.457033 -0.615392 0.298187 -0.491411 -0.217681 0.503147 -0.180303 -0.806639 -0.758741 -0.89921 -0.111486 0.708085 -0.706265 -0.374567 0.34888 0.800558 0.173376 0.809663 0.448765 -0.647562 0.887735 0.689319 0.504828 -0.0951774 0.254771 -0.965865 0.11778 0.913592 -0.547862 -0.402538 0.937962 0.534865 -0.644327 -0.631044 -0.142299 -0.154347 0.316081 0.502998 0.808802 0.899078 0.00677097 0.42204 -0.436069 0.671308 0.616116 -0.491479 -0.865921 -0.427008 -0.984029 -0.883825 -0.424134 0.732761 0.562686 0.68024 0.925479 0.113966 0.937987 0.541487 0.0923229 0.627696 0.993927 0.0554141 0.529081 -0.546099 0.244865 0.88024 0.753623 -0.637694 0.288339 -0.671188 0.535863 0.240275 -0.635805 0.738642 -0.094327 -0.915187 -0.0704501 0.790409 0.58324 0.717513 -0.985382 -0.598221 0.273617 0.323224 -0.286153 0.774278 0.372298 0.0887982 0.144947 -0.858824 0.928865 0.445199 -0.581485 0.457342 -0.37015 -0.269314 -0.622677 0.52776 -0.409598 0.0942503 0.417283 -0.0575077 -0.26056 -0.597032 0.241867 0.608528 0.146701 -0.662492 -0.342679 -0.0110205 -0.643076 0.177325 0.294053 -0.733982 0.867752 0.443612 0.233448 0.412766 0.729849 -0.81808 -0.0647031 -0.715678 -0.459958 0.27349 -0.666549 -0.832877 0.37079 0.438922 -0.973614 -0.058701 0.0174434 -0.910766 -0.600241 0.396488 -0.479593 0.745589 -0.408113 -0.695068 0.314227 -0.677413 0.441664 -0.257727 -0.139358 -0.849574 -0.794976 0.971917 0.372466 0.401823 0.257815 0.626413 -0.719433 -0.332665 0.0738149 -0.46539 -0.689821 -0.0435249 0.579803 -0.588971 0.472789 -0.451991 -0.408676 -0.861304 0.77964 0.840617 1.11678 0.254569 0.074237 -0.184912 0.632565 0.899333 -0.866564 0.541398 -0.941711 -0.227092 0.255154 0.419442 -0.328571 -0.0560748 0.132753 -0.90155 -0.507876 -0.277512 -0.874995 -0.258823 0.517081 0.987157 -0.242062 -0.639943 0.70629 0.119152 0.326633 -0.301857 0.949448 0.0890113 0.991315 1.0235 -0.66983 0.189641 -0.32369 -0.00674156 -0.365577 0.385601 -0.159367 -0.980944 0.85553 -0.229001 0.199756 0.333789 0.720908 0.285083 0.0643561 -0.64567 0.856183 0.13878 0.23049 0.516952 0.784356 -0.513848 -0.76255 -0.560691 0.230731 0.33993 -0.760671 -0.598851 -0.635147 -0.846207 -0.986993 -0.232046 -0.633369 -0.0737817 -0.71801 -0.988116 -0.403148 -0.674002 -0.0377104 0.910637 0.0278344 0.815608 -0.049323 0.280666 0.611873 0.505342 1.15484 0.285085 0.485423 0.909345 0.120364 0.800347 0.744461 0.291516 -0.185374 -0.122348 0.780134 -0.559038 0.018495 -0.210901 -0.305951 -0.741543 -0.342645 0.0810298 -0.398142 0.189029 -0.915931 0.377821 -0.142932 -0.983148 0.00731536 -0.966312 -0.60468 -0.433171 0.481667 0.745463 -0.856747 0.97437 0.905659 -0.612009 0.0663383 0.46803 -0.219078 0.886936 -0.555401 -0.581902 -0.754286 0.489825 -0.68573 -0.391062 0.746436 0.270949 0.379222 -0.617264 -0.0331174 -0.417632 -0.278673 0.0258448 -0.316393 -0.440278 -0.286879 0.626114 0.857294 -0.747243 -0.246007 0.766301 -0.155411 -0.62974 -0.910984 0.649613 -0.50303 -0.320729 0.921978 -0.976789 0.187555 -0.480109 0.0726603 -0.255741 -0.406697 0.80029 0.238123 -0.523274 -0.88151 -0.529088 -0.810671 0.991487 0.687416 0.420527 0.621068 0.660076 0.188558 -0.53562 -0.271961 0.27012 -0.629843 -0.635649 0.552099 0.244355 0.544454 -0.288198 -0.0126544 -0.65151 -0.216264 0.686377 -0.0874802 -0.339088 0.381285 0.328767 0.780668 0.31754 -0.854213 -0.807 -0.0135549 
-0.453019 -0.853996 0.0202234 0.0506988 0.669711 0.013146 0.953904 0.397932 -0.567066 0.898191 -0.466693 -0.630351 -0.0432301 -0.556441 0.633099 0.688062 0.753067 -0.572924 0.498374 0.146602 0.435698 0.561976 0.168876 -0.712039 -0.144615 -0.707592 -0.0587461 0.7042 -0.728838 0.372345 0.714765 -0.346044 0.678697 -0.0473413 -0.685818 -0.650738 0.857305 -0.35433 -0.617031 -0.658254 -0.0654704 -0.594687 0.23255 0.258746 0.80855 -0.781681 0.550233 -0.418602 0.208033 0.635338 -0.527341 -0.592884 -0.0565906 -0.498241 0.127026 -0.250131 -0.702264 -0.356446 0.227027 0.695601 0.891961 0.0432476 -0.395297 -0.696485 -0.584768 0.738267 0.258518 0.198137 -0.323914 -0.440545 0.222471 -0.0679388 0.464942 -0.444518 0.513477 0.945986 0.880866 -0.374994 0.0986744 -0.470208 0.799387 -0.475994 0.922764 -0.911421 0.633296 0.0674876 0.945904 0.378843 -0.34898 -0.78 -0.772092 -0.464984 -0.794289 -0.756338 0.550907 0.498114 -0.0596632 -0.960745 0.839319 -0.0599822 -0.00691019 0.183362 0.00571578 0.439465 0.465248 -0.566376 -0.361399 0.236572 0.389234 0.104547 0.352572 0.472022 -0.832265 0.496995 -0.523872 -0.00839329 -0.801126 -0.662126 0.218533 0.292552 -0.255939 0.367386 0.771004 -0.321739 -0.933262 -0.361298 -0.908885 -0.350725 0.763153 -0.487768 -0.85741 0.839121 0.810576 0.450693 0.808497 -0.283283 0.173719 0.0461683 0.0996249 0.430348 0.600689 0.0530006 0.38682 -0.477097 -0.740025 0.53793 0.59218 -0.39834 -0.802853 -0.463969 -0.349956 0.389664 -0.863784 -0.798967 -0.454016 0.390806 0.560992 0.772916 0.450241 -0.269378 0.0207944 -0.119365 -0.520397 0.829124 0.0612724 0.586643 0.0994668 -0.932051 -0.931778 -0.492287 -0.858457 0.428409 -0.0558348 0.322177 0.501074 0.475572 -0.880348 -0.953148 -0.476654 0.778865 0.399965 0.511945 -0.739598 0.189269 -0.728896 -0.00702665 0.742143 0.515146 -0.244962 0.0349512 -0.416683 0.469358 -0.793542 -0.546195 -0.317162 0.143622 0.937586 0.704089 -0.143701 0.753095 -0.36148 -0.495919 -0.887104 0.738854 0.543904 -0.5066 0.394148 -0.673871 0.663086 0.842398 -0.530529 -0.913099 -0.265078 0.367378 -0.215432 0.454005 0.475056 -0.294516 -0.426371 0.494313 0.978532 -0.151486 0.942785 0.388011 0.856209 0.409265 -0.741425 0.730597 0.594787 0.382271 -0.700854 -0.590004 0.476969 0.583497 -0.885975 -0.392455 -0.664983 -0.649671 -0.235143 -0.185335 0.404296 -0.0552155 0.28633 0.748332 -0.315643 -0.287853 0.472124 0.105626 -0.912105 -0.761913 0.154521 0.11925 -0.58135 0.453751 -0.127716 -0.685545 0.647394 0.853487 -0.594438 -0.654638 0.856548 0.352828 -0.363459 -0.829853 -0.965786 0.843638 -0.91498 0.619442 0.223615 0.823391 0.57196 0.970467 -0.871421 0.536266 0.292481 -0.474236 -0.443926 0.753774 -0.259069 0.978792 -0.683379 0.207758 -0.308568 0.189747 0.867081 -0.661831 0.914398 0.664007 0.872051 0.689357 0.203673 -0.203151 -0.553554 -0.114364 -0.433023 0.513376 0.26012 -0.700786 0.853132 -0.799029 0.274882 0.189876 0.651141 -0.668753 -0.638148 0.924277 0.00916514 -0.291474 -0.966621 -0.419473 -0.601579 -0.412926 0.414881 0.362616 -0.0181908 -0.615478 0.256391 -0.016242 0.408002 0.0866299 -0.51016 -0.759167 -0.975674 0.64886 -0.570875 -0.229937 0.514264 0.274504 -0.476342 0.754787 -0.928 -0.362266 0.422471 -0.272039 -0.806505 -0.603042 -0.927275 -0.995747 0.137768 0.968693 -0.468247 -0.0447692 0.0813402 -0.844583 -0.137432 -0.313983 0.409234 0.721597 0.538455 -0.0806755 -0.741286 -0.700578 -0.815927 -0.507006 0.108212 0.77244 0.116327 0.350402 -0.593974 0.0311159 0.7138 0.32952 -0.320326 -0.436774 0.173766 0.469471 -0.506495 0.131698 -0.362736 0.587722 0.356289 -0.781401 0.0411109 0.339362 -0.85379 0.736371 0.0882829 -0.921665 0.282652 0.625752 0.920954 0.364597 -0.953286 -0.00232468 0.997853 0.696421 0.729909 -0.194571 0.910011 -0.220372 -0.839074 0.492302 0.703464 -0.667576 0.734099 -0.103811 0.68486 -0.235762 -0.220375 0.39212 0.716627 0.0930008 0.0600025 -0.466451 0.584781 0.383893 -0.0438076 -0.905048 -0.682983 0.176743 0.464599 0.75649 -0.429448 0.679 -0.223818 -0.0225902 -0.443536 0.841664 0.494523 -0.602186 -0.11354 0.975273 -0.207445 0.236604 0.733291 0.350277 -0.634278 -0.679086 0.0661971 -0.860829 -0.688508 -0.15292 0.0996549 -0.0380684 0.390751 -0.257214 0.492591 -0.280655 0.473006 -0.410176 0.650749 0.6048 0.945933 0.116685 -0.25473 0.54208 -0.591731 -0.825771 0.49771 -0.649422 0.882241 -0.851087 0.284019 0.967243 -0.351829 -0.678407 -0.446199 0.0601379 -0.391845 0.035386 -0.21766 0.679579 0.350833 0.856516 -0.75177 0.000488971 0.933715 0.314062 0.370013 -0.939193 0.278819 -0.0992883 0.688521 0.578814 0.727097 -0.439835 -0.784931 0.736651 -0.665731 0.573055 0.563351 -0.375005 0.731828 0.893751 -0.705262 0.0897619 -0.514747 0.558798 0.73855 -0.596438 -0.206036 0.622203 0.108901 -0.501439 -0.999024 0.220103 -0.858256 0.0461403 0.132898 0.217582 -0.378627 -0.802021 -0.174694 0.453966 0.13138 0.284719 0.862301 0.0885415 -0.256908 0.185891 0.811747 0.655248 0.646976 -0.580339 0.00393943 -0.92426 -0.59907 -0.850594 -0.384415 -0.462086 -0.196498 -0.477908 -0.999954 -0.453306 0.121279 0.860554 0.837433 0.655803 0.730901 0.872651 -0.00957376 0.454065 -0.501979 -0.381176 0.0316061 0.58699 0.378979 -0.649941 0.455402 -0.799542 0.0255699 0.498518 0.909324 0.882459 0.54489 -0.464568 0.349741 0.442728 -0.714516 -0.54892 -0.382669 -0.959442 -0.947044 -0.0836925 -0.673837 -0.332183 -0.767772 0.877023 0.991766 -0.747593 0.727499 0.652828 0.78888 0.209418 -0.381843 0.19016 -0.0632775 0.609663 0.522034 -0.556218 -0.503494 -0.125267 0.0978229 -0.156899 0.0465175 -0.458462 0.169348 0.489305 0.567046 0.805726 0.0726718 -0.966448 -0.933203 0.421798 0.501293 -0.361615 -0.0233618 0.939862 0.438752 -0.196934 -0.789461 0.896693 -0.24195 -0.576884 -0.17343 0.193192 -0.342742 0.722529 -0.18374 0.487715 0.332807 0.0924733 0.506894 -0.661182 -0.439799 -0.156659 0.742646 0.921296 -0.612146 0.747675 0.601028 -0.523839 0.0394974 0.651291 -0.192295 0.718404 -0.365381 -0.450013 0.0516822 0.140574 -0.325084 -0.79613 0.0328679 0.575735 -0.805259 -0.824819 -0.510549 0.859875 0.0880064 0.892215 0.915854 0.711092 -0.798455 0.463194 -0.299168 0.3177 -0.830067 0.58679 0.903014 0.595513 0.699408 0.764844 -0.755259 0.0237038 -0.872851 -0.456306 0.063549 0.394934 0.74628 0.589472 -0.702409 0.756611 0.979543 0.475785 0.911215 -0.461428 -0.251985 0.899569 0.197008 0.71172 -0.667944 0.65982 0.301557 0.888856 0.259538 0.729001 0.313639 -0.227915 -0.35204 -0.289301 -0.455554 0.463335 0.130046 -0.221964 0.120295 0.662697 0.78819 0.0228231 0.688441 0.486036 0.308423 0.771979 0.187974 0.754668 0.244317 -0.166369 -0.0046961 0.299592 0.0184953 0.230357 0.909828 -0.729646 -0.880823 -0.060845 -0.390284 -0.331309 0.729438 -0.941816 0.168767 0.0798244 0.114031 0.792435 -0.0929673 0.90829 -0.649016 -0.877158 -0.654648 -0.931842 -0.84853 -0.851472 0.85865 -0.384565 0.965711 -0.845451 0.115178 -0.0562172 -0.0518343 0.920263 0.940165 0.775995 -0.982083 0.8348 0.113141 -0.0948314 -0.553131 0.685794 0.0753231 0.869081 -0.675687 -0.113647 -0.00424622 0.407486 -0.315683 -0.0899602 -0.238665 0.0490214 0.653905 -0.693396 -0.293093 -0.798795 0.261201 0.181692 0.483535 -0.659708 0.592565 -0.568155 0.426604 -0.50456 0.302521 -0.300959 -0.729764 -0.29792 0.0879627 -0.270928 -0.368043 -0.632219 -0.57722 0.810829 0.867709 -0.976083 -0.620885 0.045184 0.600281 0.893001 -0.355673 -0.0884862 -0.672568 -0.239303 0.100871 0.579758 0.388328 -0.367537 -0.647675 -0.984425 0.982112 0.880079 0.538479 -0.170804 0.0679729 -0.516985 -0.149242 -0.38656 -0.441877 0.732919 
-0.0971585 -0.397622 -0.464426 0.479829 0.319635 -0.835929 -0.825824 0.292471 0.291496 0.295031 0.69622 -0.8647 -0.266145 0.357432 -0.371301 -0.0655916 -0.949114 0.498121 0.564637 -0.477967 -0.740041 -0.698806 0.618652 -0.924686 0.960042 0.659076 -0.625517 0.861384 0.443909 -0.910089 0.71331 -0.986002 0.758141 -0.175309 -0.904716 0.421225 0.0862457 0.395781 -0.519962 -0.973613 0.592866 -0.320963 -0.766452 0.637532 0.182577 0.104721 0.0308552 0.482229 -0.470421 -0.833717 0.360744 -0.10309 -0.283096 -0.177733 -0.851793 0.497046 0.535761 0.565939 0.1552 -0.76677 0.952753 -0.459009 -0.198418 -0.0617269 -0.964453 0.51726 -0.175537 -0.0316202 -0.901232 -0.118097 0.723718 0.79749 -0.0144897 0.279433 0.721528 0.379701 -0.676844 -0.230661 0.619258 -0.398635 0.334491 0.0655187 -0.615069 0.656112 -0.929913 0.268915 -0.301539 0.39431 0.893055 0.997622 0.152869 0.501394 -0.210555 0.824265 -0.666489 -0.486694 -0.780203 0.0123328 -0.1773 -0.631212 -0.490171 0.27216 -0.79044 -0.895213 0.68585 -0.271226 0.856324 0.472686 -0.909288 -0.560537 0.964488 0.105427 -0.453471 -0.697093 0.741972 0.691864 -0.0701865 0.578488 0.898872 0.428114 -0.156275 -0.660487 -0.409376 0.241895 0.466209 -0.514133 0.641098 0.107532 0.325908 -0.833591 -0.184567 -0.849758 -0.686083 -0.762832 0.457052 0.766894 0.682289 0.0231983 -0.758442 -0.561144 0.503759 -0.803637 -0.281027 0.777231 0.451689 0.533074 0.843425 0.509596 -0.31798 -0.348862 -0.687045 -0.975178 0.146094 0.309905 -0.822648 0.00893768 0.850588 0.462564 1.05734 0.381324 0.57489 -0.229414 0.397169 -0.49864 -0.445917 -0.305716 -0.626471 -0.69048 0.446175 -0.923839 -0.335389 -0.149788 0.914663 0.954126 -0.951434 0.675661 -0.107031 -0.110064 -0.154663 0.684115 0.379052 0.153507 0.364432 1.57646 1.04889 0.398389 -0.00047097 -0.00554778 1.50668 0.782914 1.02679 -0.350785 0.0947768 -0.896171 0.982518 -0.543516 0.00727602 0.559423 -0.68511 0.57121 -0.381178 0.653397 -0.663799 0.649515 1.38861 0.0901418 0.291522 1.03073 1.0894 0.875417 0.608107 0.888428 1.31568 0.0078478 0.00137718 0.970245 -0.725968 -0.489434 -0.784548 0.0609199 -0.846076 0.349295 0.135257 -0.232714 -0.252764 -0.897711 0.32389 -0.25185 0.242628 0.329789 0.927214 -0.448591 0.410135 0.430108 0.0536892 1.30942 0.818599 0.562924 0.810132 -0.18585 1.2122 1.0764 0.963588 0.38075 -0.934135 0.742801 0.111402 0.32628 0.653199 -0.116623 0.501542 -0.912471 -0.881003 0.392363 0.502256 0.369474 0.154508 -0.975365 -0.658697 0.3054 0.93701 -0.539618 0.0486745 0.641534 1.21552 1.01959 0.0405337 0.599249 0.430835 -0.258571 -0.216385 -0.673215 -0.763441 -0.794208 0.813161 -0.636685 -0.714828 -0.610747 -0.640893 -0.328906 -0.183284 0.596858 -0.920999 -0.995828 0.0160721 -0.0913848 0.30174 -0.0152289 -0.168829 0.431258 -0.229214 -0.369413 1.19119 0.0388311 -0.147494 0.536827 0.279416 0.648474 -0.643484 -0.95702 0.430325 0.157639 0.132572 0.338323 0.42093 -0.355297 -0.880196 0.920686 -0.771944 -0.965646 -0.781183 0.503208 -0.906595 0.0182987 -0.918844 0.977632 0.399441 0.191829 -0.147668 0.134046 0.727764 0.397044 0.364056 0.550922 -0.14215 -0.322585 -0.0484066 0.12237 -0.889622 -0.389142 0.308073 -0.445049 -0.560305 -0.357298 -0.667633 0.38983 -0.714198 -0.600498 -0.208641 0.745732 -0.917655 0.0365428 -0.989785 -0.595098 0.371536 0.378939 0.524511 -0.0843399 1.3277 1.35627 0.3726 0.0851591 0.506177 0.940675 -0.453161 -0.985309 0.391757 -0.651426 0.056174 0.597761 -0.0346282 -0.900304 0.210265 0.348534 0.97013 0.931413 -0.553805 -0.369741 0.92989 -0.447158 0.0291594 0.263727 0.463373 -0.276139 -0.726467 0.309096 0.27398 1.06247 0.560658 0.019193 0.218026 0.379215 0.31761 -0.455948 -0.417238 0.813629 0.352668 0.619415 0.700229 -0.0678601 -0.387216 0.247534 0.968749 0.570437 0.7542 -0.400368 -0.569701 0.188553 -0.875155 -0.944191 -0.567423 0.648389 -0.945572 0.241735 -0.607452 0.231032 -0.441685 -0.126038 1.00318 0.810144 1.02089 0.690821 -0.688169 0.94189 0.635298 0.670006 -0.511765 0.109859 -0.164576 0.553253 -0.761732 -0.41193 -0.988414 -0.473701 0.840575 0.605009 0.99161 0.310854 0.210126 -0.517617 0.495849 0.868464 0.024008 -0.150637 0.368513 -0.191369 -0.0245195 0.248195 0.471198 -0.253924 -0.138365 -0.523994 0.224338 0.902407 -0.640088 -0.0132866 -0.882249 -0.715207 0.59768 -0.248063 -0.077512 0.399741 -0.321001 -0.176268 0.705326 -0.0931935 0.870037 -0.397571 0.239692 -0.947462 -0.927189 0.693492 -0.742203 0.871736 -0.565545 -0.289968 -0.0797426 1.05625 -0.480751 -0.941216 0.66507 0.36751 0.773256 0.622389 0.565473 0.293393 0.970158 0.440653 -0.718982 -0.903749 0.663056 0.186773 0.474015 -0.434911 0.039904 0.315724 -0.392227 0.204891 0.0812771 0.869816 0.583408 0.942261 -0.431941 0.484016 0.701068 0.639492 0.224042 -0.889295 -0.700832 0.635152 0.416697 0.26053 0.917847 -0.0927962 0.970615 0.316058 -0.997056 -0.656825 -0.950958 -0.64094 0.68064 0.997857 -0.207853 0.281584 0.484641 0.55643 0.903125 0.927742 -0.106354 1.21868 0.678455 0.813968 0.107407 0.129202 0.0552408 -0.157965 -0.5245 -0.228309 0.388318 0.194733 0.292983 0.988139 0.0749289 0.347186 0.727987 0.913239 -0.563376 0.425452 0.129765 -0.628667 0.758177 0.762075 -0.852724 0.46236 -0.700431 0.920063 0.822331 0.184571 -0.0558221 0.586675 0.448773 1.27188 -0.80215 0.623869 -0.00921848 0.224524 0.768524 0.447224 -0.265202 0.61268 0.0996248 0.0576352 0.18282 -0.671725 -0.904108 -0.227917 -0.673476 0.84858 -0.940585 0.627095 0.332127 1.26292 0.634371 0.279661 -0.202525 0.403668 1.57779 0.139971 0.930105 -0.528007 0.941238 -0.310514 0.801482 0.132591 0.405763 -0.80983 -0.628745 -0.764408 0.814461 0.946381 -0.400529 -0.220055 -0.652575 0.981916 0.946469 -0.888289 -0.666347 -0.0390654 0.161059 0.2042 1.21399 0.784664 1.1024 0.338495 0.0128632 0.102421 0.533848 0.336094 -0.248386 -0.553805 -0.387812 0.976835 -0.0600182 0.698685 0.385232 -0.615718 -0.323241 0.831944 -0.937644 -0.303171 -0.00283225 0.612621 0.456445 0.10541 0.0959224 1.47455 -0.120545 0.618266 0.352207 -0.384874 0.923239 -0.58218 0.715211 0.581401 0.743038 0.338771 -0.643539 0.914709 -0.698003 0.778767 -0.366771 -0.609845 0.861249 -0.718021 0.545959 0.468151 -0.207442 -0.0624874 0.411711 0.105537 0.877515 0.767298 0.486295 0.689286 0.479695 0.493772 -0.4892 0.218653 0.668027 -0.268393 0.351774 0.422618 0.749795 -0.141994 -0.917296 -0.082292 0.667639 -0.915947 -0.600961 0.637698 -0.677312 0.333838 -0.977686 -0.359565 -0.95791 0.787975 0.662904 0.204122 0.762298 -0.110111 0.978887 0.174668 0.740627 0.993494 -0.542246 -0.685002 0.158567 -0.193317 -0.337356 -0.459664 0.349732 0.0124169 -0.247776 -0.497578 -0.305251 0.124948 -0.500751 -0.537422 0.865772 -0.671251 -0.250352 -0.638645 0.138956 -0.860872 0.411963 0.244745 0.0424146 0.0298767 -0.628479 -0.456276 0.593071 -0.922292 0.306881 0.345007 -0.397793 -0.892056 0.821504 0.808596 -0.131004 0.598259 -0.404324 0.578893 -0.620015 0.217924 0.792432 0.134879 0.310761 0.160001 0.400148 -0.265999 0.999537 0.552005 0.199295 -0.703583 0.558316 0.511033 -0.602659 -0.16302 0.561947 0.433361 -0.222452 0.286557 -0.926133 -0.539277 0.19748 0.953578 -0.866792 -0.242389 0.671725 -0.191249 -0.764603 -0.252005 -0.303423 -0.688746 -0.133794 0.741027 0.658141 -0.339298 0.844831 -0.805857 0.731012 0.141476 -0.723016 0.0867052 -0.445586 -0.249211 -0.518981 0.721093 0.845462 -0.244899 -0.308427 -0.0233714 0.323037 0.164963 0.16202 -0.242641 0.243271 0.372625 -0.852399 -0.794346 0.876191 -0.605292 0.880723 0.489293 
0.58127 -0.27814 0.950189 0.281764 0.256038 -0.314105 -0.803372 -0.177529 -0.624329 0.177154 -0.787644 0.487884 -0.71932 -0.716906 0.867289 0.964567 0.243472 -0.332102 -0.655667 -0.496864 -0.183684 0.691696 0.505253 -0.940353 0.581281 -0.959601 -0.967523 -0.0456457 -0.466804 0.752531 -0.874245 0.871292 0.898774 -0.425891 -0.996322 0.957601 0.440917 -0.890774 0.412437 -0.896084 -0.585326 -0.378749 0.740208 -0.20005 -0.640359 -0.901521 -0.938234 0.743283 0.547996 -0.742455 -0.175731 0.83812 -0.922968 0.209831 -0.930928 0.445887 -0.997463 -0.271767 0.981486 -0.0585829 -0.322366 -0.780802 -0.750496 0.222586 0.135907 -0.623081 0.0742681 -0.521692 0.249513 -0.00722769 0.0606975 0.826671 0.591352 -0.279256 -0.412177 0.196554 -0.442805 -0.223639 -0.835189 0.907982 -0.854789 -0.614841 -0.829305 0.230278 -0.149839 0.684599 -0.783546 -0.39307 -0.141322 -0.838351 -0.837966 0.688177 0.901621 0.478417 -0.108824 -0.906748 0.686083 -0.682644 0.709528 -0.527091 0.777842 -0.28413 0.450291 -0.0452437 -0.278438 -0.706076 -0.404547 0.207807 -0.980462 -0.731697 -0.126329 -0.602527 -0.00739095 0.227516 -0.190131 -0.525248 0.834109 -0.797662 -0.350849 0.243266 -0.994005 -0.202751 -0.210587 -0.35889 -0.103356 0.22566 -0.999421 -0.0715374 0.541006 0.798715 0.811222 0.387862 0.113636 -0.410123 -0.814381 -0.804816 -0.339449 -0.426093 -0.693288 -0.746887 0.243349 0.890504 -0.839332 0.546294 0.577347 -0.501659 0.548917 0.26308 0.0869196 -0.905065 0.703581 -0.917696 0.138386 0.163904 -0.973908 0.328442 0.417498 -0.606654 0.728604 -0.501912 0.138798 -0.973899 0.720339 0.54475 0.941577 -0.747844 0.6858 0.426558 0.366474 0.781262 0.283504 -0.282736 -0.732671 0.886933 -0.82021 -0.988812 0.179035 0.114608 -0.462052 -0.71444 0.292192 0.0204104 0.298507 -0.138713 -0.649043 0.0717853 0.464817 0.00988044 -0.812669 0.0772424 -0.954326 -0.840994 0.399535 -0.480135 0.535625 -0.659539 0.873671 0.0411672 -0.415616 0.476856 -0.964949 0.957451 -0.589443 -0.6704 0.397825 -0.790437 -0.86053 0.104124 0.579658 0.404913 0.523744 -0.871813 0.671372 -0.854098 0.715269 0.916942 0.149291 0.115017 -0.870238 0.372373 0.0981585 0.621846 0.989565 0.552012 -0.275016 -0.834777 0.152227 -0.806448 0.019389 -0.680181 -0.137272 -0.531798 0.677131 -0.950794 -0.680285 -0.991487 -0.810792 0.302199 -0.960713 -0.798924 -0.0977108 0.833553 0.803108 -0.831359 0.113891 0.667885 0.531415 0.25957 -0.818548 -0.184477 -0.87228 0.00867326 0.229418 -0.123156 -0.800774 -0.585835 -0.0958856 -0.676287 0.280805 -0.864835 0.246742 0.215363 0.905694 0.302045 -0.318456 -0.535498 0.018559 0.397637 -0.873692 0.0519443 0.328401 0.129325 0.655785 -0.349712 0.208245 -0.654772 -0.161697 -0.860903 -0.52654 -0.969462 0.0204374 0.879603 -0.993415 -0.241359 -0.736437 -0.336333 -0.850403 0.814227 0.571781 0.241233 0.156797 0.342422 -0.563379 -0.127139 -0.993668 0.128175 -0.214567 0.440025 0.20093 0.668775 0.932951 -0.285322 0.77229 -0.81435 -0.627577 -0.950211 0.224809 0.520413 0.833027 -0.863904 -0.475201 -0.27378 -0.316654 -0.255742 -0.938439 -0.166336 0.380462 0.754836 -0.968304 -0.641135 0.590794 -0.540772 0.708769 -0.0473831 -0.808068 -0.358898 0.956877 -0.33108 -0.320109 -0.648027 0.868288 -0.668023 -0.750942 0.76312 -0.199009 0.343219 -0.844965 -0.771312 -0.211282 0.931982 -0.687965 0.753529 -0.230442 -0.336276 -0.330044 -0.661014 0.879126 0.128147 -0.353609 0.696772 -0.701452 0.476592 -0.323659 0.685872 0.39697 -0.228111 -0.259057 -0.764896 -0.396768 -0.638323 0.390395 0.278602 -0.48463 0.424455 -0.176729 -0.925444 -0.698198 0.0868989 -0.596241 -0.162824 -0.206232 -0.873252 0.0974823 0.476972 -0.335978 0.281906 -0.0263687 -0.685792 0.659651 0.337144 0.7738 -0.249479 -0.745299 -0.325721 0.437552 -0.461833 0.222448 -0.0996214 -0.387152 0.217369 0.93218 -0.819119 -0.984009 -0.238399 -0.647881 0.520255 -0.06327 0.721531 -0.40781 -0.440485 -0.516144 0.635825 -0.405252 -0.523169 -0.0779946 0.667853 -0.172071 -0.313883 0.819099 -0.304309 -0.398687 -0.893285 -0.0308397 -0.460296 -0.198829 0.173828 -0.542277 -0.78621 -0.149063 -0.68628 0.989119 0.36342 -0.286561 0.0454299 0.942957 0.648716 0.334494 -0.959165 0.7914 -0.89512 0.506421 0.260621 0.568038 -0.22639 -0.696358 -0.111935 -0.890179 -0.246826 0.843457 0.972558 -0.494226 -0.012863 0.615488 0.458227 -0.594172 0.879106 -0.600366 -0.0732169 0.275074 -0.723238 0.0600328 0.0489854 -0.525335 -0.783826 -0.0790621 -0.920481 -0.740512 -0.641903 0.321715 0.610658 -0.775717 -0.689594 0.823819 0.48539 -0.321974 -0.615265 0.947869 -0.791616 0.620362 0.993855 0.9197 -0.932924 -0.510934 -0.166941 -0.456856 -0.816322 0.57979 0.64314 -0.0391094 0.665567 0.12396 0.423597 0.309317 0.911453 -0.0913104 -0.612039 -0.317145 -0.644186 -0.909505 -0.686491 0.394727 0.678926 -0.100061 -0.884023 0.299306 0.226404 0.811786 -0.793259 -0.912826 0.412088 0.626335 -0.132515 0.0574371 0.138664 0.233011 -0.484469 -0.31602 0.90343 -0.199718 -0.401901 -0.602561 -0.282998 -0.282643 0.298656 -0.194328 -0.891954 -0.118007 0.51201 -0.907727 -0.130418 -0.676596 0.612577 0.791691 -0.292275 -0.893434 -0.413421 0.350953 -0.463155 -0.0247754 -0.970486 0.701712 -0.678591 0.906816 0.489129 -0.477449 0.19691 -0.209166 0.166999 0.149935 -0.774117 -0.35165 0.505756 -0.548973 0.503617 0.283982 -0.115518 -0.418587 0.988274 -0.277085 0.351054 -0.319898 -0.369995 -0.342379 0.16364 0.229983 -0.358819 0.743591 -0.575234 -0.4872 -0.390757 0.0729157 0.504693 -0.119381 0.0817418 -0.192733 0.785248 -0.576091 -0.618814 0.260497 0.510975 -0.767813 -0.482245 -0.734532 0.952374 -0.576343 0.632704 -0.615077 0.629198 -0.24881 0.00165459 -0.643137 -0.223579 -0.78884 0.472632 -0.106878 -0.498697 0.889718 -0.648396 0.120705 -0.329195 0.108186 0.900771 -0.00474709 -0.223599 0.265721 0.27517 -0.288766 0.443588 0.136485 -0.929269 0.362419 -0.589054 0.682725 -0.338314 0.153404 0.673377 0.253351 -0.65662 -0.118871 0.970665 -0.414157 0.0903231 -0.741557 0.782408 0.380307 -0.653489 -0.335577 0.800228 0.388475 0.976888 -0.0410481 -0.0884466 0.986967 -0.538489 0.309627 -0.6352 0.811835 0.232134 -0.100219 -0.937388 -0.420978 -0.617506 0.680399 -0.718657 0.800825 -0.325461 -0.114093 0.360625 0.913376 -0.0997118 0.0812715 -0.766585 -0.0583754 -0.352739 0.846357 0.23048 -0.70651 0.548336 0.843009 0.902469 -0.63506 0.524678 -0.963306 -0.189972 0.880076 0.267437 -0.538782 0.764362 -0.887158 -0.686097 0.10535 0.537398 -0.230422 0.619946 0.801039 -0.229408 -0.0675269 0.120871 -0.0846343 -0.417753 0.0971402 -0.532866 -0.351947 0.911681 0.428262 0.710291 0.69419 0.151488 0.43024 0.216977 0.538799 -0.310209 -0.101275 -0.447523 -0.854046 0.425525 -0.621299 -0.80487 0.847376 -0.0895347 0.706679 -0.791144 -0.93087 -0.270629 0.417052 0.794909 0.511779 0.276987 -0.500038 0.63306 0.743682 0.698218 -0.349662 -0.604448 -0.137856 0.226334 0.462104 -0.538909 0.165744 -0.0585409 -0.352301 0.646234 -0.792365 -0.193979 0.794629 -0.66864 0.0885566 0.348792 0.48194 0.592214 0.31275 0.540215 0.35284 0.78477 0.175996 -0.594328 0.806925 -0.36197 0.497614 0.0714763 0.751609 -0.993119 -0.725157 0.955399 -0.203194 0.626732 0.167722 0.438317 -0.72907 -0.718178 -0.688579 -0.0336594 0.846375 -0.00397621 -0.65806 -0.116881 -0.255553 -0.230003 -0.600751 -0.767557 0.200645 -0.866401 -0.853673 0.796978 0.182065 -0.995726 0.906594 0.00130294 0.978765 -0.347937 0.42118 0.699533 -0.225713 0.538086 0.517224 -0.91503 0.10555 -0.653143 -0.640861 -0.180667 0.665517 0.338296 -0.175771 0.136433 -0.404691 0.0793058 -0.537673 0.376223 0.0221895 0.268543 -0.988064 0.0972962 0.157428 -0.113697 
-0.0500358 -0.000541399 0.852507 0.864568 0.0497549 -0.574725 0.665742 -0.0165689 -0.930733 -0.650513 0.59714 0.814262 -0.656427 0.25268 0.494206 0.640396 -0.918195 -0.747413 -0.644841 0.578507 0.516041 -0.883013 0.166067 0.285595 0.363201 0.00678029 0.238994 -0.419141 0.258595 0.997263 -0.854741 0.419185 -0.759407 0.325885 0.712532 0.159544 0.916045 -0.432417 -0.951784 -0.408648 -0.260125 -0.923174 0.257367 -0.836778 0.721785 -0.28536 0.61393 -0.0712665 0.725356 0.500209 0.0382112 0.0527932 0.773609 -0.516164 -0.332901 0.783447 -0.709057 0.250118 -0.855225 0.915231 0.799499 0.914516 0.495833 -0.100486 -0.997611 0.665211 0.796853 0.379441 -0.0506905 0.0078326 0.544856 -0.0843444 -0.438958 0.288647 -0.00469199 0.899738 0.265261 -0.380707 -0.821831 -0.104685 0.534013 -0.656087 -0.616605 0.194536 -0.527715 -0.313417 -0.525792 -0.592938 0.107215 0.198664 -0.588152 -0.493672 0.485791 -0.855983 -0.938745 0.125613 0.240549 0.614611 0.280138 0.916704 0.819072 0.167182 0.222934 0.0326277 0.109422 0.492922 -0.899849 -0.924932 -0.864062 -0.162313 0.271098 0.514303 0.973516 0.103431 0.217838 0.289132 -0.957229 0.786533 0.744356 0.616675 -0.83479 0.611903 0.42748 0.567994 -0.255303 0.114026 -0.391525 -0.599977 -0.875671 -0.788623 0.901273 -0.391728 0.619077 0.0181862 0.326172 -0.981976 0.844171 -0.248498 -0.976903 -0.585974 0.154657 -0.525958 -0.756077 0.853595 0.00800877 -0.0252755 -0.0102518 0.883456 -0.511369 0.536636 -0.134649 0.580612 0.797259 -0.365519 0.466251 0.882645 0.0976526 -0.081963 0.08089 0.701982 0.126339 0.129865 -0.596608 -0.194242 0.498184 0.518958 0.67166 -0.743449 0.568668 0.759935 -0.82299 0.498858 0.566831 -0.0276092 0.216919 -0.528776 0.567883 -0.621585 -0.426459 0.677262 -0.9778 0.0736027 -0.375795 0.522271 0.440102 0.331183 -0.712679 0.648652 0.945452 -0.668653 0.240285 0.938104 0.903752 -0.1406 -0.577758 0.03814 -0.506377 0.373394 -0.852599 -0.476031 0.355373 -0.8111 -0.301609 0.889892 0.382669 -0.173324 0.655275 -0.635893 0.143545 0.979261 -0.148212 -0.829746 0.157372 0.372767 0.329979 -0.472448 -0.732948 -0.853067 0.727837 -0.627406 0.77987 -0.65485 0.745019 0.885049 -0.00203274 -0.425511 0.905514 -0.207318 -0.9701 0.957744 0.772825 -0.575043 0.502944 -0.921385 0.362327 -0.827801 -0.137146 -0.0040972 0.898584 0.896634 0.869664 -0.956907 0.731722 -0.667757 -0.330429 -0.699424 0.119487 -0.420393 -0.487935 0.968039 -0.19776 0.325657 -0.546549 0.469082 0.118674 0.0722053 -0.49472 -0.919126 -0.971135 -0.594011 -0.521795 -0.847785 -0.197906 0.670458 -0.497456 0.553244 -0.752438 -0.00315334 -0.498512 0.460102 0.494308 0.31425 0.918761 -0.729349 -0.602976 0.248456 0.608564 -0.732105 -0.062623 0.719298 0.662252 -0.62662 -0.894305 -0.256993 0.508539 -0.85746 0.324637 -0.570554 -0.591478 -0.425659 -0.64 0.0487872 -0.664121 -0.375136 0.864069 -0.652494 0.638035 0.660104 -0.240931 -0.79982 0.189972 -0.0311229 -0.539878 0.370612 0.284807 -0.392723 -0.831639 -0.324942 0.963144 0.0607377 -0.556839 0.753152 -0.527562 -0.500001 -0.466972 0.595878 -0.349048 -0.318563 -0.923802 0.237839 -0.676435 0.0538683 0.669966 0.527068 -0.53628 -0.334223 -0.525636 -0.254558 -0.37283 0.573869 -0.212408 -0.934883 -0.802114 -0.197383 -0.638902 0.94779 0.140257 -0.578339 -0.829591 -0.242956 -0.743694 -0.909168 0.0267771 -0.726565 -0.454495 -0.873891 -0.894143 0.922629 -0.285626 0.941853 0.461122 -0.899187 0.160443 0.223395 -0.732541 -0.37691 -0.218325 -0.985279 -0.752427 0.942456 -0.564662 0.45259 -0.520553 0.41907 -0.66959 0.958539 0.647055 -0.91931 -0.124631 -0.988764 0.190274 -0.593464 0.565558 0.850049 0.08034 -0.0104253 -0.265374 -0.013479 -0.167231 0.0628591 -0.110455 0.975403 0.721365 0.106034 0.69045 0.76568 -0.299774 0.618884 0.665871 -0.658318 0.0294334 -0.387346 -0.935735 0.567667 0.401542 -0.16592 -0.0894851 0.0897522 0.519653 0.455038 0.140841 -0.00335139 -0.220845 -0.0706962 0.463874 0.331856 0.594116 0.315799 -0.00444511 -0.799269 -0.234881 -0.049607 -0.439728 -0.565631 -0.421324 0.354344 -0.36257 -0.873697 0.827412 -0.570189 -0.091415 0.0628769 -0.22144 0.718734 -0.890054 -0.106827 0.354742 -0.264665 -0.24692 -0.934998 -0.494246 0.0511189 -0.767435 -0.461441 -0.75933 0.0418754 0.93655 -0.653805 -0.688483 0.830937 0.165331 -0.863049 -0.841542 0.929326 0.877898 0.309982 -0.95815 0.459981 0.388449 -0.85691 -0.620549 0.937824 0.0829539 0.595591 -0.605981 -0.508913 0.748413 -0.696475 0.011388 0.538636 -0.770144 -0.240061 0.157962 -0.0408821 -0.382118 0.00382575 -0.00014587 -0.459921 -0.766197 0.341807 0.0167193 -0.629937 -0.436133 -0.559952 -0.207515 -0.312861 -0.577022 0.0936562 -0.711153 -0.998636 0.962034 -0.609837 -0.165368 -0.771164 -0.977503 -0.225412 -0.246692 -0.669501 -0.795657 -0.684911 0.953802 -0.950813 -0.349418 -0.549476 0.350829 0.0774359 0.554865 -0.607573 -0.290453 0.743746 0.140056 -0.955822 -0.275468 -0.759787 0.681065 -0.326909 0.0248914 -0.979094 -0.0897226 -0.731911 -0.0416128 -0.148782 0.340221 -0.267141 0.660875 -0.622247 -0.98145 -0.327861 0.329259 0.171736 -0.0452599 0.455665 0.174349 0.166975 0.972949 -0.741261 0.904873 -0.975132 0.832204 -0.0534037 0.313345 0.510108 0.548666 -0.66318 -0.760725 0.798069 0.766061 -0.829049 -0.847597 0.789127 -0.850756 0.156467 0.309169 -0.160274 -0.836872 0.126561 -0.414846 -0.920654 0.573894 -0.784317 0.638971 -0.803674 -0.649498 -0.595356 -0.383814 -0.711165 -0.226356 0.00779721 -0.786165 -0.672442 -0.764101 0.111177 -0.463917 -0.42781 0.0487294 -0.761351 -0.865025 -0.648207 0.34289 0.601682 -0.277634 -0.747948 0.874965 -0.211357 0.838594 0.466197 0.942912 0.555098 0.922236 0.170586 0.379685 0.0129022 0.464494 -0.489191 -0.083127 0.193557 -0.397387 -0.532913 -0.893471 0.662273 0.901307 0.0067735 0.323134 -0.342747 -0.703095 0.707205 -0.475066 0.932455 -0.990833 -0.350399 0.219881 -0.277994 -0.372074 0.728918 -0.997032 -0.0882821 -0.588484 -0.342172 0.139302 -0.557401 -0.657239 0.373511 -0.684715 -0.0577163 -0.687647 -0.429597 -0.0524053 -0.753921 0.700356 0.635965 -0.970415 -0.734629 0.944599 0.0950387 -0.66112 -0.351931 -0.298765 0.426133 0.698641 -0.937451 0.966446 0.353908 -0.949705 0.649985 0.293388 0.267721 -0.266306 -0.00264053 -0.347737 0.370385 -0.717338 0.886462 -0.351267 0.927513 -0.0207686 0.731746 -0.702636 -0.5614 -0.190761 0.958614 0.277767 -0.176343 0.179976 -0.597832 0.92439 -0.163177 -0.977676 0.931334 0.683844 0.514844 0.0768814 0.0765315 0.709395 -0.80981 0.234152 -0.477469 0.179089 -0.138744 -0.841505 0.333816 -0.947948 -0.0239326 0.577647 0.562224 0.242655 0.38231 -0.723149 -0.856895 -0.900735 -0.910746 0.919806 -0.6323 0.406038 0.343537 0.474189 -0.592405 -0.863892 0.885486 -0.488012 0.0149487 0.743781 0.96502 -0.937583 0.0393492 0.327421 0.107857 0.858919 0.0340212 -0.257565 0.393949 0.410581 -0.985408 0.247054 0.200871 0.00759511 0.277765 0.514973 -0.107201 -0.600885 -0.838278 0.134836 0.0375146 -0.156638 0.684381 -0.565704 -0.71931 -0.310665 0.933074 -0.8739 -0.371879 -0.32567 0.140834 -0.527359 0.0851552 -0.37135 0.859905 -0.209932 0.363232 -0.970951 -0.645611 -0.263765 -0.889081 0.480497 -0.346982 -0.225579 0.998247 0.0714222 0.898272 0.687121 0.796759 0.248715 0.194467 0.611575 0.359606 -0.781278 0.748729 -0.108634 -0.474588 0.578641 -0.366547 0.46953 0.811181 0.8403 0.458681 0.110079 0.31353 -0.522133 -0.932319 -0.0848184 -0.392015 0.223741 -0.617518 0.749369 -0.987271 0.125818 -0.180685 -0.109447 0.348061 0.374389 0.881976 0.351715 -0.282919 -0.459212 -0.662158 -0.423381 -0.14159 0.688076 0.455081 -0.795094 0.592437 -0.189839 -0.750395 0.972054 0.636073 
0.525635 0.702514 -0.63604 -0.286882 -0.305362 0.145996 0.693096 0.210492 0.174172 0.29472 0.301244 -0.254075 -0.0448719 -0.603061 0.323824 0.538199 -0.558494 0.584894 0.530544 -0.758146 -0.907196 -0.649735 0.370278 0.823399 -0.435909 0.0274382 0.534599 -0.0834034 -0.17016 0.218355 -0.215886 -0.816071 -0.173532 -0.63272 -0.85388 0.95681 -0.656057 -0.42039 0.630746 -0.132866 0.615667 -0.558793 0.614875 -0.782748 -0.420125 -0.190376 -0.733933 -0.31394 0.269271 0.41566 -0.106935 0.104768 0.816882 0.145143 0.386203 -0.776211 0.0356173 0.860131 -0.116662 -0.807448 -0.079105 -0.891528 -0.562557 -0.419233 0.0537829 -0.363529 -0.0859167 0.295968 0.687056 -0.857448 0.72705 -0.465293 -0.0573405 -0.907282 0.3698 -0.857486 0.24142 0.717731 -0.308155 -0.436431 -0.408613 -0.688316 -0.463572 0.0898156 0.867306 0.0579631 0.785399 0.567371 0.734364 -0.364821 0.526911 -0.510914 -0.899322 0.745811 -0.676546 0.878441 0.233803 -0.0459308 -0.953403 -0.832113 -0.499545 0.0322655 -0.433385 0.267339 -0.716199 -0.904757 0.330341 0.358489 -0.258447 -0.962098 -0.350793 0.612486 -0.906943 -0.283287 0.574017 -0.094528 -0.590491 -0.191095 -0.212841 -0.714694 0.348732 -0.223779 0.225199 -0.0699217 0.906825 -0.709348 0.102388 -0.371523 0.964202 0.990346 0.270857 -0.894511 -0.395512 -0.390258 0.932823 -0.569976 0.697721 0.254117 0.366045 -0.87196 0.860829 -0.277269 0.941873 0.190143 0.736921 -0.0854998 0.927105 -0.885315 0.865482 -0.915326 -0.962419 0.30974 0.483151 0.349501 -0.624477 0.0425723 -0.313033 0.69478 -0.435857 0.914085 0.456926 -0.470253 -0.310755 0.396185 0.16265 0.937263 -0.61318 0.910705 -0.176889 -0.334177 0.371344 -0.074395 0.0526876 0.27623 0.44093 0.955632 0.792121 -0.581932 -0.870126 0.605601 0.458695 -0.137892 -0.561402 0.0987978 -0.396673 -0.326028 -0.679517 0.599294 -0.839371 0.362835 0.773107 0.607876 -0.872431 -0.837776 0.146945 -0.176761 0.841366 -0.988253 0.834776 -0.998533 -0.755722 0.108947 -0.242968 0.0996825 0.420378 -0.76497 -0.621068 -0.576574 0.894853 0.470875 -0.148224 0.428701 -0.103033 -0.612479 -0.739503 -0.068195 -0.535128 -0.028038 -0.575003 0.118073 0.29899 -0.90124 0.351787 0.22202 0.826909 0.335188 0.392868 -0.806024 0.172398 0.214535 -0.677661 0.815191 -0.244868 -0.13935 0.50125 -0.0776423 -0.357043 -0.145805 0.337129 0.154412 -0.133564 -0.588326 -0.825376 -0.800333 0.599689 0.166688 -0.452049 0.857988 -0.697322 -0.8856 0.792127 -0.857043 0.0328703 -0.713489 0.213251 0.881354 0.774171 -0.17203 -0.566964 -0.526495 -0.632611 0.24231 -0.353581 -0.0307292 0.452907 0.126348 0.845461 0.587009 0.519006 -0.944841 0.239667 0.324773 -0.0276304 0.247526 0.92395 -0.572262 0.364092 0.763136 -0.430393 0.0969623 0.854419 -0.748074 -0.493122 -0.0896532 0.957462 -0.0641092 0.0114388 0.739972 0.0481152 0.0339045 -0.99758 -0.869156 -0.689447 0.491019 -0.559149 -0.508758 -0.347139 0.385378 -0.736206 -0.581517 -0.760272 -0.451131 0.66279 -0.558625 -0.801005 -0.932185 -0.291175 0.592356 -0.821296 0.930723 0.828417 -0.932859 0.729205 0.544706 0.442945 0.860697 0.396668 0.449734 0.578403 -0.225308 0.528666 -0.0308175 0.283482 0.519993 -0.782171 -0.637251 0.522789 -0.230539 0.965382 -0.860578 0.940341 0.359012 0.300286 0.334053 0.309605 -0.474917 0.527832 0.826562 0.081361 0.28282 0.897846 -0.512724 -0.253971 0.653544 -0.469369 -0.149243 0.299759 -0.12461 0.0985234 -0.194567 0.827969 -0.076573 0.741913 0.240208 0.187207 0.417441 0.389571 -0.277111 0.842766 -0.831971 0.0677383 -0.0282079 -0.505781 -0.367747 0.53722 0.0753323 0.770141 0.844249 -0.0784535 -0.835301 0.210073 0.654506 0.0349022 0.434237 -0.497519 -0.0803895 -0.516364 -0.0719624 -0.483132 0.598635 0.791883 -0.507785 0.75059 -0.922034 0.00262931 0.62898 0.190213 -0.430951 0.574845 -0.348811 -0.91615 -0.142155 -0.188173 0.157977 -0.406127 0.147664 -0.406558 0.557275 -0.715129 0.528098 0.844855 0.158283 -0.366827 -0.535333 0.952286 0.108352 -0.806409 0.67108 -0.728696 0.284477 -0.964826 0.882772 -0.386589 -0.0849051 -0.513837 0.534109 0.801967 0.889841 -0.731543 0.258216 -0.6083 0.854761 0.68847 -0.162111 0.756484 -0.511726 -0.38175 0.895653 0.772723 0.423577 -0.195313 -0.569367 0.299931 0.821897 -0.588426 0.681658 0.243208 -0.800533 -0.2985 -0.927821 0.0820614 -0.338893 0.667827 0.917135 -0.0496137 -0.0149242 0.907138 -0.428624 0.776703 0.146515 0.95753 0.1707 -0.454507 -0.769085 0.180714 -0.921569 -0.27261 0.642169 -0.946534 0.61569 -0.811255 -0.129653 0.371088 -0.0730613 -0.593028 0.566698 -0.776512 0.743076 -0.6358 0.0241435 0.383504 0.121063 -0.600517 -0.881162 0.806482 -0.952563 0.590361 -0.886625 -0.513632 0.158795 0.435246 0.0709004 0.880578 0.715564 0.538058 -0.238518 -0.439898 -0.329981 0.173918 -0.963231 0.427726 -0.674319 -0.479787 0.145514 -0.794043 -0.202678 0.230394 -0.519155 0.480312 0.521603 0.209965 -0.789112 -0.198772 -0.583742 0.71296 -0.233616 0.376427 -0.308874 0.582888 0.738944 0.574957 0.702429 -0.0628599 0.743057 0.721549 0.672356 -0.778817 -0.555532 -0.706952 0.620241 -0.732834 0.680992 -0.760024 0.383385 0.834562 -0.38916 -0.934146 -0.677338 -0.52817 -0.857722 0.291079 0.738767 -0.619166 -0.366521 0.899489 0.577428 0.219148 -0.234998 0.0342083 -0.226215 -0.707196 0.929788 0.100582 0.329998 -0.946699 0.336587 0.374 -0.371865 -0.655228 -0.764173 -0.481241 0.52452 -0.695916 0.994799 -0.0559743 -0.729376 0.747436 -0.754205 -0.600371 0.241328 -0.106666 0.642709 0.199739 0.390005 0.607339 0.590026 0.768634 -0.154707 0.701831 -0.614348 0.991176 -0.128884 0.0749235 -0.600622 -0.346108 0.204003 -0.379983 -0.616097 0.0253649 0.819999 0.606453 -0.700544 -0.12489 0.258161 0.606825 -0.972197 0.445078 -0.898791 0.411138 0.316376 0.0959954 0.760003 0.246987 0.325966 -0.356246 0.797962 0.869154 0.924661 -0.273432 0.280807 0.806514 -0.869341 -0.682692 0.744877 0.133555 0.783123 -0.157318 -0.457695 0.971054 -0.423719 0.032889 -0.490643 0.145346 0.592753 -0.102002 0.258838 -0.00083806 -0.915579 -0.182469 0.34202 0.617606 -0.553956 -0.105952 0.943996 -0.76434 0.94974 0.785718 0.726704 -0.293213 -0.719344 0.679926 -0.460132 0.550499 -0.594379 0.0117991 0.551172 -0.0725176 0.608419 -0.161759 0.224579 -0.794007 0.980051 -0.147182 0.0797626 -0.379435 0.972244 -0.719046 -0.0758998 -0.163866 -0.0433099 0.634316 -0.806021 0.10994 -0.89876 0.84545 0.511366 -0.0178474 -0.505695 0.235984 -0.214124 -0.537196 0.862941 0.39809 0.562292 -0.404413 -0.161675 -0.573063 0.801352 -0.366927 0.526423 0.339579 0.2609 0.443378 -0.604137 0.33499 -0.863553 0.708924 -0.825615 -0.498105 -0.407771 -0.252101 0.00562186 0.80066 -0.908006 0.686198 -0.501102 0.589976 0.0116705 0.513444 0.0766217 -0.712092 0.0400251 0.774919 -0.860291 0.97319 0.838208 -0.767285 0.690204 -0.957866 0.221392 -0.298252 0.373064 -0.237718 -0.396699 -0.769841 0.447473 0.163602 -0.501198 -0.721207 -0.638937 0.759918 0.516415 -0.407887 0.652031 0.599018 0.19206 -0.905076 0.342655 -0.899825 0.0734597 -0.784021 0.874836 0.705813 -0.589713 -0.771123 -0.12817 -0.623135 -0.43924 -0.734114 0.599716 -0.859539 -0.0656077 0.134426 0.637783 -0.231119 -0.946076 0.198093 0.277655 0.308025 0.930687 -0.022024 -0.770419 0.650237 0.251214 0.030721 0.282277 -0.284504 0.706048 -0.644492 0.22824 0.627648 0.0428496 -0.0496165 0.891077 0.277075 0.244323 0.329431 -0.218078 0.38686 -0.235428 0.858369 0.153168 -0.354793 0.753959 0.0499777 -0.883703 0.712753 0.873387 0.220751 -0.703475 -0.684734 -0.539207 -0.138761 -0.429107 0.742344 -0.781476 0.122764 0.90607 0.361059 -0.110073 0.151656 -0.837802 -0.682434 0.409442 
0.63035 0.725023 -0.0308387 0.810374 0.919605 -0.161872 0.944818 0.026172 0.789778 -0.832568 0.912182 -0.168735 -0.248743 0.0446122 -0.16841 0.755422 -0.44514 0.286893 -0.683547 3.22764e-05 0.631994 0.924428 0.658097 -0.0883205 -0.473229 -0.788641 0.781759 0.579309 -0.308622 -0.92233 0.641606 0.442567 -0.408004 0.348827 0.901783 0.482462 -0.0895233 0.814809 0.830525 -0.163546 -0.278982 -0.305167 0.664651 -0.0908681 -0.0154928 0.277455 -0.58957 0.200203 -0.913615 -0.965803 0.0247401 0.601169 0.540447 -0.782524 -0.61951 0.0885838 0.927202 0.241148 0.0781926 0.376988 0.200272 -0.39199 0.0752052 -0.0858668 -0.880303 -0.62664 0.600447 0.931021 -0.218606 -0.0122108 -0.730708 -0.604469 0.0141279 0.521369 -0.903006 -0.423361 0.343444 -0.581889 -0.053714 -0.308535 -0.106322 0.589666 0.170298 -0.295424 0.747201 -0.36893 0.819055 -0.272687 -0.162522 0.263315 -0.964116 -0.468107 0.62212 0.642564 0.922688 0.958459 -0.996669 -0.328321 -0.0833214 0.66897 0.305893 -0.0822885 0.742808 -0.623698 0.319386 -0.229232 -0.122217 -0.45285 0.0727961 0.08308 0.436705 -0.755666 0.430212 -0.811706 -0.187231 -0.179248 0.76927 -0.802433 -0.769555 0.917961 0.182748 0.840897 -0.582601 0.463233 -0.335224 -0.380399 -0.327071 0.880824 -0.0664585 0.113977 -0.682977 -0.514694 -0.151843 -0.986624 0.810351 0.96432 -0.501429 -0.286658 -0.658478 -0.0953982 0.350064 -0.8534 0.574657 -0.991475 -0.932665 -0.455071 -0.248854 0.257202 -0.0651488 -0.274513 0.3659 0.0232889 -0.694274 0.130772 -0.0416511 -1.00534 -0.77377 -0.857228 -0.00205613 0.136877 -1.2693 0.3742 0.405818 -0.201327 -0.0801708 -0.837878 -0.0897525 -0.917402 0.414981 -0.232513 -0.0571257 -0.630325 -0.840025 -0.759627 0.566465 0.298122 0.852338 0.868912 -0.659412 -0.721641 -0.916645 -0.572386 -0.57963 -1.06238 -0.604769 -1.1388 -0.786923 -0.292772 -1.25387 0.551312 -0.636981 0.0631342 0.521885 0.579943 0.0265492 -0.192241 0.820412 0.83434 0.453617 0.843103 -0.0725178 0.125487 0.517518 -0.0865608 -0.00467475 -0.461801 0.257535 0.137081 -1.13079 -0.434858 -0.0291512 0.373426 -0.292728 -0.905038 -0.609134 -0.319745 -0.958131 -0.488778 0.685688 -0.887503 -0.521503 -0.0277386 -0.94117 0.513487 0.366796 -0.954804 0.14006 0.308746 0.945091 0.236929 0.863616 0.786834 0.17747 0.224838 -0.48344 -1.36379 -0.0794118 0.0292311 -1.04054 -0.942885 0.0768399 -1.35383 -0.323621 0.0227937 0.792925 -0.67822 0.304457 -0.348244 0.701958 -0.789668 0.346251 -0.535789 -0.0185038 -0.506892 0.956935 -0.891328 0.267414 -0.437941 -0.681663 -0.401345 -0.735145 -0.277768 -0.83379 0.421338 -0.336239 -0.104367 0.237458 -0.154779 0.125918 -1.22535 -0.795233 0.189412 -0.793346 -0.844585 0.840837 -0.915036 0.797315 -0.210728 0.227364 -0.639138 0.136541 -0.504984 -0.175515 0.494225 -0.409592 0.776443 0.180731 0.0117417 -0.893042 0.659621 -0.105115 0.652254 0.381616 0.17631 0.852222 0.422353 -0.968869 -0.189634 -0.814515 -0.441591 -0.427927 -0.685725 -0.400186 -0.620009 -0.0579071 0.0594569 0.89418 -0.27636 0.701014 0.697436 -0.114286 -0.36093 0.927821 -0.905341 -0.246589 0.822586 0.0734029 0.541356 -0.721863 0.454581 -0.642185 -0.989063 0.87045 0.0219284 -0.0397687 -0.0526556 -0.0738581 0.855509 0.972649 -0.686639 0.118134 0.609673 -0.880489 0.758338 -0.615423 -0.33056 0.97763 -0.617841 0.540602 -0.349404 0.481531 -0.0230759 0.443174 0.23421 -0.355761 0.652475 0.779978 0.968539 0.582896 -0.400811 -0.708388 0.363493 -0.387293 0.108979 0.251016 0.123887 0.575968 0.24529 0.267658 0.13509 -0.448215 0.061843 -0.0990007 0.818234 -0.61603 0.358627 -0.821282 -0.264885 0.996966 0.738183 0.535929 0.373501 0.322223 -0.10828 -0.0564101 -0.0110161 -0.11978 -0.630593 0.444364 -0.865164 -0.334198 0.146846 0.818171 -0.788365 0.40524 1.36079e-06 0.223986 -0.965967 0.0976691 0.193281 -0.160684 -0.303778 0.119381 -0.0483369 -0.930167 0.482234 -0.848791 0.992228 0.60729 0.895415 0.126194 0.172576 -0.537147 0.648709 -0.535566 -0.814142 -1.15247 -0.512017 -0.684819 0.747885 -0.219445 -0.371118 -0.167229 0.394358 -0.815062 -0.101926 0.857213 0.476477 0.551832 0.164737 0.188533 -0.422903 -0.822253 0.264062 0.102874 0.771218 -0.109032 0.489484 0.522221 0.1886 -0.906957 -0.101061 0.537203 0.281298 0.477255 -0.627605 0.0532837 -0.626861 -0.995751 -0.833085 0.516382 -0.667797 -0.864993 -0.922443 0.949277 -0.137606 -0.254441 0.134773 -0.250285 0.351447 0.0194827 0.0155671 -0.828359 -0.526981 -0.503049 0.13467 -0.779044 -0.789719 -0.809904 -0.852311 0.78908 0.163632 0.860461 0.294358 0.182658 -0.130685 -0.628899 -1.29901 -0.872178 -0.121547 -0.969931 -0.516265 -0.964715 0.573029 0.751157 0.320773 -0.303332 -0.64197 -0.089675 0.873895 0.335844 -0.280525 0.784661 0.553929 0.50896 0.672844 -0.0966381 0.955591 -0.780021 0.349139 0.743775 -0.649368 0.189174 -0.329195 -0.323443 -1.05381 -0.614037 0.962323 0.213098 -0.742408 0.530388 0.605507 -0.993878 -0.129558 -0.161857 0.367927 -0.186963 -0.834807 -0.776109 -0.433104 0.811728 -0.906211 0.782697 0.76579 -0.173005 -0.167341 -0.160695 0.591737 0.23087 -0.180286 0.0926142 0.405904 0.124966 -0.426578 0.991967 0.448265 -0.549779 0.296465 0.230063 -0.657371 0.218387 -0.0563071 0.698771 0.116606 -0.268461 -0.78558 -0.696563 0.0105457 -0.812084 -0.349657 -0.998018 0.585689 -0.714474 -0.696309 -0.220532 -0.948378 -0.611834 -0.445989 -0.981299 -0.75457 -0.78011 0.168764 -0.203496 -0.640097 -0.0943004 0.875104 -0.476502 -0.0316886 -0.414434 -0.72583 0.810028 0.572633 -0.221643 -0.970334 -0.993915 -0.468583 0.240786 0.938497 -0.540356 0.643848 0.351405 -0.167953 -0.33142 0.498806 -0.747275 -0.109708 -1.22599 -0.0553803 -0.687762 -0.15 -0.174453 -0.963688 -0.22267 -0.0205937 -0.377772 -0.492486 -0.495647 -0.00298731 0.383885 0.883141 -0.897281 0.667725 0.100687 0.00287598 -0.630788 -0.281957 0.742741 -0.406426 0.350742 -0.12672 0.373129 0.549017 0.511256 -0.830822 -0.045085 -0.898292 0.488539 -0.250384 -0.45446 0.821337 -0.929899 -0.0338739 0.871708 0.00877098 -0.270625 -0.0234438 0.100753 0.0611602 0.11033 0.674083 0.00576248 0.54038 0.916532 -0.277455 0.0317528 -0.214949 -1.09919 -0.762486 0.274715 -0.628462 -0.215659 0.531614 0.854928 -0.720281 -0.06004 -0.0624135 -0.894962 -0.529464 -0.891912 -0.985936 -0.0459488 0.861339 -0.705162 0.414313 -0.0585187 0.856265 -0.288565 0.709269 0.821392 -1.02815 0.363583 -0.281645 -1.10838 -0.189508 -0.071913 -0.878046 -0.469959 -0.124321 -0.936808 -0.173756 0.804386 0.548338 -0.16724 -0.209777 0.948696 0.130128 -0.814872 -0.35615 -0.236824 -0.498372 -0.883437 0.87572 0.83711 0.848074 0.665428 0.943065 -0.879066 -0.920775 -0.215928 0.496753 -0.132001 0.53356 0.29671 0.361205 0.0388825 -0.997586 0.431316 -0.773624 -0.63606 -0.164607 -0.640068 0.297143 -0.0186056 0.0650332 -0.276957 -0.999053 0.652232 0.118384 0.619406 0.940443 0.135589 0.36136 -0.678626 0.0759687 0.264749 -0.366849 0.0678845 -0.578695 -0.721454 0.495528 0.240212 0.305346 0.793257 -0.408395 -0.13129 -0.619439 0.239194 -0.125813 -0.492824 0.632889 0.196108 -0.352437 -0.195633 0.51271 0.677994 -0.637386 0.909572 -0.101918 0.43556 -0.760617 0.077586 0.998221 -0.426132 0.663013 0.745954 0.290355 -0.86974 0.853573 0.638046 -0.708128 0.828686 0.14397 0.309252 -0.111494 -0.731878 -0.276038 0.330296 -0.733925 -0.364892 0.853591 -0.805078 0.712813 -0.812098 -0.743893 0.297016 -0.636518 0.137794 0.214338 0.0441102 0.55726 0.333111 -0.301019 -0.239276 -0.473551 0.207426 -0.0990685 -0.226929 0.450084 0.257844 -0.947358 -0.49575 0.0312665 0.652461 -0.694325 0.160541 -0.246887 -0.502174 0.0921489 -0.735484 -0.885879 0.512459 -0.642113 0.700727 -0.0974104 
-0.513269 0.571756 0.806467 0.754753 0.928936 0.103554 -0.761528 0.715229 0.158647 0.158499 0.859312 -0.380265 -0.158106 -0.5697 -0.793317 0.149399 0.663495 0.116213 0.663763 -0.281518 -0.858045 0.399662 0.859611 -0.871428 -0.270861 -0.79853 0.508288 -0.297209 0.64671 0.0277907 -0.327787 -0.177564 -0.540153 0.844479 -0.428978 0.152608 0.130244 0.370728 -0.328733 0.503772 0.153301 0.559755 -0.319927 -0.299188 0.765564 0.156192 0.160169 0.512183 0.918738 0.287611 -0.43443 0.888824 -0.945145 -0.64195 0.388238 0.607699 0.770764 0.538441 -0.680947 -0.764996 0.953022 -0.327136 0.166202 -0.309704 -0.0470601 -0.424006 0.570404 -0.288592 -0.298112 0.273794 -0.393536 -0.610759 -0.0466855 0.689234 0.603971 0.875954 0.794003 -0.813123 -0.419301 0.613206 0.415355 -0.713267 -0.784592 -0.46642 0.838611 0.304403 0.427783 0.929651 -0.102444 -0.593145 -0.968679 -0.537959 -0.869204 0.491903 -0.387059 0.0802973 0.886446 0.683385 -0.635541 0.468997 -0.173984 -0.915804 -0.668692 -0.138618 -0.249228 -0.976673 -0.591545 -0.08899 0.118728 0.749651 0.248438 -0.953662 -0.251848 0.426246 0.0904395 0.040288 0.652165 0.829702 0.970165 0.496013 -0.0387766 -0.136518 0.996343 0.520776 -0.221023 0.812359 -0.490883 -0.0904796 0.916896 -0.0843171 0.611009 0.206158 0.940551 -0.820167 0.499041 -0.923665 -0.94967 -0.318779 0.439046 0.0859939 0.0148035 -0.00508727 -0.216843 0.878106 -0.575686 -0.681669 -0.704775 -0.754721 0.877342 0.930432 0.112581 0.36833 0.574925 -0.644971 0.506073 -0.689613 -0.216243 -0.997181 0.0984358 0.200266 -0.440182 -0.559468 -0.807299 -0.401824 -0.893154 -0.388554 0.478366 0.874016 -0.207447 0.241828 -0.79144 -0.340476 -0.372496 0.494569 -0.534345 -0.335904 -0.0846689 0.949534 -0.125235 0.44568 0.69577 0.846309 -0.482104 0.729448 0.733369 0.675881 -0.490297 -0.0577864 -0.736482 0.854325 0.327572 -0.558353 0.392618 0.134691 0.620723 -0.290826 0.945794 0.0558338 0.794463 -0.152064 -0.221532 -0.107977 -0.457484 0.959369 0.913341 -0.0962708 0.782195 -0.752474 -0.0644961 0.138214 -0.70786 -0.82139 -0.925692 0.187978 -0.964933 0.134649 0.389221 -0.0299575 -0.50635 -0.903702 0.895762 0.430132 0.691859 -0.311015 -0.459615 0.407723 0.783044 -0.122908 0.468038 0.804373 -0.0786285 -0.952646 0.231274 0.537934 0.216332 0.194228 -0.823566 0.361228 0.634801 0.982145 0.047724 -0.0636165 -0.82306 0.941537 -0.818953 0.824178 0.202502 -0.440736 0.797117 -0.431791 -0.42517 -0.849504 0.621657 -0.427704 0.854965 0.458913 -0.86482 0.96049 0.411924 -0.395727 -0.0928266 -0.470418 -0.370346 -0.763316 0.302712 -0.865986 0.370476 -0.702605 0.549763 0.788385 -0.148244 -0.337949 0.00578194 0.562795 -0.964924 0.616157 -0.252546 0.9377 -0.392298 -0.433853 0.975119 0.278701 0.291099 -0.401403 0.700093 0.207746 -0.111409 0.0963864 -0.107278 0.188073 0.977802 0.138422 -0.883842 -0.585964 0.406192 0.164119 0.0962815 0.311555 -0.658964 0.977422 0.211218 0.729189 0.70406 0.382464 0.320145 0.299916 0.824496 -0.578888 -0.713594 0.154742 -0.222425 0.905271 0.628028 0.327761 -0.680945 -0.689703 -0.661251 -0.0624238 -0.0161638 -0.317946 0.182128 0.533534 0.594806 -0.733074 0.590389 0.0377337 0.885002 -0.50146 -0.643883 0.832146 -0.0595174 0.80369 0.4568 -0.238611 -0.151825 -0.28946 0.974973 0.985808 -0.0176776 -0.270023 0.77811 0.854814 0.0785975 0.996759 0.493146 0.777241 -0.999568 0.358028 -0.607696 -0.787136 -0.871492 -0.84528 0.48109 -0.469186 0.451838 -0.0256753 -0.716035 -0.492303 -0.180923 -0.502654 -0.935063 -0.30487 0.745868 -0.563132 0.819248 0.390894 0.738206 -0.700801 -0.585155 -0.103899 -0.962431 -0.326991 -0.0586434 0.0957056 -0.615588 0.0641328 0.114577 -0.350655 -0.341836 -0.55946 -0.193686 -0.166568 0.0275909 0.201765 -0.316137 0.32834 0.311199 0.867086 0.888069 -0.969715 0.677579 -0.800027 -0.716786 0.682981 0.710433 0.260357 0.951379 0.0694151 0.851514 -0.4605 -0.728006 0.751348 -0.234044 -0.601185 0.781666 0.551295 0.0634901 -0.806694 0.722431 0.898724 -0.719157 -0.596641 -0.95555 0.593233 -0.798617 0.342556 0.638449 -0.0660807 -0.707388 -0.604774 0.857967 -0.959812 0.0552981 0.540921 -0.258464 0.940206 -0.691405 0.866737 0.569974 0.939531 0.506669 0.441796 -0.705945 0.581909 -0.288975 0.495236 -0.491035 0.0694314 -0.125218 -0.825077 0.693774 -0.849965 -0.538958 -0.929174 0.217825 0.112377 0.392482 -0.827837 -0.490656 0.0381963 0.262194 -0.299199 0.746853 0.245339 -0.693145 -0.524192 -0.867581 -0.983242 0.49181 0.541579 -0.551619 0.52989 0.0108729 -0.221643 -0.0720196 0.919308 0.572047 0.497675 0.165827 0.226692 0.844693 0.416766 -0.458393 0.724645 -0.0875981 0.673968 0.951945 -0.488286 -0.338197 0.214161 -0.570834 -0.292425 0.847744 0.3859 -0.634065 0.329859 0.798613 0.155362 -0.606176 0.435039 0.224364 0.350372 0.628066 0.780641 0.591647 0.490476 -0.857761 -0.582975 -0.252474 0.000313642 0.860898 0.11084 -0.632186 -0.302594 -0.760405 0.255353 -0.264982 0.572039 0.502763 0.725636 0.510514 -0.736065 -0.620551 -0.152719 -0.297308 -0.991888 0.0416896 0.16187 -0.534507 0.981953 0.604045 0.221744 -0.277605 0.315824 0.848182 0.193132 0.212949 0.895604 0.19946 0.875814 -0.194405 -0.374882 0.0284337 0.919657 0.943241 0.664296 0.827622 0.0770502 -0.918181 -0.240695 0.218568 -0.594769 0.777992 -0.857235 0.691951 -0.0760176 0.950377 -0.46848 0.427274 -0.839776 0.314026 -0.108755 -0.932637 -0.40263 0.737467 -0.511871 0.000945207 -0.383646 0.532845 -0.0990428 0.23858 0.555129 -0.605548 0.711657 0.748585 0.445748 0.0755911 0.971779 0.571814 -0.374253 -0.936742 -0.69496 -0.486129 0.244105 -0.390235 -0.377447 -0.0534206 -0.218714 0.725172 -0.336193 0.981292 0.662672 -0.337623 0.544083 -0.293434 -0.54818 -0.301198 0.949224 0.602057 0.774676 0.441818 -0.28202 -0.169866 0.0324202 -0.190348 0.442667 0.337999 0.127804 -0.499535 -0.517394 -0.131444 0.497205 -0.150349 0.204006 0.166454 -0.876093 -0.381577 -0.360836 0.277975 -0.761115 -0.987358 0.0643036 -0.219399 -0.563296 -0.727456 0.658812 0.127406 -0.22563 0.719926 -0.0433628 -0.0668302 -0.478518 0.470976 0.140809 -0.174372 0.301549 0.2789 -0.974307 -0.0789307 -0.674087 -0.436647 0.926822 -0.1115 -0.655734 -0.917043 -0.572665 0.917732 0.668545 -0.984282 0.0163395 0.0155348 -0.520343 0.270616 -0.716173 -0.19066 0.558763 -0.56481 -0.37169 0.666998 -0.621191 -0.323654 0.844042 0.733917 -0.511763 0.471824 0.873334 -0.881965 -0.876871 -0.517256 -0.0905102 0.531152 0.545485 -0.391519 -0.343725 0.87016 -0.620716 -0.283512 0.91705 0.68353 0.740411 -0.366993 0.670059 0.531365 0.510418 0.410934 0.0802559 -0.499091 0.348869 -0.709507 -0.0603092 -0.824246 -0.425494 0.165949 -0.197039 -0.293955 0.865876 -0.0477852 -0.441127 -0.314564 0.957805 -0.293948 -0.473431 -0.506752 0.39958 -0.472989 0.243912 -0.822737 -0.767895 -0.887734 -0.264076 0.193682 -0.76775 -0.501347 -0.897211 -0.273639 -0.00850291 -0.312445 0.923452 -0.149249 -0.625163 0.799416 -0.850909 0.0941754 0.041524 -0.476904 0.0469608 -0.169782 0.414545 -0.0808147 0.914047 -0.590801 0.892509 0.584638 0.424314 0.160311 0.93097 -0.405012 0.188781 -0.0470047 0.844826 0.952129 -0.524055 -0.171138 -0.321999 0.913196 0.817507 -0.345389 -0.876936 0.196917 0.340888 0.344067 0.777876 -0.581112 -0.644974 -0.391861 0.592977 0.0255903 0.730521 0.396594 -0.717705 0.421964 -0.918628 -0.276858 0.399904 0.181859 0.550113 -0.0860979 0.389127 0.679945 0.473501 -0.812464 -0.741392 0.450945 -0.591205 0.101831 -0.452384 0.875486 -0.859654 -0.248539 -0.986154 0.13881 0.00485107 0.0484601 -0.623074 0.725906 -0.164627 -0.562482 0.773627 -0.0617684 -0.970169 -0.919037 0.178695 0.426176 -0.716848 
