-0.799616 -0.0156081 0.2632 0.230554 0.298225 -0.472037 -0.263661 -0.20696 -0.772163 -0.377352 -0.717582 -0.654094 0.627737 0.95725 0.0214128 -0.011988 0.650421 0.490519 -0.633938 -0.536892 -0.108699 0.421851 -0.497106 0.117135 -0.294533 -0.632414 -0.122109 0.827455 -0.104582 -0.0161436 -0.838149 0.926862 -0.416927 0.189727 -0.0463334 0.733021 0.26889 0.663059 0.509149 -0.580709 0.355035 0.0177802 0.833057 0.0288579 -0.756034 0.235019 -0.863554 0.978402 0.229435 -0.974644 -0.733702 0.233401 -0.970302 0.50959 0.0563138 -0.00596535 -0.74977 -0.833887 -0.995322 0.519338 -0.911194 -0.413978 0.632932 -0.684657 -0.348314 0.544584 -0.856216 0.252231 -0.0753378 -0.384811 -0.471046 0.365588 -0.775878 0.635076 0.543661 -0.502654 -0.604827 -0.27655 -0.578067 -0.261403 -0.980401 -0.897661 -0.720135 -0.519709 0.81895 -0.425264 -0.183613 0.811066 -0.681017 -0.472082 0.52812 0.322299 0.871814 0.0219717 0.744673 0.972015 -0.418659 0.0381203 -0.114572 -0.352437 -0.320083 -0.0113018 0.612343 -0.221991 0.809072 0.917948 -0.158338 -0.563604 -0.795359 0.342182 0.469476 -0.0828376 -0.799687 -0.233541 -0.656107 0.278525 0.317252 -0.762911 -0.919085 0.930655 0.2352 0.594602 0.333373 0.994913 0.291459 0.693384 -0.390248 -0.875363 0.210526 -0.716478 0.724656 -0.0943168 -0.232939 0.599189 -0.511124 -0.202332 -0.0182455 0.778059 -0.291032 0.690847 0.726935 0.273399 -0.239519 -0.210168 -0.246812 -0.906906 -0.87284 -0.576008 -0.663989 -0.821154 0.896938 -0.0684485 -0.0389985 -0.191378 0.418829 0.468266 0.66526 0.880948 0.950544 -0.191652 0.263317 0.113389 1.01624 1.11207 0.76883 0.892932 -0.255284 -0.44452 0.0513775 0.720586 0.758248 0.964894 -0.188393 0.425031 0.589999 0.36562 0.272504 -0.0523016 0.145718 0.521784 -0.549257 1.03591 0.860467 0.823194 -0.364918 0.458965 -0.0326218 0.967306 0.684397 1.21443 0.492522 -0.570773 0.877889 0.479701 0.494053 -0.280899 -0.888844 -0.4284 -0.556111 0.468207 -0.918953 -0.839053 -0.411701 0.740831 0.782494 1.4055 1.50713 1.21609 -0.0369623 -0.289222 1.1713 1.47852 0.0207893 1.31622 0.50961 0.701252 -0.221825 0.778497 0.828221 -0.587998 -0.815761 0.0944717 0.964445 -0.803104 0.586298 -0.158043 -0.942875 0.529534 0.953397 -0.154447 0.136632 -0.943995 0.00457721 1.21607 1.13894 0.159024 0.527374 -0.420431 0.998241 -0.22991 0.963353 1.20481 -0.585238 -0.882797 0.761604 -0.611335 0.546491 -0.616701 0.90512 0.719794 -0.504227 -0.462724 0.367542 -0.884705 0.39462 0.918683 0.555437 -0.816021 -0.191008 0.6397 -0.169722 1.21856 0.509385 1.35658 -0.319554 0.859531 -0.924657 -0.0545798 -0.735658 1.08441 -0.384592 0.803794 -0.148013 -0.451775 -0.601593 0.467433 0.585071 -0.00635717 0.877872 0.538489 0.693686 -0.0934579 0.707078 -0.677283 -0.967982 -0.12006 -0.994683 0.0544697 0.831456 -0.777804 -0.168993 0.982971 1.29714 0.17127 -0.402888 -0.22668 -0.256837 -0.620609 0.147107 0.893176 -0.353815 0.740344 -0.0361178 0.362295 -0.452389 -0.634507 -0.962867 0.41554 0.0353611 0.293985 0.276143 0.759921 -0.2189 -0.185799 -0.106429 -0.563609 -0.124097 -0.690696 0.870232 0.146807 0.617601 0.598224 0.802479 -0.676485 0.971445 0.00258052 -0.460579 -0.805129 -0.873644 -0.744491 0.625936 0.619659 -0.22711 -0.968148 -0.275088 -0.490506 -0.326697 0.392494 -0.256488 -0.777256 0.197137 0.274607 0.294435 0.74603 0.693614 -0.267339 0.589504 -0.490909 -0.0282128 -0.423855 -0.640757 -0.646936 0.301115 -0.464186 0.505194 -0.213706 0.429872 -0.615853 0.0330363 -0.758771 0.893876 -0.420084 -0.888538 -0.854727 0.918279 0.561249 -0.304488 -0.260294 0.154469 -0.552461 -0.479944 -0.169525 -0.564371 -0.900676 -0.767734 -0.883731 0.461135 0.878973 0.311302 0.2512 -0.567163 0.895891 0.509216 0.433465 -0.886149 -0.721549 -0.190983 -0.795305 -0.00310716 0.570921 -0.924909 -0.648285 0.754232 -0.196918 -0.837548 0.922446 -0.0906707 0.965549 0.0078062 -0.300722 0.708172 0.477834 -0.814857 -0.594359 0.38938 -0.592732 1.00311 1.04981 1.36952 1.05784 0.0858428 0.919775 -0.584163 0.289558 0.183567 0.373533 -0.585368 0.435883 0.772198 -0.744445 0.536483 -0.416488 -0.939726 0.255494 0.387083 0.489871 -0.0818428 0.617688 -0.742492 -0.103275 0.0560905 -0.380517 0.449371 0.573616 -0.405991 0.200941 1.14354 0.533269 1.26782 0.287363 -0.694484 -0.738857 -0.760701 0.950886 0.228841 -0.961949 0.972137 0.89275 0.918918 0.213746 -0.0204916 -0.0526329 0.479888 0.308206 -0.154697 0.141052 -0.672997 -0.7353 0.318384 -0.322767 -0.409115 0.605795 0.999823 0.0408204 0.122727 0.552766 0.158998 0.362939 -0.616191 0.863202 0.078865 -0.431748 -0.823549 0.276122 0.0220894 -0.115344 0.33995 -0.220986 0.0960617 -0.586635 0.539505 0.384846 -0.311316 0.683249 0.158764 0.50628 0.471662 0.0198051 0.124134 -0.571341 0.0771162 0.197184 -0.516741 -0.395342 0.368757 1.4324 -0.353638 -0.535532 0.628044 -0.773626 0.288445 0.00929721 -0.537837 -0.356625 0.915278 0.18968 -0.6417 -0.194138 0.1794 0.770645 -0.47931 0.79794 -0.287211 -0.424364 0.260427 -0.507571 0.541305 -0.889556 -0.199528 -0.640024 0.374036 -0.140969 0.59157 1.03087 0.455682 -0.413713 -0.740383 0.453213 0.935161 0.286025 -0.400953 0.795749 0.554027 0.946812 -0.277606 0.600672 -0.255119 0.105281 0.192848 -0.633259 0.394098 0.441826 0.486432 0.468769 -0.762666 0.365382 0.0715146 -0.124888 -0.26109 -0.362437 -0.446484 -0.193 0.00273564 0.80168 0.739084 0.0876254 0.298935 -0.705105 0.0205757 0.933681 -0.72004 -0.846284 -0.760175 -0.00190063 -0.542782 0.430738 -0.247043 -0.684922 -0.0781475 -0.4165 0.673437 -0.218535 -0.215161 0.735011 0.663317 0.958064 0.538336 -0.00801973 -0.74603 0.762666 -0.401525 -0.994762 0.832679 0.856867 0.859469 -0.490264 0.378796 0.348515 0.0442644 0.182571 0.990309 0.607285 0.179584 -0.526838 0.673508 0.779353 0.337636 -0.127461 0.740287 0.144053 0.860311 0.863142 1.23643 0.782378 1.10994 0.673854 -0.202942 -0.949303 -0.396827 0.23821 0.0862736 -0.764444 0.511536 -0.684322 0.0844737 -0.788628 -0.83269 -0.0202186 0.850262 0.266893 0.839814 0.0219448 -0.936468 1.15874 -0.15255 1.05509 -0.435313 1.04483 -0.0489469 -0.562075 -0.339286 0.727771 0.50557 -0.0263538 0.660042 -0.283861 0.161288 0.0431883 -0.32682 -0.450416 -0.580762 -0.840742 -0.692123 0.667355 -0.932573 0.65133 0.172393 -0.952073 -0.664001 -0.236305 1.46939 -0.147327 1.46383 0.357808 0.380612 1.06944 0.0386592 -0.121465 -0.270233 -0.553872 -0.0920276 -0.223468 0.891894 0.531899 -0.514652 -0.863405 0.336409 0.524042 0.348222 -0.428261 0.98158 0.934454 0.382441 0.916212 0.490148 -0.234454 0.838227 -0.0379978 1.31888 0.0690002 -0.320151 0.819776 1.07797 -0.549829 -0.0946645 -0.285094 -0.806442 0.863462 -0.0706274 -0.886926 0.555592 0.0744076 -0.511571 -0.0596206 -0.594131 0.946986 0.612975 -0.409442 -0.601741 -0.567263 -0.998479 -0.789443 0.249347 0.921697 0.500687 0.219424 0.101747 -0.25836 0.799182 0.821219 0.699886 0.114755 0.903746 0.671089 0.458486 0.00134665 -0.101831 0.482359 0.52027 0.88315 -0.82933 -0.509248 0.742043 0.0284423 -0.506789 -0.411328 -0.911949 0.520418 0.561705 -0.273757 0.930873 -0.167982 -0.212519 0.643374 0.61727 0.976651 0.638198 -0.910087 -0.491397 -0.776916 0.194721 0.291616 -0.668019 -0.232992 0.991449 0.711811 -0.916635 -0.46612 -0.191289 0.381277 0.514012 0.755636 0.237138 -0.607665 -0.311927 0.91414 0.448506 0.226333 0.520739 0.503809 -0.708357 -0.621997 -0.309475 -0.845642 0.757514 0.0721268 -0.154961 0.892597 -0.905223 0.155773 -0.035188 -0.411885 -0.948048 -0.262976 -0.661774 -0.548966 -0.827451 0.353537 -0.828282 -0.0631899 -0.131469 -0.336646 -0.876551 -0.641151 
0.654916 0.929996 0.0340235 -0.68367 0.67456 0.629823 0.959892 0.383632 0.9952 -0.620743 0.296581 -0.571604 0.521553 -0.0603472 0.412987 0.865539 0.545713 0.660243 0.278839 -0.836616 -0.745831 0.162157 0.932235 0.81263 0.0686003 0.384325 -0.501484 -0.238619 0.190481 0.768336 0.616161 0.636838 -0.858346 -0.165621 -0.28424 -0.0827841 0.325335 -0.818896 0.197644 0.914754 -0.591297 0.149813 -0.226148 -0.158394 -0.211566 0.658306 -0.607747 -0.467572 -0.494995 -0.256424 -0.90484 -0.0826421 0.811312 -0.937822 -0.379616 0.286572 0.108302 0.979067 0.779218 -0.10392 0.994992 -0.202886 0.468112 -0.713034 0.831939 -0.445964 -0.735419 0.424526 0.962405 -0.0785232 0.971868 -0.819489 -0.509301 0.422218 -0.857906 -0.618642 0.621605 -0.717228 0.654352 -0.867471 -0.252915 0.65518 -0.355577 0.817222 -0.279854 -0.538214 0.348726 -0.206975 0.660366 0.132997 0.869125 0.620213 0.372884 -0.826382 0.455066 0.0719371 -0.237643 -0.625142 0.288434 0.766977 0.637329 0.979831 0.0253634 0.965498 0.248946 0.615969 -0.162086 0.0271414 -0.0904983 -0.723036 -0.427398 -0.200119 0.0150994 -0.624182 -0.302392 0.528158 -0.434345 -0.666403 0.387179 0.732048 -0.713249 -0.226579 0.1852 -0.802241 -0.422899 -0.293776 0.451313 -0.911214 0.650386 -0.195789 -0.00572611 0.920781 0.190192 -0.630839 -0.3052 0.761588 0.607449 0.246787 0.54132 -0.36023 0.329535 -0.896367 -0.164975 -0.0763836 -7.30909e-05 -0.421469 0.770244 -0.836622 -0.599197 -0.936043 -0.854884 -0.289736 0.328323 -0.0036851 0.997169 -0.281632 0.125701 -0.0566379 -0.740203 -0.695031 0.360532 -0.275413 0.571937 0.339835 0.828853 0.645041 -0.264536 -0.857695 -0.0299036 -0.336364 0.237108 -0.469703 0.406608 0.149663 -0.21341 0.762394 0.217897 -0.571413 -0.193951 -0.706635 -0.111789 -0.0996671 0.539736 -0.429704 0.841973 -0.979738 -0.976138 -0.410949 0.327049 -0.86571 0.788493 0.317931 0.803855 0.724726 -0.222604 -0.00689863 0.279609 -0.953067 0.705056 -0.6197 -0.555253 0.914398 0.443267 -0.0477753 0.840554 -0.434205 0.603785 0.986438 0.519504 0.0541147 -0.0360616 0.859059 0.986415 -0.687341 -0.657121 0.569981 0.674613 0.680466 -0.142036 0.899151 -0.828414 -0.446666 0.175741 0.0312719 -0.281239 0.934683 -0.187174 -0.951415 -0.265164 -0.624019 0.0573001 -0.27013 0.471237 -0.770441 0.648462 -0.96216 -0.615178 -0.764588 0.757178 0.522903 -0.135162 -0.93599 0.0155467 0.84447 -0.637558 -0.837489 -0.964185 -0.471362 0.717263 -0.0855692 -0.368653 0.496396 0.302013 0.596617 0.285449 -0.720473 -0.107113 -0.192375 -0.274897 0.353191 -0.884988 0.611574 -0.433507 -0.756325 -0.925013 0.202108 0.489907 -0.429586 0.657611 -0.868409 -0.897912 -0.373532 0.344966 -0.341188 -0.201362 -0.888614 -0.464886 0.83294 0.405107 -0.663662 -0.883122 -0.569516 0.220385 -0.321304 0.283978 -0.339644 0.939858 -0.851725 0.98943 -0.613966 -0.804853 0.468163 -0.630163 0.87081 0.120766 0.245548 0.713903 0.499448 -0.386662 0.681099 -0.200789 0.521761 -0.0655012 0.610274 -0.278747 0.184102 -0.455018 0.912013 0.210347 0.249297 0.993226 0.862428 -0.96685 -0.796092 0.179253 -0.975317 -0.234409 0.653523 -0.457933 -0.0140002 -0.0417425 -0.0108205 -0.607384 0.427995 -0.895968 0.820285 0.0458298 -0.853678 -0.692615 0.861949 -0.00704658 -0.583451 -0.331274 0.247541 -0.0955031 0.540375 -0.728816 0.257983 -0.553071 -0.991227 -0.533041 -0.229169 0.510449 -0.517813 -0.616325 -0.297872 -0.318715 -0.226983 -0.613003 0.830103 0.894686 -0.503874 0.0229054 0.284921 0.0443025 -0.237487 -0.760403 0.949122 0.201744 -0.0924013 -0.888341 -0.889063 -0.611359 -0.112142 -0.322564 -0.414632 -0.0940886 0.742366 -0.715704 -0.0419685 -0.632834 -0.826924 0.103564 -0.643236 -0.396678 -0.224568 -0.00507569 -0.421889 -0.830802 0.550117 -0.378118 -0.293718 -0.888724 -0.377858 -0.764712 -0.854218 -0.876065 0.899294 0.280004 -0.105272 0.414738 -0.723589 0.869526 -0.602353 0.793419 0.726751 -0.42685 0.530975 -0.457622 0.842645 0.469897 0.892571 -0.698026 -0.561758 -0.170921 -0.043637 0.768999 0.113476 -0.130641 -0.600248 0.324751 0.859657 0.91829 0.849634 -0.0610532 0.574077 0.487892 0.367741 -0.599221 0.549519 -0.178091 0.890415 -0.911606 0.437926 0.294749 0.654366 -0.180835 -0.201883 -0.489238 0.2911 -0.311658 0.0867848 0.21659 0.190083 0.951482 -0.752945 0.960889 -0.294206 -0.450642 0.426637 0.114857 0.0700319 -0.351102 -0.863943 0.359402 0.731346 -0.223126 -0.44825 0.427357 0.683582 -0.155974 -0.989727 0.0215579 -0.223651 -0.286598 0.747878 -0.559456 -0.998798 -0.0930601 0.798141 0.879357 -0.865472 0.273952 -0.0512391 0.275805 0.428273 -0.511118 -0.0376912 0.860078 -0.0526752 -0.828409 -0.865549 0.862054 -0.00175381 -0.737078 -0.38082 -0.0737872 -0.715179 0.0959107 0.362468 0.922182 0.748033 -0.49795 -0.923179 -0.762202 0.122601 0.0278975 0.0348842 0.567893 0.343266 0.864424 0.125873 -0.153406 -0.0816917 -0.827828 -0.308823 0.906608 -0.374246 0.549857 0.081898 -0.865458 0.130228 -0.154044 -0.201665 0.816998 -0.268844 0.615467 0.486724 0.156491 0.638655 0.263874 -0.646553 -0.875739 0.698608 0.857248 0.840382 0.370612 0.270717 -0.863473 -0.850772 0.227942 -0.0308553 0.665662 -0.894412 0.398823 0.90465 0.017815 0.332987 0.110217 0.748928 0.040977 -0.573624 -0.080971 0.193899 -0.037064 0.156653 0.0598091 0.249128 0.130474 -0.151939 -0.0408896 -0.0135112 0.158505 0.918488 0.064047 0.867225 -0.445799 -0.267468 0.617 -0.208364 0.72819 0.135268 -0.14267 0.461773 0.555738 0.291904 -0.0144282 -0.406711 -0.920307 0.973747 0.441559 -0.987612 0.941924 0.47175 0.729456 -0.0452339 0.389425 -0.316279 -0.7821 0.260175 -0.565083 0.147348 0.518116 -0.352821 0.459262 0.337543 0.817788 0.33782 0.548104 -0.95119 0.772477 0.0891133 0.780871 -0.589883 -0.918254 0.0960833 0.767171 -0.49429 -0.789609 -0.646241 -0.158125 -0.573265 -0.0712376 0.0789924 -0.656824 0.33841 -0.733425 -0.966821 -0.54842 -0.893076 -0.00836343 -0.355671 -0.101279 0.31647 -0.812096 -0.630009 -0.95497 -0.742671 -0.308556 -0.525557 -0.232685 -0.451487 0.0190889 -0.509969 -0.368835 -0.726801 -0.0801934 -0.147847 0.141783 0.538616 -0.411034 0.868809 0.697475 0.0147277 0.0111302 -0.67681 -0.300637 0.490574 -0.849 0.809548 0.106698 -0.576316 0.332876 0.245418 -0.60629 0.996387 0.0359912 -0.788865 -0.884113 0.992094 0.41066 0.341428 -0.530645 0.564627 0.557825 -0.852633 0.0527721 0.855204 -0.643866 0.669801 0.893883 -0.537985 0.0947848 -0.1672 -0.667043 -0.611937 -0.714277 -0.465338 -0.410653 -0.226871 -0.716699 -0.920715 0.444606 -0.0261972 -0.482967 -0.624792 0.217451 -0.44367 -0.785213 0.453298 -0.192272 0.0961767 0.0207034 0.884442 -0.0827521 -0.680067 -0.31226 -0.900186 -0.735915 -0.599122 0.875996 -0.0134098 -0.767335 -0.864769 -0.414724 -0.0839538 -0.176343 -0.747487 -0.830434 0.704068 0.402333 -0.799434 0.671215 -0.26424 0.399985 -0.19749 -0.467362 -0.0025255 -0.989047 0.0747828 -0.673249 -0.552062 -0.333057 0.629381 0.417672 -0.52923 0.660535 0.935736 -0.589927 0.888614 0.251566 -0.0780453 -0.943174 -0.669033 0.338947 -0.219081 0.278693 0.543972 -0.0869147 0.342102 -0.142443 0.630443 0.0735267 0.152688 -0.352298 -0.844551 -0.976835 -0.415551 0.139733 -0.384846 -0.609016 -0.426614 -0.00451667 0.0289957 -0.876407 0.407229 -0.418278 0.374006 0.588425 -0.907033 -0.342527 -0.797662 -0.852397 -0.0476292 -0.555627 -0.392194 -0.822717 -0.204489 -0.328535 0.541315 -0.406052 -0.0373277 0.956399 0.15697 -0.924747 -0.202097 -0.599094 0.804326 0.952741 0.419394 0.803185 0.537733 0.830768 -0.988542 -0.969042 0.779744 0.32407 0.013143 0.703162 0.52525 0.02989 -0.692583 -0.724025 0.800717 0.737778 0.759408 0.9783 0.0872455 0.621449 0.0984337 0.121212 0.0310105 -0.605233 -0.147575 
0.106324 0.623815 -0.244438 0.50119 0.825228 0.437341 0.551831 0.995586 0.576125 0.329099 0.811841 0.593806 -0.590702 -0.919894 0.340815 0.610296 -0.378835 0.499954 -0.040884 0.651604 -0.759309 -0.774322 -0.156751 0.499218 0.389269 0.289993 -0.0171805 0.823148 0.345523 0.328057 -0.696691 -0.381113 0.229241 0.76134 0.289263 0.744425 0.476942 0.129884 -0.859913 0.503335 -0.795947 0.348399 -0.690458 0.410607 0.326071 -0.601696 0.49865 -0.561332 -0.134994 -0.307715 0.43604 -0.0864797 -0.223141 -0.168761 0.272697 0.160808 -0.308596 -0.302411 0.879199 0.319919 0.583224 0.917611 0.361361 0.0403345 0.0698652 0.775573 -0.116615 -0.993497 0.00830833 0.915401 0.737726 -0.355474 -0.704407 -0.473941 0.548703 -0.271061 0.927454 0.265008 -0.225846 -0.742928 -0.360672 -0.220442 0.963575 0.189997 0.823257 0.852127 0.223209 0.969554 -0.174444 -0.186444 -0.787815 0.342862 0.828845 0.320197 0.194414 -0.40644 0.0707593 0.133753 -0.899655 -0.828475 0.642422 -0.737084 -0.563806 -0.0275603 0.451268 0.423193 -0.0650131 -0.602277 0.122411 0.765427 0.595026 0.20555 0.771339 0.179019 -0.681789 -0.289838 0.936103 -0.872215 -0.433664 0.28644 -0.13227 -0.495164 -0.792681 0.070888 0.994971 -0.656625 -0.593065 -0.380509 -0.908381 -0.673891 -0.143352 0.778227 0.735469 0.791049 0.196804 0.730831 -0.0162294 -0.965033 -0.871578 -0.979873 0.311652 -0.122561 0.725495 -0.266422 0.813849 0.405064 0.06255 0.633429 0.44277 -0.469879 -0.267372 -0.654049 -0.498696 -0.286058 0.692956 0.899004 0.698932 0.605808 0.798798 -0.0157787 0.127078 -0.984815 -0.4685 0.542617 -0.82865 0.0870383 0.819554 0.619743 0.700165 -0.425101 -0.787135 -0.32632 -0.341952 0.420406 -0.828712 -0.248169 -0.355348 0.935427 0.717165 0.38096 0.102232 0.146353 -0.178393 -0.311801 -0.358229 0.0600538 0.84472 -0.362285 -0.166403 -0.6115 0.526056 -0.66081 -0.816579 0.351791 -0.773534 0.139272 -0.88353 0.824437 -0.222867 0.655822 -0.906857 -0.136799 -0.588369 -0.490247 -0.972136 -0.249838 -0.867289 -0.69463 -0.458914 0.546421 0.712415 -0.5853 -0.530672 0.51402 0.922565 -0.31273 -0.661912 -0.0904627 -0.68879 0.00546914 -0.874992 -0.170478 0.608425 -0.427927 0.310332 -0.319599 0.851072 0.15213 -0.417754 -0.754077 0.0290788 0.661519 0.730609 -0.795236 0.522138 -0.51488 -0.439631 0.156917 0.981054 -0.15484 -0.804171 0.692728 -0.277838 0.750117 -0.660619 0.25437 -0.820482 0.822243 0.934601 0.921342 -0.0449481 -0.695146 -0.409909 0.988241 0.496442 -0.342017 0.932821 -0.502968 0.804386 0.664361 -0.643721 -0.525913 -0.367336 -0.236058 -0.872449 -0.941132 0.158958 -0.216672 0.846206 -0.111348 -0.835461 0.462134 0.157719 -0.212122 -0.54958 0.769628 -0.643186 -0.557336 0.274696 0.0664535 0.403822 0.0311686 0.885727 0.435538 0.996188 0.503631 0.0414183 0.696962 -0.733481 0.643402 -0.191817 -0.693862 -0.677785 -0.913461 -0.42284 0.371585 -0.970966 -0.607252 0.390301 0.981025 0.571935 0.00402238 0.694041 0.0868451 -0.575437 0.390941 -0.447426 -0.429608 0.880082 -0.336069 0.917869 -0.626461 0.671176 0.147133 -0.711931 -0.010256 -0.318946 -0.870116 0.930321 0.230431 0.522588 -0.585259 -0.124602 0.190474 -0.0756382 0.14564 0.235083 -0.299291 0.0121369 -0.70601 -0.101665 -0.178528 0.179695 -0.594846 -0.137935 -0.730599 0.897418 -0.776016 0.0115954 0.686841 0.108853 -0.775186 -0.463922 -0.551418 0.57796 -0.723326 0.935893 -0.167526 0.490743 0.784924 0.318144 -0.838169 -0.807339 0.313066 -0.674949 0.580024 0.666424 0.188502 -0.634852 -0.876705 0.168974 -0.28879 -0.592345 0.734786 0.662254 0.981596 0.735421 -0.307908 0.0212808 -0.121319 0.134286 0.287565 0.515401 0.970123 0.994582 -0.00478989 -0.145652 0.0508879 0.322995 -0.0982708 0.344574 -0.0528073 -0.156429 -0.696078 -0.435312 -0.71903 -0.81752 0.930049 0.937659 0.564611 -0.938109 0.147542 0.910365 0.536511 0.689088 0.854457 -0.265154 0.636713 0.124297 -0.307722 0.433124 -0.0681598 0.100115 0.803664 -0.063622 -0.713977 0.379403 -0.278235 -0.440542 -0.448446 -0.224235 0.0400295 0.022999 -0.130478 -0.624137 -0.314999 -0.934411 -0.387832 0.791731 0.794343 0.817357 0.516953 0.729529 -0.455908 0.28598 0.770177 -0.426929 0.639054 -0.468239 0.895015 -0.713261 0.0867754 -0.595039 0.805973 -0.443368 0.0891085 -0.146117 -0.111561 0.670549 0.139361 0.683506 0.208161 0.0432956 0.565718 -0.942477 -0.12858 -0.159367 0.327522 -0.45939 -0.879806 -0.230874 0.36234 0.596362 0.518041 -0.405276 -0.942546 0.211617 0.229669 -0.183249 -0.125961 0.753187 -0.676529 -0.055298 -0.934537 -0.224513 0.76279 0.35048 -0.146862 0.724595 -0.804932 -0.788169 -0.231697 0.571504 -0.428378 0.614 0.920133 0.187697 0.325321 -0.887327 0.120866 0.0180088 0.964921 -0.485506 0.608313 -0.412902 -0.448994 -0.0411323 0.246347 -0.325846 -0.398274 -0.911682 0.256103 -0.163936 0.801087 -0.651439 0.632991 -0.707536 -0.642414 -0.525374 0.135051 -0.920392 -0.370566 0.0960719 0.589972 0.94966 0.455787 -0.595296 0.959482 -0.740606 0.240409 0.925033 -0.892878 -0.596467 -0.613001 0.317962 0.516901 -0.208579 -0.439157 0.300775 0.151835 -0.735092 0.613401 0.778987 -0.709883 -0.572607 -0.18617 0.721673 0.509591 0.0994512 -0.137927 -0.492972 0.581859 0.0938763 0.65978 -0.932937 0.962766 -0.773981 -0.843727 -0.367209 0.258171 0.645253 -0.487122 -0.991944 -0.552108 0.170414 -0.676959 0.57435 0.932219 0.642918 0.428191 0.411582 -0.830962 0.41382 0.657851 -0.960496 0.333275 -0.508656 -0.343324 -0.665727 0.612212 -0.990522 -0.254301 0.440544 0.316476 -0.99942 0.614381 0.842361 0.624826 0.442419 -0.877201 -0.82429 -0.0652979 -0.814681 -0.865963 -0.156359 -0.00195475 0.32434 0.052191 -0.50151 0.614305 0.757694 0.911771 -0.512789 -0.18701 -0.772867 0.644783 0.67259 0.134262 -0.00144856 -0.50759 -0.917672 -0.27463 -0.526652 -0.109364 0.464158 0.877092 0.856125 -0.116842 0.599332 -0.0130269 0.474716 -0.112609 -0.0741131 0.991409 0.495005 -0.854148 0.180793 -0.139771 0.574516 0.610377 0.617398 0.258475 0.4598 -0.157538 -0.795905 0.731478 -0.554664 0.517672 0.584708 -0.888248 -0.872334 -0.226058 -0.0364259 0.336205 -0.805351 -0.173078 0.566235 -0.586725 -0.619602 0.399796 0.589522 -0.741525 0.524711 -0.0336555 -0.356722 0.346561 0.590012 0.0136361 0.13536 0.797429 0.194245 -0.573904 0.224496 -0.254576 -0.726088 -0.263813 -0.0892869 0.907084 0.00959057 -0.996786 -0.864481 -0.716367 0.701021 -0.402 0.340529 0.268294 0.619399 -0.61896 -0.922086 0.83753 -0.279483 0.775997 0.490508 -0.664709 0.650818 0.826769 0.658497 0.0452355 -0.796361 0.366213 0.0138207 -0.0855559 0.820418 -0.587976 0.825798 -0.456727 -0.0895072 0.905689 0.424611 0.23127 0.603281 0.55915 -0.0974892 0.138841 -0.603379 -0.2478 0.606484 -0.739868 0.449927 0.196271 0.114736 -0.665123 0.518086 0.598632 -0.808967 -0.892264 -0.611213 -0.043993 0.706224 0.961777 -0.185788 -0.558427 0.64325 -0.901153 -0.513968 0.332929 0.399548 -0.157856 -0.175183 -0.546855 0.840155 -0.828967 -0.197605 -0.148731 0.428189 -0.870376 0.992787 0.870228 0.691255 0.187622 -0.585616 -0.376435 -0.365888 0.832754 0.83164 0.180745 -0.125859 0.992676 -0.874969 -0.245717 0.451069 -0.151297 0.640584 0.313432 0.795017 -0.106007 -0.0645953 0.215322 -0.356969 -0.220017 -0.573749 0.422976 0.51028 0.369357 0.170922 -0.888635 0.467465 0.749217 -0.139972 0.040424 0.430158 -0.354672 0.0401639 -0.47196 -0.866965 -0.680983 0.953555 0.450745 -0.71465 -0.238995 0.960938 0.288505 -0.536593 0.840508 0.355497 -0.172414 -0.118032 -0.888854 -0.449497 -0.691923 -0.336523 -0.300098 0.963769 0.869154 0.377342 0.769916 0.641739 -0.755909 -0.971775 0.521147 -0.639448 0.838915 0.833539 0.498152 
0.514105 0.632433 -0.162419 -0.321113 -0.462097 -0.170471 -0.204316 0.533582 0.164141 -0.570558 0.635471 -0.922835 -0.217917 0.335178 0.700507 0.414064 0.237672 0.821511 0.225512 -0.481153 -0.396992 0.691678 -0.198334 0.755545 0.233002 -0.254772 -0.306541 0.433312 -0.494373 0.302037 0.0586579 0.106701 0.0188446 -0.213557 0.34129 0.350565 -0.339809 0.524516 0.237683 0.0733 -0.943174 -0.119583 0.979301 0.906506 0.456985 0.711457 -0.898739 -0.475201 -0.0288767 -0.844546 -0.000886783 0.522632 -0.694822 0.700345 -0.467804 0.627619 -0.779291 -0.96333 -0.562507 0.570009 0.959971 0.361893 0.560293 0.837951 0.817577 0.318477 -0.92227 -0.0177694 -0.901677 -0.855812 -0.726355 0.438201 0.992861 0.342358 0.0306237 0.647921 0.65294 0.358595 0.421564 0.199465 -0.34765 0.786971 0.899151 -0.856936 0.265111 0.53219 0.542961 -0.811884 -0.821849 -0.894099 0.175553 -0.989938 0.0885707 -0.27432 0.732019 0.892517 0.947703 0.993897 -0.809499 0.862136 0.943713 0.578946 -0.902959 0.484636 0.00989373 0.777283 -0.966281 -0.212702 0.0909122 0.353415 -0.960573 0.558362 -0.227765 -0.840347 0.150866 -0.804409 -0.694227 0.445684 0.935033 -0.591664 -0.449335 0.286623 -0.469836 0.58848 -0.00996506 -0.502803 0.229422 0.811963 0.126626 0.485701 0.630893 0.738547 -0.834451 0.0903087 0.190828 0.938766 -0.194832 0.719322 0.754157 0.332064 0.491793 -0.633499 0.646922 0.952519 -0.480676 0.816768 0.763788 -0.282931 0.520884 -0.25688 0.989481 0.860069 0.0755676 0.299492 0.584683 -0.722696 -0.9071 -0.300948 0.848169 0.983804 -0.661918 0.334058 0.102282 -0.557876 -0.593598 0.932092 -0.525923 0.252984 -0.214496 -0.276831 -0.36153 -0.0200431 -0.797198 -0.662158 -0.717336 0.905393 0.880955 -0.183267 0.107461 -0.581655 0.563242 0.348244 -0.227924 -0.548236 -0.945207 0.896474 0.921999 -0.985795 -0.751568 -0.805673 -0.783955 0.99362 0.419492 -0.153347 -0.328538 0.732877 -0.507092 -0.885634 -0.565925 0.918501 -0.628082 -0.206128 -0.650277 0.286142 -0.555881 0.249242 -0.740114 -0.952932 0.459987 -0.603689 0.116475 0.28993 -0.115464 0.0685599 0.4119 -0.469982 -0.0200693 0.660919 0.649038 -0.879221 0.370859 -0.500765 -0.785627 0.350445 -0.935014 -0.23055 0.204476 -0.292068 -0.487753 0.348728 -0.0680053 0.550778 -0.383837 -0.651187 -0.0953982 0.375389 0.22756 0.220479 0.0953304 0.957086 0.397729 0.199928 0.806587 0.951662 0.673711 0.549136 0.462575 0.492741 0.263416 -0.272383 -0.46649 -0.593255 0.93625 -0.886296 -0.223761 -0.331719 -0.963163 0.56646 -0.807399 -0.742895 0.0663187 -0.20267 0.543674 0.506085 0.986326 0.523966 -0.167094 0.908161 0.592188 0.45636 -0.315847 0.597284 -0.154645 0.9101 -0.493507 0.919498 -0.414228 -0.680413 -0.946001 0.617274 0.941419 -0.315734 -0.73709 -0.490211 -0.859341 0.985446 0.662579 -0.207763 0.369272 -0.311236 0.138487 -0.492345 0.088261 -0.675201 0.708959 -0.192869 0.0206707 0.842139 -0.0646258 -0.787765 0.917036 0.982526 -0.0516851 -0.334624 -0.089739 -0.946624 0.141416 0.294343 0.097391 -0.997397 0.223228 -0.958645 -0.481413 0.818579 -0.683281 0.294978 -0.555471 -0.779979 0.97788 -0.775747 -0.282216 -0.182718 0.574438 0.664385 -0.31193 -0.24937 -0.139141 -0.775902 0.0311306 -0.154531 0.0288029 -0.921739 -0.886657 -0.616921 -0.0526678 0.851124 -0.563385 -0.951774 -0.0330028 -0.955159 -0.0680815 0.888294 -0.978048 0.456173 -0.384801 -0.0379275 0.858903 0.296075 0.218797 0.84055 -0.145287 -0.874463 0.548505 -0.722793 -0.17911 -0.0537227 0.849074 0.94729 0.449236 0.294423 -0.906724 0.724532 -0.613816 -0.966776 0.250997 -0.995654 0.583933 0.860185 -0.471028 -0.0809965 0.121262 0.684111 0.953671 0.337869 -0.448516 -0.293413 0.753451 0.273359 0.683626 -0.481578 0.492066 -0.0393446 0.183925 -0.98932 -0.209369 0.667427 -0.902609 0.607005 -0.179236 -0.730769 0.876447 -0.680977 -0.298774 -0.748678 0.991918 -0.224724 -0.787402 0.680652 -0.781848 0.0378382 -0.428492 -0.37061 0.870824 0.937597 0.19762 -0.0683448 -0.503999 -0.170308 -0.705359 -0.733627 -0.11999 0.136341 0.0634642 -0.548398 -0.577197 0.0082045 0.702854 -0.325957 0.994737 0.481981 -0.255748 -0.402335 0.115485 0.58181 -0.126724 -0.424593 0.0381446 -0.243783 -0.841022 -0.971654 0.124123 -0.562195 -0.711549 -0.263373 -0.100899 0.957349 0.398696 0.521821 -0.776427 0.943154 0.185815 0.701728 0.0930104 0.904204 -0.311677 -0.0593573 -0.74268 -0.680923 -0.918349 0.584247 0.65417 -0.134856 0.904195 -0.389974 0.42104 0.874177 0.35186 0.0196758 0.148814 -0.390253 0.497052 0.550859 -0.53319 -0.591901 0.770247 -0.648427 -0.452971 0.839389 0.8594 0.582456 -0.145295 0.409082 -0.194643 0.940417 -0.772829 -0.297745 0.233266 0.0325837 -0.916171 0.0220362 0.246237 -0.0571244 -0.733186 -0.229148 0.26767 0.560413 -0.366177 -0.936005 0.6066 0.966098 0.926137 0.227743 -0.87192 0.521577 0.881909 0.422776 0.595363 0.47477 0.00775012 0.745453 -0.705646 -0.968855 0.844717 0.0952703 0.659114 -0.881261 -0.731241 0.610543 0.495029 -0.960349 -0.82913 -0.83111 0.44963 -0.999037 0.72603 -0.112228 -0.76825 -0.683319 -0.552647 -0.46067 -0.756342 0.419796 -0.225164 -0.629244 -0.978094 0.697997 0.893117 -0.351471 0.399848 -0.326185 -0.679032 0.156445 0.641349 -0.673898 0.517574 -0.0229479 0.401496 -0.560355 0.88949 -0.630315 -0.081112 -0.82667 0.490633 0.164312 0.290337 0.331041 0.109559 -0.314329 0.614 -0.297043 -0.936106 0.450588 0.672415 0.506626 0.282324 -0.890171 0.975526 -0.415909 0.200261 -0.249323 -0.283155 0.16218 0.213517 0.456338 -0.324373 -0.0614664 0.582785 -0.227663 -0.443284 0.392801 0.683604 0.88239 -0.467716 -0.346894 0.0344217 -0.994572 -0.450325 -0.900645 0.196189 -0.227695 0.138893 -0.645908 0.611233 0.559055 -0.956203 0.72626 0.134852 -0.284778 -0.529515 -0.445854 0.0108325 0.665051 0.325606 0.161806 -0.317636 -0.258887 0.937567 -0.519783 0.483943 0.374506 0.643202 -0.0488926 -0.271427 0.184694 -0.510359 -0.402632 0.00709799 0.641622 -0.185789 -0.00734347 0.31061 0.353467 -0.69944 0.89469 0.541423 -0.491435 -0.333488 -0.760271 -0.781064 -0.368871 -0.608749 0.618328 -0.935068 -0.15265 -0.0893324 0.0502929 0.360804 0.4227 -0.107854 -0.21213 -0.225721 -0.704404 0.700225 -0.914127 -0.44778 -0.462438 -0.455039 -0.40861 -0.648548 -0.703982 0.308692 -0.639366 0.472456 0.110977 -0.648647 0.639183 0.155868 -0.72462 0.334016 0.280914 0.252605 0.420462 0.16903 0.844624 -0.158632 -0.567393 -0.254545 0.353303 -0.565343 0.210634 0.0766514 -0.172658 -0.61259 -0.0421278 0.710262 -0.457302 -0.784832 -0.153286 0.737014 0.122102 -0.87961 0.661724 0.356619 0.793671 0.125092 -0.218792 0.576452 -0.791531 -0.378328 0.787823 0.119813 0.719096 -0.554645 -0.373861 0.725978 -0.00828442 -0.248792 0.902134 -0.743651 0.697338 -0.850437 0.0938977 -0.343761 -0.831233 0.653258 0.600495 0.0413865 0.531115 -0.509455 0.788597 0.290539 0.543669 -0.000610456 -0.148559 0.888341 0.183289 -0.33228 -0.134947 -0.634192 -0.060791 0.796238 0.345382 -0.484384 0.218624 0.967449 -0.724626 0.719738 -0.233905 -0.777445 -0.289994 -0.449679 0.78714 -0.216709 -0.223722 -0.97878 0.999383 0.674949 -0.533319 -0.421196 0.924867 0.328525 0.492571 0.947634 0.883947 0.268547 0.437553 -0.352801 0.268372 0.521477 0.938188 0.59838 -0.80209 -0.301328 0.149096 0.172986 0.227028 0.767616 0.00779013 -0.489227 0.272515 -0.810284 -0.0052406 -0.915815 0.835194 0.380371 -0.354998 -0.317802 0.320908 -0.472824 0.843371 0.971653 -0.861115 0.970839 0.434264 -0.889018 -0.339259 0.225598 0.845837 0.631787 0.860051 0.526561 -0.407382 -0.0168514 -0.495997 0.407021 -0.919092 0.312019 0.543661 0.230349 0.73161 -0.883511 0.772279 0.442292 -0.448328 
0.0632982 -0.0700306 -0.992408 -0.873442 -0.828679 -0.0111044 -0.578476 0.62931 0.740746 -0.0776846 -0.572436 -0.745219 -0.0817493 -0.124484 0.509931 -0.459928 -0.726415 -0.928505 -0.593998 -0.997167 0.484972 -0.753148 0.473139 -0.921643 0.259174 -0.717983 0.833592 0.541187 -0.36289 0.310397 -0.222856 -0.884115 -0.865901 -0.0662485 -0.665939 -0.589689 0.642286 0.0160641 0.315642 0.704115 -0.274865 0.861255 0.658448 -0.785313 0.289361 0.0304432 -0.754644 0.72611 0.701382 -0.0891915 -0.170872 0.338089 -0.890049 0.968717 0.438334 0.765996 -0.810194 0.156355 0.919035 0.139596 -0.089323 -0.0424854 -0.285386 -0.969027 -0.41799 -0.855504 -0.609715 -0.113256 -0.345984 -0.269194 -0.0519637 -0.191179 -0.262002 0.414597 -0.0520313 0.247021 0.451633 0.84705 0.0738232 -0.410981 -0.810205 0.379279 0.0783732 0.52235 0.165724 -0.177459 -0.97111 0.0555999 0.647577 -0.703804 -0.270121 -0.630041 -0.00944476 -0.588792 0.818034 -0.145982 -0.568152 0.97878 -0.725042 -0.914306 -0.804872 0.911172 -0.513524 0.248 0.272233 -0.281744 -0.627115 -0.875751 -0.550367 -0.522363 0.739212 0.499038 0.870915 0.891398 -0.443156 -0.167116 0.375696 -0.702679 0.698256 -0.0863898 0.894107 0.493915 0.503123 -0.332315 0.129821 0.769944 -0.0827456 0.496988 -0.854729 -0.3262 -0.0644413 0.89571 0.635928 -0.885699 0.969279 -0.0799072 -0.951688 -0.93749 0.298997 0.426257 -0.18711 0.851252 -0.136513 -0.0195208 0.0940615 -0.979558 -0.265314 -0.783693 0.346608 -0.998731 -0.287833 -0.937309 0.444052 -0.639057 -0.958831 -0.882871 -0.467967 -0.479258 -0.122692 -0.882348 -0.500119 0.141899 -0.114251 0.958255 0.698408 -0.0525505 0.113779 -0.735301 0.909664 0.289352 0.224951 0.0472202 0.15653 0.438366 -0.412422 -0.669111 -0.549587 0.165108 0.718949 -0.20863 -0.591465 -0.536044 -0.548727 0.143021 0.599706 0.251054 0.460509 -0.788886 -0.0990523 -0.147017 -0.522562 0.139874 -0.690546 0.799299 -0.805988 -0.967867 -0.161954 0.51637 -0.793955 0.998915 0.111037 -0.350055 -0.913545 0.130172 -0.953813 0.818121 0.653905 0.509603 -0.837757 -0.413907 -0.889773 -0.466016 0.278235 -0.527296 -0.689399 -0.348011 -0.751182 -0.111992 0.989324 -0.287276 0.141223 -0.666996 0.273003 -0.976228 0.0585334 0.513582 0.0256967 0.715909 0.729811 0.54155 -0.349517 -0.70066 -0.408243 -0.749067 0.15313 -0.864123 -0.562553 0.764405 -0.890149 0.93112 0.429575 -0.654746 -0.350098 0.910005 0.892666 -0.263821 -0.16997 0.777857 -0.658456 0.402869 -0.247635 0.714241 0.0801959 0.652548 0.189028 -0.181345 0.298902 0.466841 -0.496756 -0.140031 0.791558 0.224612 -0.494225 -0.405477 -0.0360779 0.241265 0.785194 0.682671 -0.591734 0.575938 0.249606 0.762259 -0.695512 -0.430679 -0.965506 0.687901 0.764798 0.952467 0.209421 0.368924 -0.0734504 -0.917303 0.841203 -0.584528 0.0603872 0.454927 -0.0644986 -0.199449 0.128197 0.512214 0.995299 0.772455 0.507359 -0.0850927 0.909488 -0.866247 0.223042 -0.754699 0.946256 0.514619 0.728316 -0.0552429 -0.377707 0.537608 0.0738998 0.146391 -0.578283 0.331997 -0.958026 -0.0953088 0.307836 -0.210391 0.473805 0.827255 -0.283914 0.662299 -0.801173 0.147437 0.0419734 0.150593 0.209594 0.0975205 0.252718 0.46185 -0.54967 -0.114539 0.964215 -0.419493 0.926015 -0.234585 0.826886 0.450852 0.215561 0.933952 -0.356365 0.45821 0.262545 -0.71142 -0.610635 0.590043 -0.243458 0.139097 0.665181 -0.0749661 -0.00725202 0.97927 0.450427 -0.258216 0.0216511 -0.270528 0.285622 0.133678 -0.515585 -0.0102259 0.849931 0.266943 -0.92258 0.844478 -0.183555 -0.523281 0.730245 0.62207 -0.174226 0.560473 0.440431 0.354762 0.763677 0.209845 -0.568131 -0.798699 -0.0993663 0.657884 0.491209 -0.83777 0.0305357 0.327593 0.00564785 -0.124379 -0.779568 0.911168 0.262941 0.356721 0.982965 0.780243 0.2877 0.206498 0.718647 -0.247415 -0.0578421 -0.569556 -0.990707 -0.0180175 0.253444 0.986344 -0.642926 0.688393 -0.265532 -0.965958 -0.472522 -0.114243 -0.528247 -0.354365 -0.703369 -0.0783322 -0.296401 0.134832 -0.261886 0.615842 0.581495 -0.265666 -0.801462 -0.795032 0.392721 -0.223529 0.937197 -0.571535 0.106776 0.457396 -0.912812 -0.69363 -0.669165 0.224411 0.607545 -0.968089 -0.679417 -0.787709 0.805015 -0.368716 0.381738 0.393189 0.16271 -0.655477 0.884167 -0.0231592 0.15293 -0.226617 -0.759981 -0.326729 0.666264 -0.407164 -0.839291 -0.235936 0.547803 -0.350306 -0.99286 -0.881793 0.371274 0.30392 0.807457 0.792198 0.862766 0.930214 -0.511459 0.703935 0.0106259 0.665868 0.74242 -0.523357 -0.262319 -0.912045 0.717725 0.836369 0.304168 0.738912 -0.0317686 -0.605884 0.629314 0.369309 0.482789 0.888354 0.457351 -0.192023 -0.256037 -0.353265 -0.391532 0.625857 -0.670321 -0.129409 0.188991 0.215516 -0.53909 -0.436357 -0.513332 -0.280693 0.400645 -0.30834 -0.178665 0.994488 -0.762678 0.137961 -0.479117 -0.815068 -0.807017 0.382445 0.510491 0.188838 -0.271127 0.799177 0.0461792 0.783657 0.219034 0.566065 0.118186 -0.910448 -0.0750622 0.38853 -0.366048 -0.20899 -0.0372827 0.487806 -0.738565 0.670549 0.995238 0.687237 -0.0525077 0.962862 0.978475 0.887424 0.384314 -0.642569 -0.824387 0.794987 -0.85905 0.540971 0.431683 0.650352 -0.934352 -0.409599 0.160721 0.666942 0.19246 -0.063446 0.26808 0.721998 0.850284 0.747942 -0.342 0.292715 0.265175 -0.979355 -0.401685 0.620006 0.933852 -0.763733 -0.219456 -0.282411 -0.902314 -0.40788 0.294005 0.900301 -0.636084 -0.765164 0.0459593 0.859571 -0.287421 0.901499 -0.976052 -0.570046 0.188628 -0.00575941 -0.780975 0.775514 -0.250052 -0.437672 -0.849167 0.0734741 -0.162333 -0.656364 0.507462 0.938681 0.788746 0.0175405 0.290964 -1.01888 0.502151 0.263202 0.858867 0.121028 -0.388814 0.895032 -0.77956 0.357682 -0.825025 -0.526698 0.67795 0.717886 0.621973 -0.888788 0.0794444 -0.420303 -0.290321 0.0413054 0.595188 -0.0390777 0.754869 -0.167118 -0.153541 -0.473282 -0.103699 0.781666 0.460942 -0.457176 -0.287379 -0.235133 0.0599285 0.056061 -0.923555 -0.171227 -0.988348 0.463379 0.758767 0.475481 0.244615 -0.0378266 -0.262265 0.427958 0.0600812 0.245251 0.777852 -0.0373023 0.908122 0.559818 0.934626 0.220082 -0.215278 0.170672 0.421685 0.754732 0.308684 -0.822537 -0.266205 -0.662349 -0.347938 0.1689 -0.169419 0.462618 0.759226 0.233169 0.19906 0.706086 0.280502 -0.883148 -0.290953 -0.340504 0.178607 0.181974 0.950656 -0.503701 0.208551 -0.154559 0.0683842 -0.324687 -0.92679 0.398524 0.667557 0.524254 -0.25749 -0.476147 -0.737479 0.614883 0.283985 -0.906861 0.0806868 -0.166807 0.589806 -0.271277 -0.746865 0.205949 -0.751138 -0.523974 -0.230988 -0.782592 -0.0431367 0.32972 0.743292 -0.611614 0.295645 0.865456 -0.261319 0.193885 0.0604236 0.0085831 0.573505 -0.598123 0.529493 0.333472 0.858753 0.44721 -0.0449075 -0.176571 -0.163091 0.503913 0.233082 -0.102575 -0.77561 0.577407 -0.189993 0.603222 0.666374 0.0685516 0.227685 -0.228887 0.711416 -0.605005 0.753025 0.140854 -0.427788 -0.768941 0.461473 0.855896 0.882945 -0.535635 -0.839701 0.70228 0.153505 -0.0642935 -0.280899 0.952275 -0.244389 0.324651 -0.0777644 -0.44911 0.160589 0.944553 0.524322 -0.782731 0.315015 0.420293 0.51019 -0.0373484 0.632816 -0.922615 0.501374 -0.0571225 -0.557624 -0.394499 -0.477981 0.121503 -0.850195 0.349254 0.301807 -0.113359 -0.274148 0.851904 -0.995711 -0.905205 -0.311504 -0.891104 -0.419732 -0.897459 0.361634 0.6025 0.810528 -0.286332 0.929412 0.0493171 0.12037 -0.268563 0.165575 0.945318 -0.458479 -0.390463 -0.165884 0.303057 -0.257928 0.156473 -0.966235 -0.316291 0.470694 0.159544 0.222301 0.767238 -0.508985 0.749109 -0.549249 0.346988 -0.590021 -0.913301 0.414116 -0.864887 0.429291 0.734622 0.71871 -0.00953724 
-0.329897 -0.576179 0.864556 0.366866 -0.174899 -0.403144 0.714648 0.888835 0.906471 -0.337167 -0.178174 -0.829486 0.143988 -0.744056 0.231738 0.340583 -0.630674 -0.971037 -0.678683 -0.056149 0.307538 0.934594 -0.0430392 0.48755 0.585506 0.159133 0.733047 0.219524 -0.705677 -0.773581 0.285651 0.816349 0.68284 0.353242 -0.936666 -0.0532989 0.41171 -0.922001 0.449459 0.744289 0.942607 0.490318 -0.466052 -0.61363 -0.012253 -0.0346833 0.144285 -0.657979 0.798831 -0.743007 -0.0396187 -0.705987 -0.973197 0.501175 -0.342417 -0.567261 -0.917023 -0.0457006 -0.154344 -0.0140617 -0.270833 -0.716136 0.29127 -0.655268 0.445725 -0.823894 -0.698863 -0.0827582 0.0875626 -0.224922 0.938881 -0.898333 0.381652 -0.778574 0.00690421 0.829657 -0.22195 0.32372 0.903839 -0.570194 0.555092 -0.247416 0.891082 -0.142011 -0.325531 0.619077 -0.861396 -0.944867 0.166987 0.145179 0.184867 0.71594 -0.677114 -0.707396 -0.223356 -0.419053 -0.00503806 -0.308155 0.0654677 0.664882 -0.592662 0.85398 -0.243865 -0.0319519 -0.667542 0.319412 -0.268183 0.00517345 -0.202351 0.219065 0.893393 0.66128 -0.829857 0.791699 -0.00770725 0.446577 0.494129 0.364764 -0.273878 0.834217 -0.240982 -0.954603 0.0842702 0.920404 0.668623 0.456613 0.00674577 0.321906 -0.681549 0.0743468 0.482246 -0.299468 -0.828042 -0.717666 -0.260374 0.327623 0.809514 -0.873746 0.076295 0.125074 -0.68239 0.404884 0.797525 -0.120806 -0.521451 0.466566 -0.0742913 0.324326 0.466952 0.147398 -0.98624 -0.0353616 -0.243963 0.782479 -0.631694 -0.893558 0.619817 0.8762 0.129677 0.497871 0.0606033 0.410781 0.0291325 -0.436058 0.85255 -0.00586971 0.545062 -0.213132 0.91359 -0.431802 0.410712 0.456763 -0.453695 0.79165 0.530809 0.0448864 -0.360384 -0.467489 -0.162752 -0.400492 -0.736411 0.24363 0.705885 -0.667007 -0.702403 -0.457884 0.201018 0.267765 -0.208515 -0.61391 -0.462565 0.579746 0.0909861 0.669909 -0.684127 0.890869 -0.501278 0.362782 0.281539 0.0217131 0.792566 0.641769 0.462617 0.884091 0.160448 -0.165865 -0.879352 -0.479415 -0.293002 -0.562226 -0.682915 -0.285611 0.611861 0.719628 0.290072 -0.736779 0.585803 0.921061 0.531966 -0.937216 -0.818414 -0.849143 0.0536317 -0.108248 0.751966 -0.651906 0.606914 0.930938 0.95759 0.538495 0.757669 -0.711125 0.444694 -0.646691 0.961779 0.449918 0.192919 0.0322 0.321529 -0.47989 -0.578131 0.449294 0.968298 0.245662 -0.24826 0.380661 0.871393 0.506752 -0.874718 0.253827 -0.629039 0.674729 0.643654 0.415301 -0.455122 -0.603501 -0.0455232 0.56425 0.0198751 -0.254358 -0.976339 0.762277 -0.756712 -0.965668 0.871034 -0.563992 -0.104342 0.676336 -0.452929 -0.827975 -0.491997 -0.323648 -0.0353973 -0.191917 0.557319 0.835834 0.597207 -0.798752 -0.541859 0.938445 0.647641 -0.514129 -0.294282 0.210201 0.990066 -0.838369 -0.275222 0.585281 0.587764 -0.730649 0.562878 0.929315 0.343636 -0.450743 0.781981 -0.767694 -0.118561 0.68725 -0.600258 0.175891 0.0973567 0.188883 -0.77396 -0.246521 0.469343 -0.847325 0.35784 0.600786 0.822135 -0.924024 -0.627934 -0.671555 -0.463574 -0.634935 -0.875505 0.580267 -0.93028 0.814781 0.503576 0.278165 0.660038 0.2432 -0.0672317 -0.501502 -0.919213 0.871575 0.307264 -0.496072 0.414917 0.0758228 -0.276838 -0.270127 0.812757 0.173808 0.890506 0.223952 0.802778 -0.945518 0.306034 -0.427836 -0.441428 0.962685 -0.702833 0.0254132 -0.774969 -0.16393 -0.655523 -0.141586 -0.822887 0.568336 -0.639749 0.315002 0.0961076 -0.785423 0.703175 -0.756319 0.290423 0.553138 0.881052 0.475565 -0.876986 -0.9802 0.467115 0.513311 -0.365073 0.386527 -0.104322 -0.800575 -0.669349 0.0206243 -0.114152 -0.274556 0.943126 0.153248 0.700804 -0.309725 -0.135557 0.411535 0.518583 -0.218093 0.396884 -0.602263 0.728401 0.295216 0.622714 -0.048296 0.707278 -0.750898 0.510946 0.595838 0.734322 0.968994 -0.0821187 -0.0346419 -0.956606 0.483832 -0.340286 0.867649 0.716262 0.289344 -0.176431 -0.130573 -0.947499 0.117055 -0.948448 0.962942 0.301542 0.0363258 -0.783763 -0.588971 0.070993 -0.956331 -0.991688 0.303651 -0.621091 -0.189188 0.0614323 0.763817 -0.340136 0.501795 0.569031 0.20616 0.257036 0.250326 0.209011 -0.374771 0.396731 -0.796492 0.480123 0.736855 -0.484453 -0.218803 -0.0219478 -0.679463 -0.385947 0.0418793 -0.72031 0.530659 -0.624926 0.835198 -0.395451 0.744017 0.718942 0.48429 0.187672 0.0366217 0.780343 0.749995 -0.818705 0.633332 0.722721 -0.852538 0.315033 0.155196 -0.957564 0.0620695 -0.0854126 0.907349 0.973083 0.276627 0.550123 -0.907724 0.374912 0.260547 0.315285 -0.824963 -0.868411 0.0331167 -0.634001 0.471575 0.70368 0.690092 -0.0167856 0.673318 -0.958011 -0.960617 0.557385 -0.191796 0.879543 0.349323 -0.493096 0.126923 0.138686 0.27879 -0.152027 0.50796 -0.424603 0.961652 -0.900088 0.607767 0.285876 0.23595 -0.499829 -0.0164113 0.844879 -0.159996 0.0817651 -0.694474 -0.314671 0.403767 -0.893494 0.342098 -0.770597 0.270118 0.758486 0.81772 -0.702164 -0.400224 0.448241 -0.348817 0.753267 -0.913137 -0.184572 -0.966758 0.408495 0.058568 -0.731784 -0.177622 0.968807 0.309857 -0.519047 -0.93958 0.476885 -0.290336 -0.21641 0.498369 -0.312128 0.525142 0.955269 0.771243 -0.475289 0.108141 -0.736251 -0.719556 0.773423 0.147867 0.0390765 -0.0994805 0.125188 -0.924172 0.127808 0.59556 -0.779092 0.599615 -0.517209 0.524736 0.104369 -0.338409 -0.677045 0.342642 -0.130591 0.494836 0.765809 -0.0831758 0.892312 0.275748 -0.760279 0.732852 0.434125 -0.173659 0.902582 0.608749 -0.950254 0.675513 0.265944 -0.879146 0.365299 -0.419905 0.445144 -0.757902 -0.606633 0.730119 0.602903 0.648707 -0.29765 0.276542 0.660779 0.120466 0.166869 -0.314854 -0.683501 -0.137407 0.0759541 0.0228711 -0.470312 0.385799 0.546365 -0.562653 0.0355075 0.386947 0.195462 0.546596 -0.787953 -0.57804 -0.844894 0.74406 0.730472 0.110326 -0.988996 -0.0746857 -0.628116 0.813352 0.694269 -0.299774 0.9664 -0.275231 -0.329425 0.62381 0.863565 -0.062192 -0.531456 0.895221 0.728745 -0.952889 0.464959 0.725893 0.931425 -0.858674 0.362311 0.608694 -0.526891 0.51066 0.776989 -0.52037 -0.871859 -0.0587243 0.0526097 0.897736 -0.154166 -0.582254 0.147018 0.91049 -0.900127 0.254016 0.109211 -0.81477 -0.17805 -0.37399 0.845278 -0.505934 0.497553 -0.509477 -0.692757 0.228456 -0.886313 -0.351225 0.65237 -0.90055 -0.575299 -0.781658 -0.528654 0.727307 -0.44815 -0.11918 -0.0937418 0.447918 -0.852543 -0.45636 0.499759 -0.77202 0.653973 -0.248485 -0.296842 0.691631 0.9277 0.575802 -0.142766 0.0510953 0.850913 0.630575 -0.593998 0.890636 -0.924852 -0.267295 -0.956325 0.25082 0.279969 0.890189 0.438624 0.305876 -0.580573 -0.461155 0.482923 0.449328 -0.863392 -0.236058 0.158898 0.0379504 -0.882591 0.473972 0.502055 -0.490864 -0.0273236 -0.830753 0.0331544 0.537697 0.215728 0.663406 -0.377606 -0.258724 0.492559 0.765014 -0.579104 -0.525954 -0.711516 0.193266 0.731491 0.00922373 0.477802 -0.408563 0.378107 -0.864299 0.0488928 0.109515 -0.480087 0.414453 0.119869 -0.794953 -0.533632 -0.0114825 0.0645996 -0.664049 0.730803 0.604819 0.230288 0.274566 0.940721 0.0875514 -0.985108 0.106261 -0.0621049 -0.577845 0.323373 0.673129 0.837256 0.131994 0.0255079 -0.584108 0.84481 0.643278 -0.867303 0.15177 0.861032 0.0314749 0.653142 -0.930392 -0.0941037 -0.333118 -0.432005 0.0418355 0.7675 -0.321445 -0.14999 -0.654635 -0.248315 0.186315 0.938383 -0.103275 -0.234717 -0.283139 0.878309 0.479744 0.251221 -0.0595701 -0.470017 -0.598798 0.0503481 0.571094 -0.513522 0.10729 0.867121 -0.261824 -0.689435 -0.757851 -0.938918 0.0852062 -0.00390269 0.282496 -0.335906 -0.4929 0.880245 -0.0361187 0.448325 0.896476 
-0.393295 -0.747376 0.174074 -0.452624 -0.532272 -0.758774 -0.929733 -0.736222 -0.0383904 -0.240147 -0.745171 -0.104784 0.411392 -0.885394 0.500247 -0.757981 0.0131474 0.500351 -0.321462 0.273024 -0.160273 0.227527 -0.448563 -0.850471 -0.242255 0.660003 0.860599 -0.156622 0.993379 0.706959 0.323777 -0.160389 -0.821286 -0.529622 0.459244 -0.763949 0.941286 0.0758736 0.915242 0.838315 0.909605 -0.302937 -0.682215 -0.866893 0.715928 0.0354824 -0.18826 -0.156352 -0.125093 0.498309 -0.491356 -0.572566 -0.328621 -0.561147 0.208008 -0.148011 -0.283977 0.386618 -0.870369 0.0416911 0.855065 -0.354246 -0.242921 0.698442 -0.792468 0.77147 -0.213548 -0.102177 0.57735 -0.180123 0.363024 -0.516932 -0.553271 -0.214231 0.694299 0.810485 0.120298 0.662703 -0.263639 0.565716 -0.538224 0.279323 0.518789 0.60723 0.421275 -0.320533 -0.474768 -0.216239 -0.163452 0.0173695 -0.23065 0.0691317 0.0961299 0.816688 -0.385483 -0.540211 0.955634 0.228844 -0.762918 0.943957 -0.222832 -0.0639886 0.74879 -0.44706 0.601885 0.157176 0.267874 0.637707 -0.623021 -0.677184 0.247642 -0.650146 0.354505 -0.58971 0.633379 -0.0391262 0.524662 0.847846 0.138783 0.577306 -0.461663 -0.0947636 -0.653156 0.0362342 -0.198549 0.652888 0.0967849 0.63135 0.446036 -0.167129 0.520411 0.149161 -0.36413 0.13002 0.514653 -0.48237 -0.603004 -0.318975 0.70085 0.327333 0.319988 0.449857 -0.382258 0.214515 0.661844 0.194695 0.231425 0.32307 -0.76522 -0.475053 0.241654 -0.525691 -0.907249 -0.62357 -0.227333 -0.0114347 0.404553 -0.53818 -0.702685 0.682384 -0.0148959 -0.442274 -0.519272 -0.922952 0.0210425 -0.28802 -0.28937 0.0951365 0.423309 0.678696 -0.623023 0.952127 0.365907 -0.933855 -0.813129 -0.0442481 -0.228946 0.0458995 0.0980682 0.820267 0.272953 -1.0817 -0.62018 -0.208857 0.0324723 -0.696388 0.489274 0.421178 -0.27232 0.107536 -0.197799 0.841427 -0.89994 0.620794 -0.0528593 0.451775 0.0421948 -0.177934 0.622967 -0.917058 0.355664 -1 -0.507819 0.932 -0.544647 0.592218 0.692274 -0.752205 -0.0891905 -0.281923 0.214222 -1.0401 0.292759 -0.393264 0.426407 -0.405761 0.427443 -0.0720027 0.638133 -0.775405 0.00680937 -0.16333 -0.530733 0.00284295 0.733597 -0.970657 0.0301825 0.672606 -0.678024 -0.64017 0.215483 0.0443205 -0.416346 0.752417 0.687977 0.0386949 -0.517628 -0.863415 0.822371 0.603522 -0.682729 0.762358 0.479612 -0.0727048 0.853216 -0.110566 -0.965816 0.80906 -0.798246 -0.416924 0.0329196 0.172119 0.811023 0.225679 -0.888536 0.250713 0.787198 -0.862808 -0.158504 0.372272 -0.721904 0.266047 -0.706624 0.157423 0.771388 -0.559614 -0.912842 0.847351 0.788762 -0.397771 -0.283771 0.110621 -0.930168 0.39312 -0.831967 -0.428294 0.429832 -0.827581 0.247129 0.180056 0.772519 -0.0261129 0.783802 0.36021 0.313562 0.845982 0.168937 -0.945276 -0.339461 -0.532508 -0.667384 0.332019 0.509064 -0.331302 0.934363 0.281707 -0.0735697 0.379176 0.182035 -0.32982 -0.670289 -0.203258 -0.0292369 0.927638 0.840939 0.282539 -0.983304 -0.383883 -0.689306 -0.801333 0.518766 -0.862189 -0.261447 -0.721044 -0.0682794 0.309188 0.464616 0.0438896 0.920131 0.785271 0.672027 0.617799 -0.971114 -0.0199987 0.914141 0.460517 0.416308 -0.551136 0.242819 0.46452 -0.0947967 -0.944987 0.356355 0.896934 0.290838 -0.11977 0.26626 0.784256 0.982353 0.631429 0.371315 -0.872856 -0.284981 0.679629 -0.584455 0.777935 0.147965 0.538667 0.82475 -1.15811 0.307301 -0.550282 -0.230823 -0.189051 -0.648527 0.97278 0.283888 -0.474395 0.338085 -0.819548 -0.868689 -0.248272 0.504628 0.065513 -0.587404 -0.37663 -0.72931 0.14775 -0.114877 -0.973785 0.384357 0.560688 -0.487718 -0.381218 0.240512 0.93425 0.119704 -0.707922 -0.22293 0.138407 -0.481584 0.321797 -0.35799 -0.0795691 0.917976 -0.96324 -0.678002 0.364703 0.202926 -0.589093 -0.517323 0.9441 0.744108 0.166094 -0.763264 -0.133474 -0.0854544 -0.921404 0.180942 0.0285139 0.175081 -0.501667 -0.0698442 0.918755 0.0159886 0.458294 -0.519525 0.626448 0.461612 -0.731756 0.0930566 -0.372438 -0.972174 0.232888 0.643018 0.520936 0.313256 -0.590792 -0.472436 -0.238575 0.180989 -0.327803 -0.91394 0.794156 0.776984 -0.42511 0.216017 -0.229805 0.57809 0.424988 0.546901 -0.719034 0.353474 -0.622124 -1.00411 0.085409 0.757761 -0.522764 0.565843 0.523105 -0.444348 0.340782 -0.337947 0.593627 0.852057 -0.446123 0.00852063 -0.169097 0.372206 0.186551 0.255602 0.0462257 0.20966 -0.713798 -0.24718 -0.394164 0.119522 0.832217 -0.354258 0.823351 -0.593942 -0.950506 0.0880993 0.010314 -0.456231 -1.16828 -0.0509976 0.517263 -0.767394 -0.107806 -0.602497 -0.528703 0.748366 0.573567 -0.505882 -0.649161 0.24404 -0.349365 0.22765 -0.897283 0.0941853 0.868632 -0.744365 -0.28059 -0.689451 -0.74819 -0.140311 0.964754 -0.2309 -0.550253 0.622944 0.166718 0.66826 0.676907 0.5368 0.46544 0.64537 -0.326562 0.885838 0.0127009 -0.680573 -0.0571617 0.54547 -0.63331 -0.218109 0.300935 0.638852 -0.590082 -0.0353971 -0.042657 0.520577 0.769334 -0.324068 -0.0167844 -0.0350333 -0.157945 0.405414 -0.131162 -0.739382 -0.340387 -0.396377 -0.941913 -0.759757 0.334956 -0.28901 -0.0206879 0.0685657 -0.756295 -0.370546 0.528639 0.151302 0.344906 -0.468428 -0.459521 -0.451836 -0.432954 0.276879 0.0455059 0.466899 -0.815198 0.916329 0.80368 -0.0268572 -0.00790731 -0.494987 0.834423 -0.923169 0.673526 -0.818989 0.751727 0.191886 -0.613047 0.266306 0.926123 0.0730718 0.324571 0.0484936 -0.654838 -0.358858 -0.24114 0.0858399 0.997532 0.552466 0.208653 0.332861 0.61776 0.913035 0.43106 -0.610713 0.902787 -0.298424 -0.926419 0.519289 -1.17898 -0.039842 -0.120288 0.497725 -0.95232 -0.854373 0.804108 0.178926 0.188131 -0.74362 0.0363744 -0.359105 -0.931614 -0.787028 -0.475973 -0.311492 -0.214568 0.120639 0.829233 -0.588171 -0.291633 -0.864574 -0.486533 0.359943 -0.0345406 -1.12998 -0.772332 0.572889 -0.461677 -0.282104 0.641831 -0.849788 0.0619962 0.491351 0.314807 0.757784 0.851967 -0.33692 0.030708 -0.979534 0.720033 0.255172 0.388692 0.947457 0.593286 0.4398 0.842257 0.219113 0.554131 0.455021 0.458912 0.287212 0.487172 0.0811741 0.253206 0.547543 0.559468 -0.75791 -0.356217 0.475172 -0.59009 -0.448612 0.423966 -0.216798 -0.302347 0.112581 0.230324 0.487359 -0.703086 0.45634 -0.282192 -0.108273 0.101274 0.0133105 -0.369302 0.16905 0.711996 0.0180907 -0.233935 -0.546902 -0.348969 0.465917 0.118369 0.285702 -0.215294 0.949339 -0.86044 0.980928 0.626737 0.274193 0.88718 0.198523 -0.470399 0.772531 0.394267 -0.524611 -0.374604 -0.679673 0.598781 0.915662 -0.00367445 0.266578 0.366577 -0.126739 -0.310821 -0.00473478 -0.838013 -0.508847 -0.729848 -0.784321 -0.0726911 0.86066 0.968969 -0.952488 0.393451 0.884166 -0.257042 -0.832587 -0.713185 0.585731 -0.370954 -0.790052 -0.572784 0.0956824 0.49307 0.812406 0.438912 0.42661 -0.488984 -0.918751 -0.476994 -0.812772 0.587291 -0.549706 -0.155681 0.0951914 0.966011 -0.0929207 -0.0398565 -0.562598 0.933889 0.0176413 -0.378763 -0.500676 0.139845 -0.743922 -0.404291 -0.697578 -0.423911 -0.989618 0.483533 0.802798 0.902617 0.281382 -0.984663 -0.482463 0.257258 -0.873225 -0.428032 0.86055 -0.633242 0.204707 0.566502 0.616906 0.877118 0.370971 0.378296 -0.503638 0.620271 -0.130638 0.808849 -0.451472 -0.0386441 -0.399717 0.98739 -0.150163 -0.418552 0.84502 0.821427 -0.719913 -0.331273 -0.592435 -0.86635 0.494873 -0.283194 -0.678629 -0.584093 -0.2067 -0.887905 -0.14235 -0.515984 -0.988093 0.0523383 0.0984158 -0.944225 -0.179287 -0.0576116 -0.551547 -0.400311 0.364645 -0.695404 -0.93934 -0.711663 -0.445315 -0.748058 -0.866986 -0.879808 -0.753995 -0.450627 0.0445347 -0.545596 
-0.839826 -0.861966 -0.12653 0.340944 0.0531431 0.105828 0.306911 0.877243 -0.945538 -0.913537 -0.813381 -0.331392 0.109593 -0.24793 0.352648 0.0587611 0.459031 -0.219123 -0.0225922 0.387769 -0.336305 0.364114 0.109134 -0.14325 0.526595 -0.195681 0.456547 -0.432827 -0.375449 0.88769 -0.618885 0.953321 -0.0267909 0.248149 0.219535 0.0347088 -0.95544 0.513938 -0.458635 -0.985157 0.833205 -0.346006 0.317265 0.396054 -0.547042 0.603791 0.203842 -0.112915 -0.602885 0.335878 -0.906371 -0.721154 -0.483203 0.838707 -0.295181 -0.375232 -0.98714 0.572747 -0.136693 0.10308 0.53576 0.569376 -0.93182 0.534634 -0.122868 -0.695315 -0.979901 -0.772649 -0.247109 0.514129 -0.967204 0.49526 -0.315495 -0.531543 0.520881 -0.525458 0.90496 -0.902896 0.482995 -0.533299 0.265553 0.031406 0.985727 -0.961954 0.539515 -0.699109 0.418361 -0.0687729 -0.0115627 0.748516 0.191045 0.926493 0.555524 0.0840688 -0.108325 0.231457 0.954398 -0.94109 -0.288241 -0.301047 -0.42222 0.203852 0.218098 0.0506534 -0.980682 -0.175827 -0.995716 -0.189075 -0.0725393 -0.770849 -0.930554 0.89428 0.412971 -0.675121 0.929286 0.902034 -0.353808 -0.431961 -0.2708 -0.757255 -0.923776 -0.0818243 0.186002 0.456058 0.0238898 0.105797 0.140702 0.462465 -0.617035 -0.101291 -0.596505 0.154256 -0.727312 -0.860829 0.754631 -0.680881 -0.640882 -0.933591 -0.0348301 -0.760013 -0.79128 0.602196 -0.460071 0.591147 0.160915 0.0728858 -0.11074 -0.854894 0.123974 0.164598 0.982043 0.262074 0.688218 0.685702 0.0479963 -0.86528 0.545087 0.441024 0.00859613 -0.0672274 -0.371925 -0.331734 0.107594 0.288412 0.419386 -0.785505 0.235489 -0.937917 -0.893406 0.106988 0.384405 -0.30389 0.998299 0.7039 -0.145169 -0.445776 0.409036 0.177277 0.195852 0.798914 -0.173913 -0.152447 0.445063 0.994163 -0.370805 0.872634 -0.629482 0.167947 -0.178949 0.31073 0.491945 0.706599 0.641778 0.331605 0.604911 0.411992 -0.0592757 -0.119852 0.820948 0.98468 -0.544561 0.0388186 -0.710692 0.140691 0.800249 0.537938 -0.0733589 0.167942 -0.792045 0.235775 0.217157 -0.178263 0.833527 -0.151007 -0.704996 -0.853569 -0.913857 0.930436 -0.491957 0.131842 0.822148 0.131634 -0.594835 -0.555903 0.998839 -0.277459 0.417106 -0.677388 0.944791 0.181567 -0.99223 -0.543219 -0.864177 0.656171 -0.204084 -0.61457 0.91803 -0.26487 -0.416255 -0.383849 0.748329 -0.0832805 -0.885217 0.30537 0.901627 0.692248 0.938861 0.617537 0.4065 -0.720296 -0.51935 -0.558935 0.395296 -0.994431 -0.124438 0.708502 0.928942 -0.298946 0.908046 0.546287 0.440259 0.134421 0.85578 -0.366656 -0.783 0.575811 -0.667533 -0.252793 0.523691 0.841137 -0.908437 -0.021904 -0.147131 -0.386373 -0.392042 0.972734 0.59469 -0.695908 -0.972266 0.173275 0.954668 0.905822 -0.315988 0.271676 -0.281665 -0.0750647 0.276523 0.47736 -0.764296 -0.949073 0.650135 -0.225792 -0.931484 -0.358565 -0.310407 0.853004 0.889216 0.73631 -0.603952 0.174568 -0.099221 0.686735 0.610076 -0.424383 0.303407 0.964569 -0.611701 -0.278546 0.440814 -0.218211 0.775329 -0.466106 0.567433 0.0405016 -0.972806 -0.406047 0.636591 -0.0314851 0.488153 0.223483 -0.403127 0.555596 0.252421 -0.535597 -0.687467 0.961224 0.972662 -0.0837603 -0.0244835 -0.0880923 0.677184 0.289708 0.299203 0.517716 -0.805742 0.595503 0.0433632 -0.156688 0.51119 -0.058329 0.231458 -0.129107 -0.0421611 0.623081 0.136263 0.410707 0.630714 0.499216 0.0843918 -0.281717 -0.336473 0.665009 -0.402547 0.26142 0.0762876 0.297364 -0.355812 0.656875 -0.723253 0.9072 0.765284 -0.57353 -0.266284 -0.7718 0.891268 0.85755 0.816376 0.997965 0.255661 0.540878 -0.822712 0.175403 -0.0434008 0.985322 0.359435 -0.525962 -0.395275 0.504642 -0.102684 0.193755 -0.354842 -0.92712 0.841599 0.560065 0.600057 0.0608827 0.645168 -0.0163638 -0.0245613 -0.513692 0.832235 -0.943222 0.759601 0.299658 -0.597228 0.763281 0.0495405 0.900378 -0.826609 0.135601 -0.649465 -0.408294 0.617242 -0.42579 0.667357 0.194708 0.968213 0.154631 0.758105 0.374546 -0.865331 0.386183 0.545907 -0.493253 0.362754 0.00827315 -0.0424916 -0.567315 -0.0236808 -0.640581 -0.072227 0.893136 0.714168 -0.530996 -0.716363 0.347194 -0.800048 0.624122 0.89959 0.491631 0.433701 -0.667042 -0.226759 0.538472 0.269493 -0.735219 -0.545915 -0.614195 -0.0644743 0.737495 0.571234 0.0965841 -0.452618 -0.113943 -0.408591 -0.582402 -0.985839 0.479037 -0.390388 -0.441513 0.533412 0.82446 -0.453565 0.755569 -0.187151 0.852475 0.459572 0.939731 -0.696871 -0.331444 -0.594841 0.144096 0.942421 0.206124 0.315593 -0.517093 -0.378109 -0.930011 0.231624 -0.570527 0.730401 0.639943 0.691891 0.26705 -0.852722 -0.976469 0.6283 -0.104313 -0.756726 -0.139964 0.422382 0.963749 -0.176784 -0.150514 0.504231 0.356817 -0.0281399 0.124658 0.975261 -0.182308 0.534249 -0.725711 -0.0948115 0.0267057 -0.479429 -0.412717 -0.926713 0.194798 -0.390803 0.178941 0.0151054 -0.420996 -0.422825 -0.454272 -0.414797 -0.120228 0.965421 -0.502451 0.214175 0.81026 -0.494383 0.86442 -0.961234 -0.454266 -0.668562 0.701628 0.51933 0.497071 0.181828 0.931073 -0.647643 -0.299994 0.272725 -0.368222 -0.84089 0.28548 -0.380412 0.59947 -0.564925 -0.556793 0.523339 -0.44937 -0.450372 -0.0124553 -0.601899 -0.693107 -0.308777 -0.846404 0.678495 0.319539 -0.643715 0.484792 -0.242478 0.338593 -0.897333 -0.0295597 0.720789 0.916411 -0.239899 0.132522 -0.041507 -0.680374 -0.967845 -0.473345 0.122886 0.150102 -0.839028 0.27881 -0.10651 -0.232194 0.321338 -0.239678 0.037729 0.914603 0.840406 0.886826 0.0284542 -0.658125 0.519533 0.212004 0.31171 -0.365307 0.496217 -0.603883 -0.370776 -0.925033 0.643364 0.850021 -0.394486 0.925412 0.96633 -0.675332 0.303974 -0.562531 -0.935677 0.772455 -0.454404 0.924125 0.15152 0.49678 -0.592755 0.439408 0.317534 0.437025 0.672119 -0.807123 -0.0344072 -0.0073041 -0.341304 -0.994209 -0.631807 0.197728 0.159713 0.00279579 -0.14138 -0.4732 0.276539 -0.824856 0.528462 0.982826 0.761972 -0.867334 0.493431 -0.381711 -0.673028 0.774436 -0.350339 0.524998 0.918184 -0.441744 0.740143 0.587952 -0.0830174 0.832175 0.140361 0.450026 0.837747 0.550847 0.545266 0.71832 -0.896988 -0.655281 -0.391126 0.637693 0.717372 0.00606794 0.285033 0.589716 -0.991789 0.323486 0.870988 0.00727845 0.163767 -0.881674 0.0444947 -0.931104 0.770612 -0.334753 -0.0571111 -0.80904 -0.138578 -0.333743 -0.0161181 -0.606587 -0.659207 -0.51253 -0.283929 0.864187 0.168043 -0.712218 0.714839 -0.776364 0.150646 0.437234 0.243054 -0.298002 0.487267 0.866602 -0.244022 -0.710296 -0.0929463 -0.174585 0.971305 -0.924435 -0.692841 -0.552535 0.313394 0.394642 -0.525968 0.925648 -0.636484 0.411491 -0.709743 -0.511938 -0.934519 0.373582 -0.888449 0.793183 0.782509 -0.805327 -0.474759 -0.644596 0.962233 0.0927254 -0.793739 -0.270286 -0.88511 -0.905726 0.180659 0.738213 0.721225 0.577878 0.0279197 -0.0793617 0.229459 -0.956768 0.504142 0.512601 -0.983433 -0.237334 -0.486634 0.522168 -0.16673 -0.616413 -0.854745 0.233249 0.665665 0.443462 -0.14506 -0.56616 0.626987 0.250336 -0.0162473 0.485379 0.953189 -0.631894 -0.5985 0.294186 -0.0900562 0.116225 0.874972 -0.809063 -0.977615 0.195229 -0.0747823 -0.876382 -0.667477 -0.539316 -0.373997 0.00970868 -0.319776 -0.962041 0.543761 0.919802 0.105995 0.713458 0.126723 -0.669346 -0.203083 -0.0285527 -0.450031 -0.439396 0.592055 0.1891 -0.557674 -0.582747 0.354247 -0.743023 0.149735 -0.20667 0.836119 -0.729088 -0.401507 0.836664 0.0617685 -0.734395 0.886429 -0.31301 -0.345914 -0.866038 -0.33573 -0.257381 -0.174153 -0.0216121 -0.330302 0.525408 -0.156826 -0.878524 0.562203 0.137238 0.481882 0.495667 -0.729486 -0.301636 
-0.641342 -0.54912 -0.938741 0.807129 0.419675 0.903664 0.304801 -0.0920252 -0.173568 0.208384 -0.860631 -0.613528 -0.429431 0.15739 -0.12756 -0.182897 0.193573 -0.256227 -0.198146 -0.339558 -0.216366 -0.0607601 -0.826913 0.38043 -0.215296 -0.360604 -0.524692 -0.654401 -0.548267 0.671295 0.731895 0.904466 0.356914 -0.783396 -0.874629 0.621213 0.732826 -0.974756 -0.877031 0.0342596 0.39346 -0.987171 0.869206 0.382849 -0.0437175 -0.787778 -0.688397 0.595604 0.412864 0.630472 -0.182022 0.3596 0.771144 0.533925 0.392717 0.845311 0.781263 -0.23548 0.244544 -0.701519 0.623589 0.00932118 0.111511 -0.317213 0.513755 0.491195 0.553963 -0.328834 0.626696 -0.36006 -0.733121 0.676243 -0.852673 0.351516 0.0477985 -0.270777 -0.743142 -0.993291 -0.737772 0.118163 0.152394 -0.929495 0.397595 -0.64598 0.969937 -0.500382 -0.180661 -0.410714 -0.589306 0.982474 -0.50792 -0.236853 -0.484872 0.30495 0.34584 -0.616692 -0.417958 0.54718 -0.377382 0.365277 -0.780806 0.040128 -0.363668 0.964886 -0.324486 0.422881 -0.63764 -0.240985 0.726303 -0.848691 0.87551 0.597046 -0.188024 0.446869 -0.0424556 -0.540648 -0.341128 0.589338 0.123202 0.702312 -0.139129 0.753848 0.259519 -0.639176 0.00150792 0.358596 -0.703855 0.714021 -0.867564 0.367687 0.470782 0.216296 -0.433431 0.67332 0.639797 -0.47156 0.879431 0.69828 -0.0671139 -0.859479 0.990186 -0.903263 0.213011 -0.411253 -0.8206 0.313624 -0.201632 0.718166 -0.165789 -0.708247 0.867377 -0.00667612 0.389597 -0.401086 -0.748629 -0.572135 0.819864 -0.302255 -0.852644 0.580758 0.792627 0.815758 0.192759 0.399756 -0.95683 -0.376134 -0.617232 -0.561763 -0.0850975 -0.703976 0.62672 -0.178768 0.477051 0.0622354 0.435537 -0.737292 -0.0232736 0.732352 -0.450342 0.00656668 0.44344 -0.275131 0.752202 -0.255576 -0.303149 -0.444059 -0.661283 0.0542717 -0.289162 -0.0295799 -0.309442 0.0393084 0.00946804 0.454416 -0.856183 0.0747005 -0.904196 0.196351 -0.853715 -0.0710619 0.966357 -0.367109 0.78861 -0.00468751 0.531177 0.446643 0.511511 0.917672 0.874811 0.240931 0.980851 -0.314823 0.372768 -0.620866 -0.642608 -0.0395076 0.553137 -0.897014 -0.756827 -0.495888 -0.115709 -0.801421 0.628205 -0.652511 -0.648914 -0.989783 0.694278 -0.318866 -0.536267 -0.224421 -0.387886 -0.0760723 -0.642289 -0.742016 -0.842296 -0.623117 -0.458431 -0.193206 -0.998239 -0.296849 0.810936 -0.319465 0.451115 0.37729 -0.546193 0.886563 -0.469769 -0.818876 0.331145 0.318972 0.00871072 0.324057 0.838099 -0.468947 -0.62573 -0.537653 0.392407 0.470267 0.142502 0.424446 0.679286 -0.901117 -0.226206 -0.212386 0.875666 0.471007 -0.807348 0.589602 0.0795258 -0.203854 -0.699944 0.642699 -0.573834 -0.318715 -0.293695 0.640042 -0.820537 0.189133 0.266145 -0.228566 -0.654762 0.781505 0.432259 -0.978117 0.00714685 -0.342845 0.167753 0.826919 0.550211 -0.013578 -0.939831 0.938619 0.662789 -0.919703 0.462941 -0.666371 -0.193136 0.216102 0.364856 -0.262108 -0.286312 -0.572197 -0.434407 -0.362863 0.842963 0.0600661 -0.203569 -0.76761 -0.821727 -0.995791 0.57238 -0.164752 -0.170008 0.978772 -0.551175 -0.188796 -0.624925 0.773304 0.450568 0.523425 -0.896313 0.424768 -0.380181 0.928071 0.77262 -0.649082 0.801857 0.137258 -0.761369 0.983075 0.222722 -0.735361 -0.213585 0.129689 -0.300959 0.146502 0.840904 -0.824388 -0.731633 -0.183642 0.0488292 -0.16505 0.557118 -0.466339 -0.906335 0.0409018 0.606193 -0.928982 -0.732166 0.170799 0.400274 -0.962459 0.655937 -0.0894052 -0.815125 0.715005 -0.568728 0.00324584 -0.39729 0.788104 0.272591 0.718462 0.229759 -0.963098 -0.470108 -0.50371 -0.276763 -0.654435 0.618624 -0.345112 0.0327322 0.472652 -0.668139 -0.563709 0.29281 0.314824 0.341794 -0.820878 -0.307119 -0.1992 0.159333 -0.0779355 0.312332 -0.114975 -0.936927 0.927001 -0.234116 -0.606392 -0.107368 -0.0166006 0.158507 0.19693 -0.67878 0.52927 0.332477 -0.864086 0.8615 0.0188132 -0.864479 -0.268007 -0.91993 -0.556806 0.913855 -0.940795 0.34478 -0.216815 -0.580478 -0.651471 -0.0665463 0.127637 0.991047 0.887879 0.426112 0.0022006 -0.542448 0.21167 -0.0376407 0.36299 0.67842 -0.549036 0.520003 0.270752 -0.307821 0.912918 0.873785 0.888651 0.444682 -0.903175 0.3351 -0.112024 0.942361 -0.634554 -0.0594745 -0.962471 -0.898848 0.198845 -0.908209 -0.393964 -0.404994 -0.744753 -0.43846 -0.921607 -0.0180067 0.420665 -0.877548 0.0171454 -0.53587 0.854075 0.456282 0.230618 -0.358923 0.244271 0.835343 0.747821 0.917184 -0.729689 -0.0392651 0.923943 0.210914 -0.417348 0.196537 -0.489215 -0.285386 0.227274 -0.743017 -0.625788 -0.145441 0.608343 0.0659965 0.679177 -0.621786 -0.752054 -0.207161 0.525788 0.965502 0.221762 0.232886 -0.688019 -0.999597 0.88164 -0.714004 0.544751 0.299398 -0.367729 0.00231332 -0.149427 0.934378 0.0943393 0.506481 0.273076 0.265822 0.771862 0.657714 0.419491 -0.00760645 0.119588 -0.350068 -0.900578 -0.569317 -0.336632 0.961797 -0.344188 0.759985 -0.396766 0.315762 0.49384 0.346348 -0.464355 -0.58735 0.704704 0.940031 0.880855 0.078987 0.567212 -0.65201 -0.462931 0.614078 -0.203079 0.530627 -0.0757005 0.955662 -0.817836 0.248272 0.653366 0.806082 0.59205 -0.927961 0.343603 0.862579 0.618147 0.101214 0.611374 -0.64832 -0.474103 -0.908654 -0.446415 -0.265005 -0.0775848 -0.851843 -0.480154 -0.0766906 0.357094 0.22197 0.0669015 -0.471086 0.644425 0.587467 0.292931 -0.114663 0.696372 0.628474 0.918445 -0.236758 0.556879 0.88916 0.758025 0.197296 0.435538 -0.807116 -0.246194 0.600488 -0.835948 -0.908998 -0.240937 0.179695 -0.190956 -0.63299 -0.036693 -0.913382 -0.764099 0.644629 -0.289695 0.875906 -0.748051 0.731514 -0.840345 -0.848683 0.78215 0.321273 -0.523024 -0.458135 0.273469 -0.920751 0.503757 0.449271 0.60047 -0.24126 -0.453739 0.53713 0.579162 -0.687801 0.125386 0.223424 0.275928 0.979635 0.131461 -0.731334 -0.523491 -0.524294 -0.304848 -0.173119 -0.97076 -0.13989 -0.070575 -0.335727 0.909331 0.722211 -0.670058 0.302158 -0.255354 0.0376602 0.304787 -0.733232 0.153239 0.254055 -0.348332 0.605743 0.921811 0.489503 0.587016 0.745539 -0.395969 -0.396353 -0.0845723 -0.88343 -0.0563997 -0.558229 -0.679348 -0.572548 -0.473163 0.479022 0.657552 -0.607446 -0.621277 0.0122233 0.318629 -0.684265 -0.518192 -0.00180053 0.571803 -0.184025 -0.51537 0.850169 0.457761 0.277136 -0.969172 0.999258 -0.953412 -0.402732 0.481661 0.401482 -0.873153 0.920455 0.866271 0.666023 -0.526552 -0.088597 -0.490748 -0.413869 0.0350657 0.827083 0.927075 0.584753 0.434151 0.470556 -0.0383922 0.782204 0.562566 0.266316 -0.818615 0.542854 0.797292 0.685404 -0.177059 0.74817 0.370723 -0.785663 -0.232576 -0.0355476 0.988771 0.28999 0.850254 -0.734912 -0.542291 0.145974 0.642905 -0.182796 -0.727978 0.516338 -0.731035 0.389044 0.564112 -0.423825 0.143998 0.892629 -0.45306 0.00643303 -0.516888 -0.253099 0.273916 0.804999 0.846729 -0.947351 0.507646 0.570978 -0.666003 0.505154 0.933894 0.630363 0.839674 -0.203087 0.961186 0.671655 -0.847212 -0.870437 -0.589884 -0.242097 0.159971 0.335147 0.526434 0.902212 0.613383 -0.876372 -0.0814858 -0.65369 0.0520617 -0.149984 -0.39182 -0.171317 -0.979617 0.547849 0.323481 0.488929 0.407907 -0.149984 0.689107 0.992195 0.652947 0.532296 -0.46962 0.0914832 -0.0347838 0.770455 -0.265581 -0.29191 -0.299725 0.0282703 -0.820869 0.976466 0.323212 -0.218518 0.0283522 -0.447893 -0.816727 0.650728 0.301358 0.718657 -0.949804 -0.354527 -0.837745 0.482803 0.889616 -0.203302 -0.747489 0.301587 0.150904 0.864891 -0.46152 0.204543 -0.926992 0.883852 0.526497 0.746807 0.479958 0.088817 0.0654227 0.834175 -0.55991 0.784891 0.0758903 0.695197 0.545078 0.29209 -0.374718 
-0.0267968 -0.147526 0.570553 0.0776494 -0.568407 0.71225 -0.907902 0.498955 0.153521 0.754835 -0.698823 -0.495585 0.96862 -0.178808 0.522074 -0.970132 -0.286392 -0.261215 -0.930465 -0.520338 -0.437942 0.868597 -0.0459395 -0.204917 0.0241324 -0.331333 0.0328542 0.247354 -0.977327 0.993042 0.0954268 -0.0162698 0.230164 -0.863981 0.877781 0.404935 -0.690041 -0.845808 -0.792306 0.793146 -0.651322 -0.50803 0.943082 0.858991 -0.644747 0.651005 -0.0453879 0.90523 -0.130244 -0.000570162 -0.68994 -0.785363 -0.366426 -0.744728 -0.256438 0.776605 -0.55006 0.859227 -0.714164 -0.881616 0.190047 0.835506 -0.260823 0.414696 0.286356 -0.456775 0.166994 -0.115697 0.0858241 -0.930915 0.788001 0.952658 -0.275896 -0.286745 -0.228413 0.52011 -0.85104 -0.886837 0.733772 0.534497 0.755417 -0.0175542 -0.522586 0.265996 -0.875127 0.817095 -0.290093 -0.113522 -0.502403 0.397203 -0.0103225 -0.00248719 -0.517829 -0.523634 0.0799343 -0.266982 -0.562366 0.0238528 0.603471 -0.901543 0.185926 0.702193 -0.718197 -0.970467 0.884401 0.121652 -0.479943 -0.424096 0.174782 -0.148621 0.381772 0.14433 0.65053 -0.603797 -0.508951 -0.040131 -0.173585 0.467392 0.158287 -0.187364 -0.297297 -0.943394 0.246633 -0.387953 0.983425 0.0768758 -0.00967184 0.798149 0.379886 0.398225 -0.239061 -0.279099 0.334154 -0.437011 0.445162 -0.163963 0.825705 -0.125519 0.0535711 -0.75793 -0.698998 0.903881 -0.430282 0.686602 0.106811 -0.720608 0.267354 0.658242 0.937699 -0.20533 0.98461 -0.235605 0.720084 -0.129203 -0.995581 0.768801 0.350724 -0.263994 0.990587 0.716846 -0.0299501 -0.558017 -0.73339 0.160961 0.967851 0.929819 -0.790603 0.23744 -0.768176 -0.25962 0.0853178 -0.665656 0.372122 -0.789796 0.634698 0.268777 -0.474151 0.314205 -0.251348 0.682613 -0.294292 -0.251295 0.968219 0.756599 -0.798359 0.568179 0.363867 0.307574 0.406957 0.966579 0.994196 -0.410414 0.0558196 0.435371 -0.960131 0.142958 -0.348343 -0.354696 -0.307117 -0.124254 0.352476 -0.370309 -0.0720426 -0.242018 -0.310034 -0.727539 0.986939 0.713703 0.461232 -0.863561 0.810246 0.829534 -0.31792 -0.788232 0.968684 -0.114666 -0.507489 0.709516 -0.735062 -0.0218914 -0.950368 0.661272 -0.758338 -0.952445 -0.294762 -0.943379 0.228518 -0.828123 0.557929 -0.781518 -0.618805 0.785311 0.694124 0.101716 0.907769 0.161696 -0.130907 -0.942602 1.02107 0.483756 0.41994 -0.816325 0.50316 0.562303 -0.118644 0.635886 -0.881492 -0.827052 0.677901 0.763219 -0.123006 0.693085 0.488758 -0.0864836 0.769837 0.967417 0.0143854 0.102103 -0.738281 -0.918041 0.957141 0.836574 -0.658668 0.632703 0.907287 0.47053 0.0585655 0.982997 -0.43624 -0.154366 0.868662 -0.847517 0.557152 0.59274 0.649314 0.956621 0.254222 0.664715 -0.0800373 0.13401 0.571467 0.777126 -0.306906 -0.615424 -0.798565 0.906522 -0.487683 0.0492206 -0.768776 -0.127622 0.35802 0.904221 0.395398 0.687055 0.385872 -0.921114 0.109922 0.416977 0.0868294 -0.369356 0.750559 -0.0555503 -0.802191 0.374754 -0.849557 -0.419627 0.5491 -0.485347 0.196468 0.883786 0.982162 -0.0824088 0.639974 -0.567287 0.241122 -0.90948 -0.71948 -0.386158 0.472858 -0.274751 0.776089 -0.869575 0.686742 0.412375 -0.808633 -0.708804 -0.221767 -0.750518 -0.011944 -0.937528 -0.651104 0.0297308 0.204605 0.29167 -0.753026 -0.21861 0.442964 0.497572 0.0243714 -0.868326 0.607881 0.199691 0.271478 0.250193 -0.32511 0.0704344 0.560179 -0.642051 -0.855921 0.791404 -0.850085 -0.0557163 -0.360905 -0.546759 -0.931593 -0.57961 -0.447199 0.942736 -0.770228 -0.297716 -0.0235188 -0.217923 0.194764 -0.783672 -0.808062 0.0540329 -0.0528983 -0.895529 0.245491 -0.865122 -0.829037 0.641479 -0.668133 0.500836 -0.506726 -0.724988 0.659626 -0.0938975 -0.0450796 -0.14922 -0.93742 0.0680106 0.28329 -0.196316 -0.155985 0.372169 0.527898 0.710192 -0.684083 0.853777 -0.289681 0.115828 0.0732936 -0.782939 0.963532 0.828148 0.794128 0.717037 -0.656975 0.516323 -0.970672 -0.392245 -0.286053 0.715683 0.776666 0.871746 -0.126448 0.820436 -0.256582 0.187909 0.507338 0.831523 0.700851 -0.237618 -0.948348 -0.762603 -0.892222 -0.353787 -0.622116 -0.0196588 -0.0299067 -0.140663 -0.60308 0.0999926 0.766502 0.625137 0.692809 0.666692 0.25057 -0.928799 0.421065 -0.542901 0.859523 -0.734152 -0.372793 -0.326877 -0.519396 0.73238 -0.60336 -0.21752 -0.112896 0.67967 -0.790547 -0.867497 -0.994686 0.919379 -0.198033 0.265394 0.299538 -0.148895 0.403913 0.814156 0.460145 0.941497 -0.123211 -0.288046 -0.144686 0.380244 -0.411349 -0.0871025 0.709401 -0.696227 0.563919 -0.500674 0.418364 -0.602946 0.201512 0.349322 0.764809 -0.578142 -0.829743 0.53316 0.456376 -0.461674 -0.485747 -0.424672 -0.446696 -0.766472 0.324242 -0.953804 0.826609 0.569467 -0.509141 0.33449 0.284396 0.453633 0.940554 -0.592288 -0.765684 -0.791927 -0.302753 0.888217 -0.391617 -0.713207 0.477732 0.128939 -0.561587 -0.729957 0.509686 0.616329 0.525067 -0.697204 0.682411 -0.952228 -0.620423 0.800515 -0.489788 -0.501863 0.329897 0.996632 0.596281 0.288077 -0.157886 -0.99549 0.0592625 -0.184237 0.770008 0.46354 -0.113681 -0.858867 -0.234395 -0.104046 0.845496 0.168828 -0.916816 -0.934056 -0.209816 -0.724375 0.941596 0.684994 -0.17299 0.251607 0.353921 -0.924 -0.682212 -0.651941 -0.0768449 0.686393 0.866149 -0.948179 0.634054 0.827733 0.239581 0.947236 -0.547044 0.297992 -0.322533 0.657033 0.300854 -0.462949 -0.767089 -0.940274 0.453198 -0.796911 -0.061289 0.802334 0.946499 -0.167262 0.108189 -0.576765 0.350291 -0.965973 0.0974506 0.340059 0.543428 -0.240086 0.304684 -0.636265 -0.463525 -0.948833 -0.00260745 0.429343 -0.293391 -0.833724 -0.859179 0.133256 0.156956 -0.623219 0.530022 -0.819487 -0.896023 -0.376894 -0.662553 0.865939 -0.331435 0.0334228 -0.183718 -0.175753 -0.642201 -0.38647 0.364243 0.560687 0.141386 0.508064 0.831682 0.971898 -0.794887 0.540106 -0.0751424 0.289141 0.651867 0.696098 -0.416377 0.896038 0.408319 -0.668998 -0.382818 -0.0513786 -0.260448 0.0361503 0.380346 -0.260355 -0.696381 -0.373982 -0.923148 -0.0313136 -0.568633 -0.956246 -0.813183 -0.473608 0.00754599 -0.40505 0.937727 0.18286 0.443779 -0.502799 0.294792 -0.43005 -0.130923 0.999382 -0.794212 0.145597 -0.519308 -0.0369105 0.490872 -0.855684 -0.898348 -0.471385 0.258519 0.750383 -0.790659 -0.731698 -0.227373 0.554214 0.99796 -0.933621 -0.19756 0.568589 -0.704753 0.0604359 0.391641 -0.14801 0.0369793 -0.702197 0.326389 -0.453999 -0.755935 0.0858512 -0.389707 -0.785599 -0.356059 -0.0773891 0.181362 -0.791537 0.595132 0.952722 0.0697284 0.0774766 -0.735357 0.356027 0.104182 -0.14316 -0.957373 0.326231 -0.0115813 0.264488 0.228802 0.362739 0.958609 -0.516417 0.760084 0.434648 -0.404208 -0.892321 0.796455 0.605013 0.363907 -0.98207 -0.965605 -0.11842 0.636309 -0.389601 -0.56455 -0.699041 -0.717381 0.984943 -0.44544 -0.386668 0.881741 -0.747369 0.871999 -0.477789 0.803532 0.483998 0.507276 0.662566 0.569505 -0.706115 0.0520163 -0.80398 -0.329211 -0.885631 -0.808421 -0.815953 0.764233 -0.404902 0.275446 0.598336 0.110792 -0.316577 0.510203 -0.466742 -0.905147 -0.0309646 0.746216 0.50621 -0.581543 0.0750944 -0.748732 0.466041 -0.271373 0.0337692 0.769017 -0.780127 0.704249 0.482314 -0.225025 0.508739 0.657473 -0.132186 -0.36888 0.505533 0.545085 -0.722459 -0.157492 0.289436 0.321261 -0.795835 -0.698162 -0.678349 0.94884 -0.280811 -0.254714 -0.363436 -0.918169 0.436672 -0.674918 0.677255 0.668365 -0.955891 0.0961894 -0.561444 -0.639376 0.957294 -0.986104 -0.896812 0.458696 0.510103 -0.392249 0.587629 0.427056 0.575067 0.971293 0.143135 -0.870846 0.839974 0.154371 -0.831839 0.422452 -0.997703 0.503313 -0.0480074 -0.000539776 -0.522655 
0.378294 0.269154 -0.387062 0.281593 -0.60647 -0.720354 -0.709509 -0.974918 0.6198 -0.0574251 0.43489 0.322271 -0.567991 0.256375 -0.26627 0.690514 0.447182 -0.734146 -0.964471 0.231238 0.44449 0.889518 -0.292882 -0.906976 0.944566 -0.834863 -0.443617 0.745464 -0.519183 -0.724713 -0.505343 0.541253 -0.191089 0.322706 0.251339 -0.414126 0.467595 0.152085 0.532175 0.254832 0.120562 -0.00396563 -0.720439 -0.966626 -0.447961 -0.179538 -0.922247 -0.826364 0.459593 -0.443802 -0.407433 0.637493 -0.515775 0.644559 0.913508 -0.150362 0.504864 -0.366451 0.0477066 -0.0245679 0.974431 -0.456132 0.624435 -0.182115 0.736546 0.551794 -0.560363 0.423288 0.0459201 0.762232 0.930456 0.409459 -0.987074 -0.663383 -0.161774 -0.857455 -0.91731 0.0808908 0.606356 -0.69465 0.195051 -0.682917 -0.124204 -0.775661 0.44754 0.293447 0.403822 -0.104268 0.320719 0.104863 0.216944 -0.983226 0.497603 0.350992 0.11527 0.365306 -0.917757 -0.893359 0.157354 0.433154 0.259847 0.183591 0.414067 -0.863437 0.966741 0.265541 -0.418885 0.0560406 0.00733904 -0.519466 0.57402 0.269713 0.657248 -0.511152 0.31385 -0.0937233 0.89121 -0.210006 -0.690204 -0.0603237 -0.829218 0.181987 0.907842 0.232484 0.0956564 -0.326211 -0.898385 -0.0506784 -0.934562 0.0697478 -0.0544691 0.807085 -0.719171 0.394196 0.363363 0.767987 0.941017 -0.652785 -0.452025 -0.201554 0.543136 -0.709819 -0.882455 -0.635415 -0.62513 0.821161 0.874217 -0.118029 0.438181 -0.668451 -0.442505 -0.149095 -0.634129 -0.740091 -0.011607 0.180439 0.0602383 -0.154363 0.263683 0.69161 -0.77824 0.569082 0.582472 -0.260068 0.495519 0.939057 0.217336 -0.735888 0.799145 -0.915443 0.757901 -0.408865 0.84535 -0.562195 0.571272 0.512585 0.739758 0.240791 0.190544 0.641351 -0.435387 0.522617 -0.758473 0.68486 0.261369 -0.902207 -0.639269 0.740414 0.140573 0.684625 -0.506872 0.35274 -0.712672 -0.102943 0.29219 0.0248657 -0.628191 0.268293 0.865191 0.340818 0.412545 -0.696654 -0.0455867 -0.962527 0.665577 0.0384439 0.375839 -0.476586 0.348694 -0.724723 0.463134 -0.045938 -0.923983 -0.957862 0.414228 -0.0944636 -0.379076 0.888146 -0.372286 -0.820947 0.74806 -0.3693 -0.490464 0.183204 -0.362171 -0.859177 -0.0399405 -0.0606159 -0.677296 0.248677 0.435946 -0.312945 -0.68659 -0.666203 -1.09838 0.775005 -0.0780975 -0.635034 -0.71955 -0.741572 0.344098 0.482964 0.046877 -0.732786 0.0600754 -0.658305 -0.404741 0.697511 0.744679 0.00376872 0.41548 0.14521 0.642846 0.150348 0.955521 -0.900735 0.5946 -0.13338 -0.189756 0.257486 -0.516686 -0.52268 -0.212661 -0.764761 -0.774741 -1.04867 -0.870133 0.808922 0.730099 0.0668029 -0.00260151 0.70295 0.864431 0.360592 -0.861629 0.160768 -0.286313 -0.846975 -0.873487 -0.530485 -0.623909 -0.0266073 -0.44208 -0.595291 -0.103477 -0.68276 0.913621 -0.302464 0.899675 -0.69207 -0.979465 0.591883 -0.0148604 -0.746289 0.239265 0.0868869 -0.392661 0.528001 -0.0593162 0.721368 -0.841263 -0.506052 0.843394 0.630175 -0.701617 0.379571 -0.410355 -0.202098 -0.613829 -0.684596 0.574867 0.648208 -0.943304 -0.120173 -0.198872 -0.280697 0.588234 -0.893869 0.854462 -0.731281 -0.0649778 -0.95403 -0.213626 -0.770832 0.348401 0.368146 -0.420716 0.435811 0.936981 -0.144774 -0.191746 -0.0533275 -0.680499 -0.6359 0.378438 -0.047821 -0.0517189 -0.52293 0.354642 -0.477423 -0.0314074 -0.23611 0.785062 0.0368989 0.561815 0.872134 -0.161461 0.555952 0.280517 -0.839237 0.899636 0.831637 -0.640134 0.350538 0.660483 0.127228 -0.10458 0.824585 -0.9779 0.578069 -0.57856 -0.817621 -0.404649 0.160059 -0.770166 -0.716826 0.31751 0.462172 0.832084 -0.0198701 -0.955485 -0.795813 0.864518 -0.606221 -0.327107 0.931363 -0.908698 -0.530571 -0.326297 -1.13111 0.572271 -0.0213684 -0.092018 0.210243 -0.416067 0.987028 0.445909 -0.135897 -0.792295 -0.239228 0.947202 -0.528743 0.122084 0.549335 0.785967 0.0196877 -0.691539 -0.62962 0.0283143 0.98007 -0.473601 -0.982067 -0.848209 0.562362 -0.944188 0.639684 -0.0739376 0.495208 -0.771765 0.0262549 0.380788 0.995237 0.708873 -0.50979 -0.188885 -0.418123 0.407468 -0.414173 -0.692942 0.798669 0.164398 -0.281535 -0.682978 0.996101 -0.250054 0.666765 0.275815 -0.631408 0.0466035 0.0163783 0.0147016 0.553916 0.439818 -0.604101 0.154838 0.472204 -0.650329 -0.431407 -0.792934 -0.451147 0.954369 0.769192 0.239957 -0.215715 -0.824566 -0.489079 0.418988 -0.293211 -0.968064 -0.990768 -0.848715 -0.629188 -0.271156 -0.227251 0.453039 0.0436119 -0.505863 0.430886 0.028589 0.674021 -0.763277 0.171073 -0.769602 0.289812 0.520529 0.177253 -0.104021 0.670839 0.412455 -0.495371 -0.636844 -0.334777 -0.368986 0.203816 -0.113356 -0.733762 -0.560825 -0.457971 -0.859996 -0.881708 0.783038 -0.942162 -0.780346 -0.562945 -0.0921092 -0.153611 -0.21235 0.952777 -0.951933 0.404237 0.0954243 0.48687 -0.720933 -0.0647007 -1.14836 0.783211 0.746849 -0.136569 -0.149295 -0.924519 -0.959147 -0.43854 0.84841 0.224353 0.610452 -0.835725 -0.739409 -0.938038 -0.750569 0.270697 -0.0447055 0.0407676 0.185174 0.295805 -0.914394 0.687259 -0.322436 0.171722 0.201707 -0.794584 -0.714505 -0.140617 -0.616179 0.496085 -0.160888 -0.650105 0.870293 0.596735 0.587623 -0.563812 -0.968205 -0.713629 0.860946 -0.92427 -0.375471 0.22951 0.237641 0.369288 -0.824344 -0.139286 0.634185 -0.30895 0.741924 -0.138319 0.206473 -0.366422 0.712423 0.102341 -0.869352 0.439052 0.493821 -0.763474 -0.908249 -0.350308 -0.739135 -0.152684 0.181692 -0.357856 -0.551356 0.731446 0.738599 -0.523187 0.527211 0.568883 -0.488777 -0.264071 -0.315815 0.319186 0.111014 0.572087 -0.000707726 0.626296 0.310439 -0.170048 0.156054 0.714944 0.159276 -1.16669 -0.884076 0.586669 0.613553 0.579587 -0.81115 0.29399 0.369288 0.0643672 -0.723033 -0.703025 -0.849816 -0.128362 -0.859722 0.0271152 -0.887757 0.942129 0.396422 -0.730509 0.404866 0.160818 0.352636 0.338126 -0.470253 0.742263 -0.542177 -0.774694 0.373177 -0.0777543 -0.700657 0.911193 -0.275 0.804785 -0.344913 -0.872952 -0.697592 -0.608164 0.780571 -0.544877 -0.799219 0.230045 0.754714 0.406279 0.622579 0.576239 0.0933238 -1.05978 0.796214 -0.339137 -0.745721 -0.299603 0.145042 0.473968 0.913361 -0.864141 0.895792 -0.257211 0.945564 0.983368 -0.29336 -0.156434 -0.357614 -0.348965 0.00665864 -0.949323 0.558863 0.520139 -0.861745 0.583617 0.472093 -0.236718 -0.0480128 -0.692349 -1.02266 -0.389188 -0.923147 -0.380281 -0.684432 -0.194663 0.374805 0.613938 0.336886 -0.145588 -0.844353 -0.0741626 0.241051 -0.102087 0.385605 -0.35245 -0.22663 0.0961261 -0.00706583 0.706589 -0.732381 -0.237011 0.959608 -0.865163 -0.866027 -0.964817 0.106471 -0.792436 0.16976 -1.18367 -0.227112 -0.861104 0.249625 0.297591 -0.0578627 0.382073 -0.210071 -0.727869 -0.477253 0.979951 -0.671066 -0.0993106 0.592083 0.593494 0.993 -0.581907 0.129031 -0.803382 0.703035 -0.0293307 -0.987047 0.890232 -0.935619 0.60438 -0.414614 -0.821383 0.289666 0.22157 -0.764465 -0.956493 -0.933879 -0.0146676 0.651392 -0.272979 -0.273664 0.991215 0.206604 -0.514078 0.439533 -0.601775 0.419498 -0.706823 0.668382 0.348462 0.271019 -0.0285297 0.243591 0.60537 -0.0283741 0.4683 0.433955 -0.368416 -0.2026 0.658032 -0.508508 0.351635 -0.989587 -0.27977 -0.795002 0.808688 -0.566012 -0.160083 0.0371202 -0.959055 -0.240582 -0.768586 -0.0874639 -0.683868 -0.481159 -0.195105 -0.370714 -0.881589 -0.740593 -0.0984037 0.24382 -0.801655 0.764836 0.238978 -0.878471 -0.15979 0.258684 -0.522923 -0.820275 -0.175395 -0.862273 -0.578489 0.726482 -0.444736 0.900949 -0.790788 -0.714553 -0.971391 -0.571449 0.789987 -0.266461 -0.280002 -0.0713061 0.181806 -0.902204 0.546262 0.562439 0.261249 0.0365082 -0.725789 
-0.801246 -0.382225 0.784235 0.702533 0.487775 -0.110382 -0.139112 0.820963 0.677033 -0.802351 0.454266 -0.705352 -0.608952 0.807443 -0.245 0.422086 -0.849461 0.566548 0.43129 0.891462 0.904154 0.638935 -0.616747 0.557311 -0.704251 -0.524653 -0.648132 0.378889 -0.214123 0.936029 -0.499423 0.701908 -0.0454783 -0.368593 -0.494194 -0.421091 -0.0845001 -0.936441 -0.245763 0.70357 -0.423993 -0.0528905 -0.740663 -0.792833 -0.485404 -0.989378 -0.783904 0.839179 0.0896076 -0.0393267 -0.0289652 -0.685035 -0.506613 0.639529 0.841825 -0.846646 -0.967882 0.922929 0.0138824 -0.196622 -0.0207495 0.00902542 0.34111 0.547708 0.356766 -0.963922 0.217853 -0.21088 -0.584341 -0.672576 0.568436 -0.455557 -0.0487641 0.0769196 0.647774 -0.0728808 0.926482 0.984091 0.66436 -0.770297 -0.990915 0.87652 0.544109 -0.125046 -0.64903 -0.25261 0.459493 0.499651 0.0637142 0.523831 -0.107044 0.106117 0.525352 0.191218 0.345239 0.408496 -0.450296 0.845604 -0.649951 0.506751 0.377852 -0.951493 -0.800942 0.954053 0.881616 0.712454 0.222545 0.174089 -0.639369 -0.803305 -0.612455 -0.686581 0.878945 0.212745 0.597548 0.586437 -0.35257 -0.806363 -0.818398 -0.689787 -0.315953 0.448657 -0.255635 -0.474939 0.5977 0.915601 -0.25155 0.288857 -0.564637 -0.559858 0.4163 0.546116 0.0760325 -0.428406 0.0157907 0.56662 -0.970667 -0.462644 -0.914118 -0.529177 0.46253 -0.149918 -0.560756 -0.286525 0.115295 0.205074 -0.390804 -0.586345 -0.38284 0.618305 0.474376 -0.972741 0.275846 -0.154542 -0.01027 0.293668 -0.325064 0.583869 -0.3976 0.633218 -0.16557 0.929056 0.112645 -0.466748 -0.195527 0.798198 -0.50853 0.0207097 -0.410038 0.531869 0.674627 -0.865521 0.844277 -0.866733 -0.686748 -0.793394 0.81742 0.464696 -0.427596 -0.128724 -0.350406 0.666998 0.552843 0.248169 0.289804 -0.454789 -0.740603 0.898035 -0.226659 0.664926 0.886282 -0.260045 0.355582 0.762939 0.819776 0.00794806 0.547729 -0.722786 0.398677 -0.165905 0.114404 -0.614488 0.230481 -0.598748 0.659647 -0.563486 0.874582 -0.984892 0.579208 0.032676 0.789165 -0.999975 -0.778164 0.673484 0.423564 0.538181 -0.385595 -0.289846 -0.742467 -0.800126 0.463736 -0.0466041 -0.927879 -0.96099 -0.254068 0.467402 0.477889 0.596163 -0.516262 -0.047853 0.0737058 0.40532 0.00089269 -0.398433 -0.176556 0.576972 -0.403704 0.751507 -0.329537 -0.333818 -0.355766 0.108119 -0.51403 -0.908647 -0.632673 0.665112 -0.339008 -0.621583 0.0379621 0.768838 -0.679901 -0.313213 0.00601661 0.18168 -0.920675 0.266008 0.125646 0.816837 -0.0532076 -0.583899 0.631066 0.789814 0.492041 -0.985826 0.500239 0.691924 -0.119328 -0.733012 -0.804951 0.507826 0.183876 0.19843 0.692807 -0.697293 -0.846599 -0.71202 0.308059 -0.262186 -0.395226 -0.3778 -0.159631 -0.539691 -0.492 -0.642802 0.571907 0.87718 -0.562144 0.538497 -0.963212 0.548527 -0.321872 -0.845299 -0.665606 0.10919 0.562107 0.946671 -0.27832 -0.294826 -0.128656 -0.581378 0.157223 -0.0500789 0.28287 -0.591868 0.692796 0.279088 0.202492 0.875845 -0.618419 0.995705 -0.920048 0.251228 -0.870105 -0.581157 -0.745897 0.189908 -0.449734 -0.429325 -0.651833 0.363299 -0.850007 -0.908766 0.792627 0.274534 -0.684186 0.673586 0.140027 -0.52434 0.718315 -0.0667275 0.530331 -0.720108 0.763278 0.971764 -0.324453 0.00105027 -0.140386 -0.218927 0.428162 0.741402 0.166201 -0.924833 0.628287 0.473285 0.51418 -0.432541 -0.782574 -0.266501 -0.374359 0.124119 -0.791135 0.686323 0.729582 -0.890245 -0.331334 0.788585 -0.590855 0.363534 0.894567 -0.218609 0.608478 -0.203575 -0.955922 0.0968834 -0.619808 -0.49676 -0.434785 0.505913 -0.839705 -0.970774 -0.511158 -0.907039 0.570808 0.583918 -0.624684 0.534303 -0.406353 -0.888996 -0.0436871 -0.551788 -0.314801 0.362378 0.612803 0.358649 -0.946314 0.0810962 0.515863 -0.96391 0.49911 -0.602579 0.14002 -0.194131 -0.737654 0.495262 0.179908 0.134078 -0.859561 0.960014 -0.0208322 -0.329993 0.986084 0.656378 0.0364718 -0.706267 -0.2871 -0.929306 -0.768434 -0.65043 0.808725 0.573227 0.699395 -0.99494 -0.229669 0.884943 -0.651053 0.128592 -0.35855 -0.962297 0.989962 -0.835258 -0.582279 -0.305804 -0.426002 -0.390084 -0.163162 0.0150989 0.943249 -0.882331 -0.38371 0.510363 0.565244 -0.205502 -0.451039 0.505627 -0.573018 0.747175 -0.050967 0.77837 0.0614933 -0.436367 -0.588483 0.842654 0.981829 0.838464 -0.336732 -0.213901 -0.544656 -0.11105 0.149959 0.150069 -0.726396 -0.446378 -0.851611 -0.986493 0.694751 0.0371313 -0.882703 -0.966013 -0.324143 -0.106916 -0.347158 0.956667 -0.0170964 -0.715006 0.847306 0.0856551 0.31199 0.516079 -0.0662348 0.50469 0.965362 0.866736 0.589879 0.760577 -0.831496 -0.637514 0.360222 -0.453802 0.943122 -0.84472 -0.260769 0.742233 0.757161 -0.0983083 0.0809766 -0.591088 0.788817 -0.5479 -0.373861 0.663918 0.554132 -0.833778 0.495842 -0.619823 -0.638086 0.273024 0.47984 0.262884 0.905452 0.358806 -0.293437 0.893281 0.199655 0.769128 -0.156453 -0.367954 0.622472 0.0230591 0.28072 -0.638237 -0.101543 -0.0642813 0.879175 -0.177725 -0.681353 0.598425 0.441717 -0.186312 -0.628829 0.637921 -0.234807 -0.998019 -0.518591 -0.29617 0.7621 -0.898982 -0.275783 0.986937 -0.842104 0.185381 0.318411 0.972554 -0.385878 -0.877556 0.883502 0.503787 -0.939671 0.234198 -0.937914 0.00979377 -0.65606 0.38892 -0.158921 -0.735355 -0.00674281 0.776705 -0.12042 -0.304344 0.464361 0.295669 -0.738035 0.199687 0.725511 0.00214873 0.314015 0.077409 0.996867 0.957075 -0.161553 0.170699 0.890801 -0.287502 -0.231474 0.702562 0.24526 -0.999193 0.0119825 0.741553 -0.290041 -0.822478 0.554865 -0.150458 -0.798257 0.267791 -0.0656291 0.483885 -0.829918 -0.963915 0.0471485 -0.546585 -0.130781 0.142656 0.170552 0.921929 -0.70193 -0.206893 -0.694436 -0.00539458 0.709216 -0.686241 -0.796166 0.860232 0.739933 -0.299694 -0.217405 -0.143781 -0.797098 -0.926593 -0.643774 -0.858145 0.444572 -0.57579 -0.769074 0.39067 -0.9861 -0.0578561 -0.277381 0.771861 -0.936354 0.431494 -0.19039 0.915968 -0.266539 0.3983 -0.366269 0.380841 0.158714 0.456961 -0.895307 -0.652082 0.509238 0.724245 -0.454997 -0.503475 -0.320557 -0.389367 0.388069 -0.33323 -0.225594 0.732657 0.913182 -0.176586 0.0967321 -0.0854663 0.593036 0.0949612 -0.230933 0.167991 -0.366281 0.692725 -0.280745 -0.389993 -0.913269 -0.866959 -0.867352 0.966302 0.324229 -0.435943 0.125819 -0.0163314 0.342884 0.273167 -0.093083 -0.600362 -0.324652 -0.464739 -0.638319 0.0570359 -0.580188 0.264348 -0.504762 0.306308 0.532909 0.309636 -0.22284 -0.917219 -0.502563 0.753333 0.879282 0.24853 0.426609 -0.225427 -0.927019 -0.48917 0.856527 -0.965433 0.143523 -0.0820823 0.348714 0.120255 -0.947245 -0.588233 0.568456 -0.0790065 -0.229786 0.314463 -0.652191 -0.756221 0.253275 0.519358 0.505127 0.862375 -0.472936 0.443019 -0.988156 0.753628 -0.0706412 0.824742 -0.67464 -0.0777304 -0.155705 0.740419 0.418753 -0.241766 -0.897166 0.356109 0.165637 0.877702 -0.827515 -0.369402 0.261718 -0.644791 -0.912015 -0.277595 -0.351173 -0.448983 -0.507497 0.149914 -0.642526 0.761734 0.954235 0.587372 0.451277 0.96185 -0.732245 0.0661592 0.155481 -0.69186 0.10353 0.433115 0.822645 -0.099912 0.842286 0.536223 -0.350359 -0.0347582 0.882633 0.377977 0.924072 -0.922253 0.246237 -0.829581 0.246185 -0.970932 -0.0521214 -0.94862 -0.717589 -0.301504 0.90304 0.313474 -0.57556 -0.787864 0.0322555 -0.388194 -0.0190016 -0.865649 0.405073 -0.204322 0.783207 -0.534322 0.218924 0.577189 -0.135078 0.846229 0.534018 0.594425 -0.722282 -0.152884 -0.432079 0.623234 0.961646 0.375913 -0.305731 0.43389 0.978964 -0.152283 0.0108659 0.782766 -0.278427 0.805901 0.950034 -0.460896 0.518244 -0.575682 
-0.28663 0.215123 0.810465 -0.659209 -0.00933045 0.683376 0.371521 -0.295233 -0.224825 0.222857 0.267169 0.27201 -0.208639 0.261272 0.937941 0.525152 -0.942193 0.043431 -0.680467 0.780709 0.281958 -0.462551 0.210848 -0.267815 0.764226 0.426445 0.68811 0.830076 0.233571 -0.780403 0.42981 -0.294856 0.737162 -0.601514 0.365117 0.401323 -0.0931251 -0.294166 0.425074 0.678863 0.999326 0.401953 0.0184499 -0.461589 -0.535184 0.887737 -0.197257 -0.341247 0.236914 0.371488 -0.700671 0.00169209 -0.904805 0.740548 0.547809 -0.141932 -0.279135 -0.265072 0.516162 -0.780866 -0.511486 0.337876 -0.249035 0.812683 -0.991264 0.0227125 0.0215514 -0.646837 -0.917356 -0.509529 -0.313713 0.466013 0.405151 0.807141 0.366267 0.999503 0.10372 0.806517 -0.944284 0.399546 0.435315 -0.677605 -0.72613 0.551136 -0.716113 -0.996353 0.690058 -0.089679 -0.582813 -0.558208 0.605864 -0.585374 0.614984 0.0367489 0.0174551 0.882169 0.989476 0.643275 -0.0707738 0.981333 -0.453184 -0.432263 0.137631 -0.502401 0.568575 0.775309 0.372724 -0.730621 0.743658 -0.613232 -0.716652 0.499098 0.686048 -0.837321 -0.198893 0.0794142 -0.958926 0.880294 -0.0381535 -0.735785 0.129127 0.723611 0.955871 -0.693101 0.301985 -0.0890802 -0.707398 -0.400371 0.241892 0.421524 0.899061 -0.102209 0.693968 0.78887 -0.917305 0.842047 0.497008 -0.271299 0.31046 -0.314127 -0.318417 0.29204 -0.572223 0.836041 -0.86639 0.811958 -0.763569 0.770462 0.190233 -0.809256 -0.696003 -0.0549691 -0.346406 -0.0795707 0.133189 -0.68724 0.663771 0.580629 1.1336 0.303024 -0.00100699 0.555093 -0.484386 0.0967245 0.715095 0.0511053 0.400205 0.509788 -0.780596 -0.867163 -0.411201 -0.409834 -0.904913 0.324279 0.120292 -0.391383 -0.0138003 -0.217708 -0.595141 0.0223253 0.993861 0.664223 -0.233886 -0.389148 0.481133 -0.242096 -0.260835 0.0621977 -0.522834 0.430296 0.435169 -0.205927 -0.775573 0.685503 -0.111057 -0.644094 0.258886 0.0397672 -0.44586 -0.669932 0.697902 -0.391751 -0.20711 -0.755002 0.0645892 1.34389 1.0651 -0.0160362 0.197028 -0.490124 0.280623 0.763347 0.105064 0.243518 -0.304139 0.836088 0.823482 -0.853329 -0.454928 0.0966165 0.282999 -0.57192 0.582771 0.840248 -0.932313 -0.771167 -0.101644 -0.616596 -0.365143 0.0689763 0.789757 0.929204 0.726105 0.0642308 0.79283 0.570601 0.121788 0.880035 0.11931 -0.444098 1.12153 -0.412558 -0.09966 0.0470182 0.383393 0.818239 0.686546 0.111453 0.791085 -0.941805 -0.76464 0.144797 0.78096 0.940056 0.505875 0.892918 -0.446182 0.0879418 0.617547 0.684768 0.354481 0.14837 -0.25468 0.467169 0.164693 -0.507585 0.0701434 -0.826188 0.807435 0.25719 0.8378 -0.439924 0.415224 -0.264185 -0.151516 -0.0982345 0.455253 0.473432 -0.745619 -0.0691233 0.830054 0.735412 -0.928394 0.309594 -0.510714 -0.280113 0.941769 -0.752066 0.358042 0.196998 -0.317385 -0.503052 0.121304 0.170032 0.857139 -0.0179901 0.205878 0.422691 0.383021 0.058778 0.462595 0.75494 -0.412743 0.458662 -0.925402 -0.728008 0.530647 -0.72805 -0.250978 -0.747584 -0.264385 0.940901 0.739135 -0.425353 -0.193157 -0.498116 0.755405 -0.681234 0.305621 -0.186104 0.532028 -0.558604 -0.0620461 -0.777444 0.91704 -0.770137 0.350351 0.544856 -0.137658 0.467601 -0.902199 0.715487 -0.67325 -0.753661 -0.0189559 0.323571 -0.542836 -0.482169 0.594449 0.860656 -0.888966 0.545726 0.915704 0.276554 0.660447 -0.131455 -0.371877 0.948547 -0.530429 0.437569 0.834306 0.951347 -0.222807 0.899448 0.675785 0.979643 -0.0695666 0.408396 -0.897774 0.635509 -0.106833 0.0832878 0.933463 -0.643637 -0.810945 -0.134485 0.288251 0.592654 -0.702213 0.525764 0.786711 -0.480056 -0.836638 0.707361 0.67533 -0.225222 -0.190854 -0.0625387 0.711537 1.13454 -0.226875 -0.956876 -0.239987 -0.931965 0.705128 -0.603288 -0.843048 -0.584732 -0.671061 0.82041 -0.621406 0.604135 -0.607053 0.217679 0.36347 0.884354 -0.947087 -0.46387 -0.092201 0.874891 0.711191 -0.489307 -0.748126 0.118503 0.0753127 0.0609944 1.14553 0.970813 -0.468018 1.06312 0.599002 -0.598361 0.545588 -0.741368 -0.412536 0.47562 -0.876252 0.738338 0.417868 -0.543024 -0.470518 -0.75644 -0.0264061 0.12031 0.800866 0.737849 0.967151 -0.850291 -0.110525 0.86178 0.159361 0.49547 -0.120709 -0.856424 0.927629 0.0224738 -0.598829 0.0174686 0.365177 0.16393 -0.615265 0.098355 -0.897191 0.667328 -0.243614 -0.301866 0.387487 -0.275646 0.166831 0.18388 -0.436031 0.905999 0.884188 -0.470934 0.548841 -0.299314 -0.822275 -0.138457 -0.24427 -0.232535 -0.488882 0.407756 0.373598 -0.271191 -0.798173 0.172745 0.218175 -0.668529 -0.151638 0.758425 0.731749 -0.97892 0.629331 0.946419 -0.788055 -0.890805 -0.313653 -0.0813318 -0.0119485 -0.738434 -0.936555 -0.760744 0.857867 -0.547726 0.41985 -0.0735446 0.677559 -0.336379 -0.266813 0.215671 -0.275951 0.780684 0.590718 0.375604 0.00628432 1.31961 0.458584 0.662077 0.221281 0.77676 0.890949 0.656837 -0.751299 0.198926 0.239531 -0.986373 -0.565924 0.975708 -0.224347 0.519375 0.451039 -0.936797 -0.964351 0.943779 0.762359 -0.364303 -0.764621 -0.71728 0.939771 -0.705804 0.830659 -0.503219 -0.569392 0.617898 -0.136749 0.505457 0.99792 0.373775 -0.405273 -0.048667 -0.758759 -0.724009 0.850124 -0.0802451 -0.862675 -0.340936 -0.589331 0.673299 -0.10559 0.0544446 0.78518 0.716311 0.0568988 0.802397 -0.504935 1.03523 0.0399629 -0.31032 0.85249 1.28289 0.723197 0.969488 -0.738395 -0.497401 0.313891 0.202842 0.793718 0.351495 0.0479211 -0.98566 -0.254322 -0.654079 0.51325 -0.871433 0.0474746 -0.518681 -0.922926 -0.72592 -0.522929 0.631059 0.597389 0.734005 1.09228 -0.113549 -0.465729 1.08721 0.556436 0.646701 -0.160268 0.668832 0.902773 -0.53495 -0.391199 -0.319271 0.660638 -0.925764 0.789176 -0.759947 -0.766446 0.185188 0.133042 0.349717 0.251718 0.872322 -0.56468 0.417477 0.709406 0.850132 0.823504 -0.386143 0.541335 0.747452 -0.544446 1.02857 -0.798478 -0.286166 0.686264 0.626727 -0.39581 0.859315 -0.247186 -0.795193 -0.546812 -0.0349623 -0.100859 -0.137784 0.1138 0.0151096 -0.322855 -0.356976 0.438544 0.542039 -0.805774 -0.716079 0.847077 -0.131752 1.04395 1.00107 0.677952 0.86924 1.01285 -0.904977 0.425179 -0.619196 0.448873 -0.116461 0.42904 0.474729 0.705981 0.101793 0.517201 0.353874 -0.344661 0.75377 0.395279 0.167531 0.495105 -0.890478 0.816308 1.1765 -0.0365334 0.417646 1.11531 -0.242085 0.725699 0.998701 0.594706 -0.266626 -0.651443 0.230878 0.801953 -0.395006 -0.0207877 -0.466138 0.38154 0.91526 0.0369252 -0.197826 0.772344 0.50009 0.351323 -0.446393 -0.647109 -0.679768 -0.783608 0.614301 0.841057 -0.0728144 0.543214 1.30693 0.122985 -0.413397 -0.210007 0.77928 -0.636217 -0.610322 0.654769 -0.668034 -0.49849 0.93364 -0.824331 -0.904692 -0.172475 0.0538212 -0.223582 -0.114272 0.133059 -0.800875 0.907535 0.727351 -0.19031 0.474726 0.0918717 0.615939 -0.795283 -0.960056 0.590055 -0.657213 -0.908405 -0.175625 -0.690298 -0.469625 0.77949 0.289945 -0.21929 -0.0845981 0.522835 0.0419819 0.93854 -0.748214 0.625635 -0.688998 0.317158 -0.142076 -0.800737 0.241036 -0.811517 -0.194108 0.269948 -0.753503 0.61527 0.999418 -0.32304 0.747279 0.076835 -0.715565 0.313913 -0.886645 0.31075 -0.531933 0.961574 -0.431759 -0.0864966 0.134646 0.629854 -0.372223 -0.115562 -0.0509605 -0.447096 -0.798259 -0.85383 0.163672 -0.54501 -0.382424 0.990436 -0.446732 0.421314 -0.919843 0.413401 -0.0337137 0.968254 -0.50332 -0.505667 0.177471 0.727739 0.672872 0.260004 0.722572 0.349872 -0.793318 -0.451802 0.0947013 0.812724 -0.44525 0.266887 -0.434939 0.55209 0.916117 -0.131806 0.337677 0.359179 0.923022 -0.760347 -0.453986 
