-2.811984995787497610e-05
5.211799219250679016e-02
-1.168514341115951538e-01
-4.298816248774528503e-02
-4.826863855123519897e-02
-5.934371426701545715e-02
1.935898959636688232e-01
1.689893603324890137e-01
-4.306278005242347717e-02
1.386787742376327515e-01
-6.141300871968269348e-02
-3.085805289447307587e-02
-4.576727747917175293e-02
8.599470555782318115e-02
-3.526059165596961975e-02
7.630213629454374313e-03
-4.083589464426040649e-02
-3.479940816760063171e-02
-1.149695180356502533e-02
-4.238219931721687317e-02
1.541549712419509888e-01
2.398257851600646973e-01
-2.924031019210815430e-02
7.391748577356338501e-02
-2.009291201829910278e-01
4.040178377181291580e-03
-1.096178665757179260e-01
-7.007239758968353271e-02
-9.381602704524993896e-02
-7.636316865682601929e-02
-1.346598938107490540e-02
-2.952324412763118744e-02
6.148412451148033142e-02
4.609111696481704712e-02
9.518296271562576294e-02
7.165829092264175415e-02
1.880853995680809021e-02
8.549037575721740723e-02
1.600574143230915070e-02
-5.116263777017593384e-02
1.928738951683044434e-01
2.966592311859130859e-01
2.570637501776218414e-02
9.038515388965606689e-03
6.076253578066825867e-02
-7.651214301586151123e-02
1.356047838926315308e-01
2.378896437585353851e-02
8.368722349405288696e-02
8.053988963365554810e-02
6.177711114287376404e-02
8.409379981458187103e-03
4.817518964409828186e-02
1.655351370573043823e-02
5.659415200352668762e-02
2.526021562516689301e-02
6.535132974386215210e-02
7.300735265016555786e-02
5.986062437295913696e-02
-1.297459285706281662e-02
-3.838026151061058044e-02
1.648453250527381897e-02
5.260865390300750732e-02
1.086623407900333405e-02
1.649657189846038818e-01
2.027033269405364990e-02
1.012288033962249756e-01
3.974572196602821350e-02
1.428803056478500366e-02
5.733082070946693420e-02
1.509177386760711670e-01
4.667566716670989990e-02
2.226828783750534058e-01
7.922389544546604156e-03
9.950011968612670898e-02
1.552542299032211304e-01
-1.294090300798416138e-01
1.541740149259567261e-01
-5.821410566568374634e-02
-4.091086983680725098e-02
-1.076486520469188690e-02
1.316754966974258423e-01
4.361467435956001282e-03
5.266077071428298950e-02
2.592887543141841888e-02
-4.508338123559951782e-02
6.658358126878738403e-02
6.925214082002639771e-02
-2.596960030496120453e-02
8.203748613595962524e-02
-3.502844274044036865e-02
-6.467895954847335815e-02
6.922125816345214844e-02
1.894285716116428375e-02
1.000094637274742126e-01
-1.267942637205123901e-01
-8.336213976144790649e-02
5.861850827932357788e-02
-1.809437759220600128e-02
1.436435133218765259e-01
6.441952288150787354e-02
-7.310391962528228760e-02
-1.174215078353881836e-01
-2.092886529862880707e-02
8.264528214931488037e-02
1.251508742570877075e-01
-8.549454063177108765e-02
-1.652412116527557373e-02
4.942777380347251892e-02
1.822939366102218628e-01
1.216584071516990662e-01
7.370311021804809570e-02
6.162974983453750610e-02
-3.225224465131759644e-02
4.212244972586631775e-02
2.214150428771972656e-01
5.005899444222450256e-02
1.940595209598541260e-01
2.042429000139236450e-01
1.497281342744827271e-01
-1.683787815272808075e-02
1.242397129535675049e-01
9.514036774635314941e-02
4.401831701397895813e-02
6.904712319374084473e-02
2.053073979914188385e-02
2.031134366989135742e-01
-1.415200680494308472e-01
