8.248593658208847046e-03 2.640405856072902679e-02 -1.748597249388694763e-02 6.267083808779716492e-03 -3.267850354313850403e-02 2.201102487742900848e-02 -1.684954762458801270e-02 -1.610798947513103485e-02 -2.167207561433315277e-02 -6.392645183950662613e-03 -1.395951025187969208e-02 -2.222300879657268524e-02 7.339081261307001114e-03 5.943416431546211243e-02 1.059341356158256531e-01 3.851212933659553528e-02 -2.492938376963138580e-02 1.511103380471467972e-02 -2.684776438400149345e-03 -1.150223240256309509e-02 1.315188501030206680e-02 -4.499750677496194839e-03 3.102313727140426636e-02 -3.324577957391738892e-02 -2.248129807412624359e-02 2.021185867488384247e-02 -3.566935658454895020e-02 -7.772999233566224575e-04 1.776699535548686981e-02 -1.785526983439922333e-02 -2.057908289134502411e-02 2.132119052112102509e-02 4.855758324265480042e-02 5.990501865744590759e-02 8.382311463356018066e-02 1.167357861995697021e-01 5.888054147362709045e-02 8.781600743532180786e-02 8.921085298061370850e-02 5.059527233242988586e-02 1.273127198219299316e-01 5.620780959725379944e-02 -7.290149480104446411e-02 -7.874540239572525024e-02 1.219330579042434692e-01 1.506698429584503174e-01 4.402930662035942078e-02 3.180023655295372009e-02 6.858308613300323486e-02 6.357252597808837891e-02 7.367990911006927490e-02 8.612526953220367432e-02 1.054453011602163315e-02 2.902494743466377258e-02 2.776502072811126709e-02 5.961094982922077179e-03 -2.231085859239101410e-02 -1.140349730849266052e-02 5.801812559366226196e-02 1.618451438844203949e-02 8.421294391155242920e-02 1.313663572072982788e-01 1.609712839126586914e-01 1.780446022748947144e-01 2.774725854396820068e-01 3.987291455268859863e-01 4.296292662620544434e-01 4.331402182579040527e-01 1.906715631484985352e-01 5.265732482075691223e-02 1.655249148607254028e-01 1.783655732870101929e-01 2.273407578468322754e-01 1.227193176746368408e-01 4.805129766464233398e-02 -1.212344914674758911e-01 -2.825691364705562592e-02 7.612755149602890015e-02 4.870539903640747070e-02 6.594382226467132568e-02 1.116476655006408691e-01 5.365955457091331482e-02 1.280159223824739456e-02 -1.234587654471397400e-02 -5.113955121487379074e-03 1.605591736733913422e-02 -1.417506188154220581e-01 -3.294786810874938965e-02 8.902316540479660034e-02 1.195484399795532227e-01 2.310522794723510742e-01 2.215599268674850464e-01 2.464522272348403931e-01 7.780148088932037354e-02 5.066245794296264648e-02 1.803589463233947754e-01 1.393112093210220337e-01 1.513790786266326904e-01 8.796960115432739258e-02 -1.841518655419349670e-02 7.732914388179779053e-02 -5.731252580881118774e-02 -1.479174097767099738e-04 3.513995185494422913e-02 -1.289164740592241287e-02 5.415793135762214661e-02 -9.007214009761810303e-02 -6.369266659021377563e-02 1.459920704364776611e-01 6.849140673875808716e-02 1.034618616104125977e-01 2.795713371597230434e-04 -2.189412899315357208e-02 3.338463231921195984e-02 -1.275329142808914185e-01 7.666216790676116943e-02 4.010666161775588989e-02 1.269690692424774170e-01 1.060889288783073425e-01 -3.098069317638874054e-02 2.319728955626487732e-02 -4.866198822855949402e-02 -3.520513186231255531e-03 4.560783132910728455e-02 9.291300177574157715e-02 -4.303336888551712036e-02 -1.098490133881568909e-01 -1.985735595226287842e-01 -1.370199471712112427e-01 -1.062439680099487305e-01 -4.678208008408546448e-02 8.417873084545135498e-02 -3.831616137176752090e-03 -8.617270737886428833e-02 7.523375097662210464e-03 -3.152857348322868347e-02 4.647918418049812317e-02 1.074619218707084656e-01 9.925514459609985352e-02 1.345088630914688110e-01 -3.013963997364044189e-02 2.074544085189700127e-03 -2.942458726465702057e-02 7.165855914354324341e-02 1.381884068250656128e-01 3.186222864314913750e-03 2.533880760893225670e-03 -2.354919910430908203e-02 -1.441632658243179321e-01 -6.526442617177963257e-02 1.645533740520477295e-02 -1.092491671442985535e-02 -4.118752852082252502e-02 -9.083554893732070923e-02 -1.453197300434112549e-01 -8.677570521831512451e-02 -7.201965153217315674e-02 -1.040976196527481079e-01 -2.607846818864345551e-02 -3.586890175938606262e-03 8.869993686676025391e-02 2.641880698502063751e-02 9.361641854047775269e-02 7.374209910631179810e-02 1.674563437700271606e-02 1.074414178729057312e-01 1.469566076993942261e-01 1.659322232007980347e-01 -7.863057777285575867e-03 7.296784222126007080e-02 4.302743822336196899e-02 2.472538053989410400e-01 1.398493647575378418e-01 1.455577462911605835e-01 1.219460442662239075e-01 -2.781841158866882324e-02 -5.987805500626564026e-02 6.302952766418457031e-02 5.122225731611251831e-02 2.255377732217311859e-02 -7.113154232501983643e-02 -2.133298665285110474e-02 -8.104278892278671265e-02 -5.032917857170104980e-02 -1.524014398455619812e-02 -7.481757551431655884e-02 -8.459721505641937256e-02 -6.558629870414733887e-02 -1.263472437858581543e-01 -3.718668967485427856e-02 6.981481611728668213e-02 -2.932415157556533813e-02 3.051946498453617096e-02 1.115674227476119995e-01 4.889670386910438538e-02 9.144863486289978027e-02 -2.745422534644603729e-02 1.121238470077514648e-01 -5.124059040099382401e-03 2.585588395595550537e-01 2.540794909000396729e-01 2.602824866771697998e-01 1.326491087675094604e-01 7.778279483318328857e-02 6.366494297981262207e-02 2.057925984263420105e-02 9.485158324241638184e-02 5.431395769119262695e-02 -7.133041508495807648e-03 -2.487483434379100800e-03 -2.517982572317123413e-02 -5.975549295544624329e-02 -1.039143130183219910e-01 -7.426390051841735840e-02 -9.998593479394912720e-02 -5.090554058551788330e-02 -3.127841278910636902e-02 -7.482434809207916260e-02 -1.006844267249107361e-01 -2.102451473474502563e-01 1.568793691694736481e-02 8.791939914226531982e-02 3.461828827857971191e-02 7.897152751684188843e-02 -3.739947825670242310e-02 1.433167755603790283e-01 -3.628886491060256958e-02 1.880773305892944336e-01 2.511445283889770508e-01 8.354062587022781372e-02 3.151049837470054626e-02 5.779966711997985840e-02 -9.315474890172481537e-03 4.488057270646095276e-02 9.743134677410125732e-02 7.594259828329086304e-02 1.567791774868965149e-02 -1.722740568220615387e-02 -6.542826443910598755e-02 -4.858591035008430481e-02 -1.027273610234260559e-01 -6.413971632719039917e-02 7.487731985747814178e-03 8.491795510053634644e-03 5.292679741978645325e-02 -1.389864739030599594e-02 1.048087701201438904e-02 3.886274993419647217e-02 -2.577172219753265381e-01 -2.967411279678344727e-01 -5.340166017413139343e-02 1.987474411725997925e-02 -1.223642379045486450e-02 2.860709838569164276e-02 1.026604026556015015e-01 2.263613790273666382e-01 1.728806197643280029e-01 4.249191284179687500e-02 -4.666180536150932312e-02 9.594555012881755829e-03 -9.919566102325916290e-03 -5.201041698455810547e-02 5.777182057499885559e-03 3.979619964957237244e-02 4.297596961259841919e-02 -1.092319265007972717e-01 -9.845452755689620972e-02 -9.161788970232009888e-02 -4.247196391224861145e-02 -3.184982016682624817e-02 -7.004585117101669312e-03 -3.041451983153820038e-02 6.324731558561325073e-02 7.782970555126667023e-03 1.886795759201049805e-01 8.481344580650329590e-02 -2.515052855014801025e-01 -3.352855443954467773e-01 1.745338924229145050e-02 1.412430405616760254e-01 -4.661779850721359253e-02 2.294060587882995605e-02 2.070655487477779388e-02 1.860855519771575928e-01 -4.683402832597494125e-03 -9.491916745901107788e-03 -7.288326323032379150e-02 -9.490250609815120697e-03 -9.826042689383029938e-03 -9.000433981418609619e-02 -1.299304366111755371e-01 -1.631747484207153320e-01 -1.660958379507064819e-01 -1.974414885044097900e-01 -1.544560194015502930e-01 -1.734576076269149780e-01 -2.951928786933422089e-02 5.165446922183036804e-02 1.696200668811798096e-02 6.284430623054504395e-02 6.202921643853187561e-02 3.299797698855400085e-02 6.957440078258514404e-02 8.353179693222045898e-02 -7.469459623098373413e-02 -1.856154501438140869e-01 5.562387779355049133e-02 -1.479522511363029480e-02 -3.342101722955703735e-02 2.185844583436846733e-03 -1.319420486688613892e-01 5.488844588398933411e-02 -8.928052335977554321e-02 -1.822407692670822144e-01 -2.630078196525573730e-01 -1.622785329818725586e-01 -1.214463189244270325e-01 -2.068165689706802368e-01 -2.826582193374633789e-01 -2.978413105010986328e-01 -3.975329995155334473e-01 -2.362671047449111938e-01 -1.448448896408081055e-01 -8.430432528257369995e-02 -1.473055779933929443e-02 -1.292809844017028809e-02 9.601063095033168793e-03 7.915114611387252808e-02 1.317058205604553223e-01 8.459655940532684326e-02 8.319278061389923096e-02 7.654027547687292099e-03 -1.072487793862819672e-02 8.661317080259323120e-02 -2.066217660903930664e-01 3.430194035172462463e-02 -1.384254917502403259e-02 1.696856576018035412e-03 -9.728612005710601807e-02 -1.047522127628326416e-01 -2.753599882125854492e-01 -3.479725420475006104e-01 -3.486982285976409912e-01 -1.999971121549606323e-01 -2.299489676952362061e-01 -2.656216919422149658e-01 -3.116982877254486084e-01 -1.937741786241531372e-01 -1.501928418874740601e-01 4.535348154604434967e-03 5.662261322140693665e-02 -1.338519435375928879e-02 4.162841662764549255e-02 -3.956271335482597351e-02 -6.589852273464202881e-02 9.703281335532665253e-03 8.375275135040283203e-02 6.591837387531995773e-03 4.104316607117652893e-02 -9.782767295837402344e-02 9.474228322505950928e-02 2.581846415996551514e-01 3.367886692285537720e-02 1.817606836557388306e-01 -7.501255720853805542e-02 -1.232400164008140564e-02 1.134770642966032028e-02 -6.885119527578353882e-02 -3.318894803524017334e-01 -2.498930841684341431e-01 -2.001592665910720825e-01 -2.350836247205734253e-01 -1.417985707521438599e-01 -1.472817808389663696e-01 -1.324308365583419800e-01 2.609415911138057709e-02 1.476985067129135132e-01 2.137193828821182251e-01 7.644192874431610107e-02 -1.961467042565345764e-02 -1.063923072069883347e-02 -4.142709448933601379e-02 -9.316272288560867310e-02 8.369141258299350739e-03 -3.094129078090190887e-02 -6.297950446605682373e-02 -6.729429215192794800e-02 -1.473656855523586273e-02 2.893736064434051514e-01 3.054763078689575195e-01 2.155738323926925659e-01 9.896850585937500000e-02 -2.668193727731704712e-02 -1.587722077965736389e-02 -3.549786657094955444e-02 -5.000780522823333740e-02 -5.515693500638008118e-02 -5.844083428382873535e-02 -5.710703879594802856e-02 -1.044910624623298645e-01 -1.644391566514968872e-02 4.651634022593498230e-02 1.065858528017997742e-01 2.298344820737838745e-01 2.499113082885742188e-01 2.184569388628005981e-01 1.279734969139099121e-01 7.234614342451095581e-02 1.254068911075592041e-01 -4.814121872186660767e-03 -5.641347542405128479e-02 -8.274666965007781982e-03 -6.304564885795116425e-03 -7.226596027612686157e-02 -7.103424984961748123e-03 9.881410747766494751e-02 7.810998708009719849e-02 2.066148668527603149e-01 3.096449375152587891e-01 7.970916479825973511e-02 -2.696172334253787994e-02 5.172524228692054749e-02 -1.082027778029441833e-01 7.227068394422531128e-02 1.355288922786712646e-01 1.550726592540740967e-01 9.635890275239944458e-02 -3.334989026188850403e-02 4.896369948983192444e-02 5.286802351474761963e-02 1.522053778171539307e-01 2.355303317308425903e-01 2.717981338500976562e-01 2.333124577999114990e-01 1.510144472122192383e-01 1.315571814775466919e-01 1.172618661075830460e-02 -6.605841964483261108e-02 2.739170007407665253e-02 1.423549950122833252e-01 -2.857782645151019096e-03 2.340866811573505402e-02 -2.448784187436103821e-02 2.366671897470951080e-02 1.534338593482971191e-01 1.345898956060409546e-01 5.591230839490890503e-02 2.484763115644454956e-01 -2.435498312115669250e-02 1.062297224998474121e-01 4.015667364001274109e-02 8.336077630519866943e-02 1.905083358287811279e-01 1.803613454103469849e-01 2.263398319482803345e-01 1.438154131174087524e-01 1.314879208803176880e-01 1.785778105258941650e-01 2.179581969976425171e-01 2.156163901090621948e-01 1.691784262657165527e-01 6.457195430994033813e-02 1.343349814414978027e-01 5.813903361558914185e-02 -1.643121615052223206e-02 -1.566746272146701813e-02 8.117005974054336548e-02 1.356049627065658569e-01 1.359230745583772659e-02 4.171561449766159058e-02 3.842499479651451111e-02 1.024392768740653992e-01 2.134186774492263794e-01 2.073083817958831787e-01 2.227918654680252075e-01 2.683892250061035156e-01 2.891059592366218567e-02 4.280007630586624146e-02 4.766059294342994690e-02 1.810999810695648193e-01 1.270116567611694336e-01 1.844931244850158691e-01 1.555428802967071533e-01 3.325341641902923584e-02 5.790283158421516418e-02 -1.714004017412662506e-02 1.011509969830513000e-01 6.030235067009925842e-02 1.036304011940956116e-01 7.877244055271148682e-02 -2.333468198776245117e-02 -8.372238278388977051e-02 -4.601700603961944580e-02 -4.673481732606887817e-02 4.202301800251007080e-02 7.691519707441329956e-02 -5.040918663144111633e-02 -7.588512729853391647e-03 3.592146933078765869e-02 4.884286317974328995e-03 -3.392060846090316772e-02 2.134530991315841675e-01 3.155445680022239685e-02 1.873254030942916870e-01 -1.696405559778213501e-02 1.490336027927696705e-03 8.600986003875732422e-02 2.415091693401336670e-01 7.486959546804428101e-02 6.551212817430496216e-02 1.059956476092338562e-01 1.130693852901458740e-01 -6.919314712285995483e-02 -6.775023788213729858e-02 7.770759984850883484e-03 -2.167989499866962433e-02 9.247328341007232666e-02 7.731486111879348755e-02 -5.883906502276659012e-03 -5.760451033711433411e-02 8.471942692995071411e-02 6.290101259946823120e-02 8.032149821519851685e-02 7.090328633785247803e-02 -7.689957320690155029e-02 -6.708157807588577271e-02 -3.293513506650924683e-02 1.495571807026863098e-03 6.408961489796638489e-03 2.544649839401245117e-01 2.489547990262508392e-02 5.958155542612075806e-02 -4.407138004899024963e-02 -7.982741296291351318e-02 4.786615818738937378e-02 -6.543403491377830505e-03 1.017306596040725708e-01 7.583551108837127686e-02 7.957600802183151245e-02 1.270206123590469360e-01 -5.557669699192047119e-02 -1.070378348231315613e-01 -1.132707484066486359e-02 5.342631787061691284e-02 7.707568258047103882e-02 1.086405590176582336e-01 6.890652328729629517e-02 6.873010843992233276e-02 1.131648421287536621e-01 4.303871840238571167e-02 2.875086851418018341e-02 2.621649950742721558e-02 -1.142711043357849121e-01 2.762355469167232513e-02 3.864620625972747803e-02 3.873982280492782593e-02 -1.410293728113174438e-01 1.077184900641441345e-01 2.204329967498779297e-01 6.780746579170227051e-02 2.762146294116973877e-02 -1.417744159698486328e-01 1.202196031808853149e-01 9.352288395166397095e-02 6.426476687192916870e-02 6.570379436016082764e-02 4.011455923318862915e-02 1.265210360288619995e-01 -7.012993842363357544e-02 -4.469162598252296448e-02 -5.265194177627563477e-02 -8.311769366264343262e-02 -3.734768927097320557e-02 7.326558977365493774e-02 3.007193095982074738e-02 4.084135964512825012e-02 -5.412536673247814178e-03 -6.284927576780319214e-02 -9.850813075900077820e-03 -1.737069711089134216e-02 -4.787563905119895935e-02 7.672265172004699707e-02 -1.626043021678924561e-02 2.905856445431709290e-02 -2.991597726941108704e-02 7.468761503696441650e-02 8.219106495380401611e-02 -1.078801080584526062e-01 -5.560318473726511002e-03 1.214198842644691467e-01 2.356519252061843872e-01 2.786380425095558167e-02 -3.124912641942501068e-02 -9.581243991851806641e-02 4.767629317939281464e-03 1.051894575357437134e-01 4.283697903156280518e-02 2.227385062724351883e-03 -7.768819481134414673e-02 -8.305077254772186279e-02 -4.584740102291107178e-02 1.390409842133522034e-02 4.340656101703643799e-02 7.299692835658788681e-03 2.213924750685691833e-02 1.028184313327074051e-02 9.679824858903884888e-02 3.048989363014698029e-02 -2.990571781992912292e-02 2.065376564860343933e-02 -6.360787153244018555e-02 -4.300781525671482086e-03 -1.193577721714973450e-01 -9.574709460139274597e-03 6.776046752929687500e-02 1.894738525152206421e-02 -5.407750606536865234e-02 3.586369752883911133e-02 1.731355041265487671e-01 3.467614529654383659e-03 -8.694261312484741211e-02 -4.912499710917472839e-02 -1.412952393293380737e-01 -1.835861615836620331e-02 7.593344151973724365e-02 5.668804794549942017e-02 4.557735472917556763e-02 -2.141878753900527954e-02 -8.356595784425735474e-02 -8.695861324667930603e-03 -5.904761329293251038e-02 3.151403274387121201e-03 1.637999899685382843e-02 -6.829373072832822800e-03 -3.543954715132713318e-02 7.246227469295263290e-03 -1.353266686201095581e-01 -3.203641250729560852e-02 -7.420907169580459595e-02 -8.042716979980468750e-02 -1.577595323324203491e-01 -8.729912340641021729e-02 -9.940459579229354858e-02 -6.624217145144939423e-03 1.095372531563043594e-02 3.197581321001052856e-02 1.618986725807189941e-01 6.839257478713989258e-02 -4.745951294898986816e-02 -5.814912915229797363e-02 -3.491655364632606506e-02 -1.120662502944469452e-02 -6.600619852542877197e-02 -2.408841997385025024e-02 -3.597409650683403015e-02 2.234628889709711075e-03 -9.207979589700698853e-02 -7.070983946323394775e-02 -2.972461283206939697e-02 -7.297456264495849609e-02 -6.606665253639221191e-02 -5.839478597044944763e-02 -1.152697503566741943e-01 -1.473323106765747070e-01 -1.563959717750549316e-01 -2.225233428180217743e-02 6.627132184803485870e-03 -8.498825877904891968e-02 -1.653263568878173828e-01 -4.748075082898139954e-02 -2.648799307644367218e-02 3.071758709847927094e-02 -1.769500225782394409e-02 1.051776390522718430e-02 5.361966416239738464e-02 1.353181600570678711e-01 -2.350040711462497711e-02 -1.614373326301574707e-01 -1.077948436141014099e-01 -8.373469114303588867e-02 -4.312286153435707092e-02 -7.414702326059341431e-02 -5.238889902830123901e-02 -3.072383813560009003e-02 -9.633217751979827881e-02 -1.360130012035369873e-01 -8.961310237646102905e-02 -1.299427449703216553e-01 -3.487985953688621521e-02 7.110848277807235718e-02 -1.681376844644546509e-01 -2.552193701267242432e-01 -4.705945402383804321e-02 5.694452673196792603e-03 -1.861019432544708252e-02 -8.990623056888580322e-02 -3.018561191856861115e-02 7.534480094909667969e-02 7.388573884963989258e-02 2.706374228000640869e-02 3.184623271226882935e-02 3.318973630666732788e-02 3.058876842260360718e-02 -7.574617862701416016e-02 -7.533331960439682007e-02 -3.773088753223419189e-02 6.330871582031250000e-02 -8.078509010374546051e-03 5.142580717802047729e-02 5.137735605239868164e-02 2.106940597295761108e-01 1.100072041153907776e-01 1.658456027507781982e-01 6.255580484867095947e-02 1.203093081712722778e-01 1.209033057093620300e-01 1.206993311643600464e-01 5.413562059402465820e-02 -2.423300296068191528e-01 -1.229459568858146667e-01 1.163957566022872925e-01 -1.180913299322128296e-01 -1.245348975062370300e-01 -1.034300029277801514e-01 -5.063872784376144409e-02 -4.973624367266893387e-03 4.601681232452392578e-02 -1.201165607199072838e-03 9.171609766781330109e-03 -3.457303624600172043e-03 1.720879808999598026e-03 -1.757231540977954865e-02 -1.968908756971359253e-01 -2.511735558509826660e-01 -2.737373709678649902e-01 -2.618449330329895020e-01 -1.473402883857488632e-02 -3.997792955487966537e-03 -5.168614909052848816e-03 -1.324247270822525024e-01 -6.489851325750350952e-02 -1.086065024137496948e-01 -1.695847511291503906e-01 -1.584420204162597656e-01 -2.594041228294372559e-01 -3.360492289066314697e-01 -3.412340879440307617e-01 -1.657076179981231689e-01 -1.529758125543594360e-01 -1.374804675579071045e-01 -1.830775290727615356e-01 -1.789857745170593262e-01 -1.313115507364273071e-01 -1.039110403507947922e-02 2.842318639159202576e-02 2.773069590330123901e-02 4.565724637359380722e-03 -2.091927221044898033e-03 -1.119355298578739166e-02 -4.743440076708793640e-03 3.575513139367103577e-02 5.041861161589622498e-02 -2.252060920000076294e-02 -8.340144529938697815e-03 -3.000587970018386841e-02 4.733690991997718811e-02 2.087390720844268799e-01 1.094314754009246826e-01 -8.484186232089996338e-02 -1.306997090578079224e-01 -4.273307509720325470e-03 -3.885421156883239746e-02 -5.796647071838378906e-02 -4.940123483538627625e-02 -4.053418338298797607e-02 1.419617515057325363e-02 -4.686329513788223267e-02 -3.881000354886054993e-02 -1.119177490472793579e-01 -2.834375202655792236e-02 9.073573164641857147e-04 -3.026808239519596100e-02 -2.244060486555099487e-02 -2.941886149346828461e-02
2.069865120574831963e-03 5.423205439001321793e-03 -9.454148821532726288e-03 -2.917098253965377808e-02 1.497126929461956024e-02 3.546130284667015076e-02 -2.656430564820766449e-02 2.420163340866565704e-02 -7.962678559124469757e-03 -2.361076697707176208e-02 -1.260898821055889130e-02 1.208465080708265305e-02 2.070366777479648590e-02 1.046550553292036057e-02 -4.672720655798912048e-02 -6.212043762207031250e-02 7.994477637112140656e-03 2.611698955297470093e-02 3.867336781695485115e-03 2.564210258424282074e-02 2.700776420533657074e-02 -2.428742125630378723e-02 -2.480694837868213654e-02 -2.223528735339641571e-02 -1.846642605960369110e-02 2.857891283929347992e-02 -6.573413265869021416e-04 1.629619672894477844e-02 3.175576403737068176e-02 3.434148058295249939e-02 2.579954825341701508e-02 2.736336551606655121e-02 5.326141044497489929e-02 4.926249757409095764e-02 7.603366672992706299e-02 8.159222453832626343e-02 4.258916899561882019e-02 3.208730742335319519e-02 3.343426436185836792e-02 3.652839735150337219e-02 6.091860309243202209e-02 6.728032231330871582e-02 -6.046334654092788696e-02 -1.028976067900657654e-01 -1.491753160953521729e-01 -8.178889006376266479e-02 1.153939440846443176e-01 1.738433390855789185e-01 1.166535913944244385e-01 3.290584310889244080e-02 5.488041415810585022e-02 8.342090994119644165e-02 -1.544361095875501633e-02 1.925373636186122894e-02 1.810057274997234344e-02 9.740727953612804413e-03 2.292688563466072083e-02 2.766605839133262634e-02 8.957838267087936401e-02 -1.011776030063629150e-01 -3.467852622270584106e-02 9.347343444824218750e-02 1.442162841558456421e-01 1.650327742099761963e-01 5.461408197879791260e-02 -2.171460166573524475e-02 3.101363591849803925e-02 1.280533671379089355e-01 -2.381072193384170532e-02 -5.979301780462265015e-02 1.580218821763992310e-01 7.487203180789947510e-02 3.627208247780799866e-02 2.043512165546417236e-01 1.757848709821701050e-01 4.009623080492019653e-02 6.652005761861801147e-02 1.128631085157394409e-01 2.117901593446731567e-01 5.812082812190055847e-02 -6.143710389733314514e-02 -3.506690263748168945e-02 -3.091538511216640472e-02 -2.560811489820480347e-02 -4.239627625793218613e-03 3.168269991874694824e-02 -2.003708928823471069e-01 -8.536911755800247192e-02 1.415659040212631226e-01 8.009529858827590942e-02 1.856742352247238159e-01 1.705352962017059326e-01 1.013251990079879761e-01 -4.518260806798934937e-02 9.856390208005905151e-02 1.159422397613525391e-01 -2.088361047208309174e-02 -3.176737204194068909e-02 5.306972563266754150e-02 8.423759043216705322e-02 -2.346365712583065033e-02 -7.414810359477996826e-02 2.460158802568912506e-02 -1.369232684373855591e-02 -3.190822154283523560e-02 1.272749006748199463e-01 1.318983286619186401e-01 3.390164077281951904e-01 1.174562945961952209e-01 -6.885958462953567505e-02 7.271016947925090790e-03 -6.748651154339313507e-03 2.811624854803085327e-02 5.101370625197887421e-03 -1.850666701793670654e-01 7.821392267942428589e-02 1.029458567500114441e-01 -6.599473208189010620e-02 -1.116120144724845886e-01 -6.308617442846298218e-02 -5.355658754706382751e-02 -7.561703771352767944e-02 -7.915906608104705811e-03 9.124962612986564636e-03 3.062583133578300476e-02 -6.022771075367927551e-02 5.111594870686531067e-02 -2.488434314727783203e-02 -3.332869336009025574e-02 -8.094891160726547241e-02 -8.205756545066833496e-02 -5.062557011842727661e-02 1.102536823600530624e-02 6.881747394800186157e-02 -3.190584480762481689e-02 9.121627360582351685e-02 1.760383248329162598e-01 1.190794333815574646e-01 5.782433319836854935e-03 4.273236542940139771e-02 1.904215291142463684e-02 1.224968768656253815e-02 -7.296115905046463013e-02 5.122283473610877991e-02 -3.996929898858070374e-02 -2.255762368440628052e-01 -2.627318799495697021e-01 -7.821810245513916016e-02 -7.932436466217041016e-02 -1.215862389653921127e-02 3.434615582227706909e-02 1.348190903663635254e-01 1.346823871135711670e-01 9.821060299873352051e-02 7.166476547718048096e-02 -1.210223603993654251e-02 -3.757501021027565002e-02 -2.042202092707157135e-02 -1.215554624795913696e-01 6.182582117617130280e-03 8.105328679084777832e-02 -6.442052870988845825e-02 -1.146649345755577087e-01 -3.399471519514918327e-03 1.200819015502929688e-01 1.881545037031173706e-01 1.192688271403312683e-01 7.557987421751022339e-02 -2.850930765271186829e-02 -9.223778545856475830e-02 1.508741378784179688e-01 -1.688048690557479858e-01 -4.381536319851875305e-02 -1.546195000410079956e-01 -1.860312819480895996e-01 5.709413904696702957e-03 1.003494784235954285e-01 1.185251697897911072e-01 3.059895709156990051e-02 5.129859596490859985e-02 6.984464079141616821e-02 5.147551372647285461e-02 6.702616065740585327e-02 3.323370590806007385e-02 2.570185810327529907e-02 9.060392156243324280e-03 -3.135597705841064453e-02 3.354006633162498474e-02 5.006241798400878906e-02 -1.370832771062850952e-01 -1.556187272071838379e-01 -1.399131026118993759e-02 1.767492890357971191e-01 2.381600290536880493e-01 9.413503855466842651e-02 1.135238409042358398e-01 1.703161001205444336e-02 -1.963651627302169800e-01 4.369450360536575317e-02 -2.253608703613281250e-01 -1.150900647044181824e-01 -6.182057783007621765e-02 -1.134262830018997192e-01 -2.658246085047721863e-02 1.214039921760559082e-01 3.473876416683197021e-02 4.399117827415466309e-02 1.661939918994903564e-02 3.152209892868995667e-02 4.783983528614044189e-02 3.699150308966636658e-02 6.448312848806381226e-02 3.694270551204681396e-02 3.741980064660310745e-03 -3.739727288484573364e-02 -3.977262228727340698e-02 -4.988986253738403320e-02 -7.987354695796966553e-02 -7.871078699827194214e-02 -2.806741744279861450e-02 5.616976693272590637e-02 1.749608218669891357e-01 1.377417594194412231e-01 1.345526725053787231e-01 -2.324560284614562988e-01 -1.163051053881645203e-01 7.755656726658344269e-03 -1.183228939771652222e-01 -6.348752230405807495e-02 -4.422007128596305847e-02 3.394107148051261902e-02 1.463069301098585129e-02 1.320887506008148193e-01 -3.367247804999351501e-02 -7.808996737003326416e-02 -9.411098435521125793e-03 -3.257923573255538940e-02 1.231820974498987198e-02 -3.164515644311904907e-02 -1.054154410958290100e-01 9.187879622913897038e-04 -1.140927821397781372e-01 -8.522230386734008789e-02 -8.733760565519332886e-02 -8.438979089260101318e-02 -3.107810020446777344e-02 -1.332327872514724731e-01 -1.232553422451019287e-01 1.234940141439437866e-01 1.794272959232330322e-01 2.772214114665985107e-01 1.522685140371322632e-01 -3.422562405467033386e-02 -1.327963173389434814e-01 -4.871251806616783142e-02 -6.226386129856109619e-02 -1.093425601720809937e-01 -6.550115346908569336e-02 -1.498883869498968124e-02 -3.079286217689514160e-02 8.211690001189708710e-03 1.054797554388642311e-03 -5.646305158734321594e-02 1.941207051277160645e-02 -6.193347647786140442e-02 -5.483704432845115662e-02 -6.969787180423736572e-02 -6.988811492919921875e-02 -7.656432688236236572e-02 -9.255249053239822388e-02 -1.567858904600143433e-01 -1.336470246315002441e-01 -1.164070591330528259e-01 -1.213708519935607910e-02 -6.273931264877319336e-02 -3.039943240582942963e-02 1.157409250736236572e-01 1.732103973627090454e-01 5.479573830962181091e-02 -1.527408659458160400e-01 -6.149320676922798157e-02 -7.027924060821533203e-02 -1.899473071098327637e-01 -1.383339166641235352e-01 -9.390904009342193604e-02 -2.999922819435596466e-02 -1.454139035195112228e-02 -3.622682392597198486e-02 4.147420823574066162e-02 6.662586331367492676e-02 -4.007662460207939148e-02 -2.157640084624290466e-02 1.082335133105516434e-02 -1.079219803214073181e-01 -8.114261180162429810e-02 -5.386216193437576294e-02 -9.398999810218811035e-02 -2.036909759044647217e-01 -1.197723150253295898e-01 -1.530618667602539062e-01 -8.018261939287185669e-02 -1.187605187296867371e-01 -1.471802741289138794e-01 1.110706999897956848e-01 1.518220603466033936e-01 1.285820156335830688e-01 3.694327920675277710e-02 -1.781548112630844116e-01 -4.187582805752754211e-02 -2.325687259435653687e-01 -1.397291868925094604e-01 -1.730333566665649414e-01 -1.091194748878479004e-01 7.376906275749206543e-02 1.325548905879259109e-02 1.915203221142292023e-02 6.815826892852783203e-02 1.367968916893005371e-01 5.764826759696006775e-02 2.648257836699485779e-02 1.386465430259704590e-01 1.214424427598714828e-02 2.063551545143127441e-02 6.050170399248600006e-03 4.662279412150382996e-02 -3.331295773386955261e-02 -3.696939721703529358e-02 -5.095749348402023315e-02 -7.084785401821136475e-02 -4.473233968019485474e-02 -6.654192507266998291e-02 1.029504090547561646e-02 1.285756379365921021e-01 1.606388539075851440e-01 2.363942861557006836e-01 -1.878434717655181885e-01 -2.283780649304389954e-02 -1.219996437430381775e-01 -1.534364223480224609e-01 -1.362994611263275146e-01 -4.183502122759819031e-02 8.966573327779769897e-02 5.957037582993507385e-02 7.532528042793273926e-02 1.078771054744720459e-01 1.209309995174407959e-01 6.580790877342224121e-02 8.596064150333404541e-02 -3.826990351080894470e-02 3.696461766958236694e-02 7.094115018844604492e-02 1.255262643098831177e-01 1.261921823024749756e-01 7.341308146715164185e-02 -1.423111557960510254e-02 -2.174018509685993195e-02 -1.025230623781681061e-02 2.512462623417377472e-02 -2.070328593254089355e-02 6.863721460103988647e-02 8.700241148471832275e-02 -5.619588494300842285e-02 -2.514213323593139648e-02 -2.053972929716110229e-01 -7.410705834627151489e-02 -6.762381643056869507e-02 -1.754138469696044922e-01 -1.751963943243026733e-01 -2.857089787721633911e-02 9.196273982524871826e-02 5.164410546422004700e-02 8.127298206090927124e-02 1.007987931370735168e-01 1.234331727027893066e-01 1.020043715834617615e-01 6.127611175179481506e-02 6.871423684060573578e-03 6.087377294898033142e-02 5.376420170068740845e-02 2.041334360837936401e-01 2.193654924631118774e-01 7.700031995773315430e-02 -1.492083538323640823e-02 6.175360083580017090e-02 -2.092947997152805328e-02 -3.678378835320472717e-02 3.760597854852676392e-02 8.392830193042755127e-02 -4.997996147722005844e-03 -1.742243468761444092e-01 -2.006564736366271973e-01 -9.559608250856399536e-02 -7.661721855401992798e-02 -1.087930612266063690e-02 -1.805839240550994873e-01 -1.566827744245529175e-01 -1.033192873001098633e-01 6.387708336114883423e-02 4.919423162937164307e-02 -2.133835665881633759e-02 1.228033527731895447e-01 1.119067296385765076e-01 1.340609937906265259e-01 4.575606435537338257e-02 -2.909873984754085541e-02 4.560591280460357666e-02 7.767285406589508057e-02 1.616668552160263062e-01 1.996829658746719360e-01 1.205338165163993835e-01 2.676578052341938019e-02 3.049905598163604736e-02 -5.974256619811058044e-02 -4.354168102145195007e-02 1.986953988671302795e-02 -9.604873508214950562e-02 -1.893172860145568848e-01 -7.774315774440765381e-02 -2.886078953742980957e-01 -9.651950001716613770e-02 -5.258408188819885254e-02 1.281158328056335449e-01 -1.458245813846588135e-01 -2.068002521991729736e-01 -7.145693153142929077e-02 1.890451461076736450e-02 6.273606419563293457e-02 9.784288704395294189e-04 8.764243870973587036e-02 1.137799769639968872e-01 1.106992736458778381e-01 7.582385838031768799e-02 4.095181450247764587e-02 4.935150966048240662e-02 5.532026290893554688e-02 9.888694435358047485e-02 1.248586177825927734e-01 1.939161568880081177e-01 5.915143713355064392e-02 1.333842240273952484e-02 -1.223392561078071594e-01 -1.056996807456016541e-01 -5.078866146504878998e-03 1.607488654553890228e-02 -1.737583130598068237e-01 7.337412796914577484e-03 -1.034633293747901917e-01 -1.832957118749618530e-01 -4.496035352349281311e-02 1.280043721199035645e-01 -5.664425343275070190e-02 -1.353974789381027222e-01 -2.444230169057846069e-01 -5.805905908346176147e-03 3.651491925120353699e-02 -3.029241040349006653e-02 6.544768810272216797e-02 8.623574674129486084e-02 8.342684805393218994e-02 1.308679133653640747e-01 8.333087712526321411e-02 -3.212955547496676445e-03 1.078952476382255554e-02 3.217021003365516663e-02 1.129262223839759827e-01 1.088499128818511963e-01 1.154891997575759888e-01 -4.885411262512207031e-02 -8.652311563491821289e-02 -1.287569701671600342e-01 -3.054752200841903687e-02 6.725563108921051025e-02 -3.315244615077972412e-02 9.121700376272201538e-02 -2.418109476566314697e-01 -2.099391967058181763e-01 1.429448835551738739e-02 1.088000740855932236e-02 -7.773143053054809570e-02 -7.426912337541580200e-02 -2.206720560789108276e-01 -3.810911253094673157e-02 -1.148113235831260681e-02 8.382923156023025513e-02 1.049959734082221985e-01 6.350681930780410767e-02 4.250405728816986084e-02 8.722513914108276367e-02 4.298352170735597610e-03 -1.360503677278757095e-02 -4.312828928232192993e-02 3.733627870678901672e-02 5.864641070365905762e-02 5.498842895030975342e-02 5.929253622889518738e-02 3.997633233666419983e-03 -5.790548771619796753e-02 -1.047325953841209412e-01 -5.836937204003334045e-02 4.646257683634757996e-02 -5.769428238272666931e-02 -1.508851647377014160e-01 -1.272239536046981812e-01 -2.146026939153671265e-01 -1.221305578947067261e-01 -4.208849370479583740e-02 -6.987653672695159912e-02 -1.418125480413436890e-01 -1.364645659923553467e-01 1.681774854660034180e-02 8.996371179819107056e-02 2.836327999830245972e-02 1.405859831720590591e-02 -1.201831921935081482e-02 5.249916389584541321e-02 -6.353415548801422119e-03 3.667997941374778748e-02 1.080182497389614582e-03 -1.862319000065326691e-02 4.445957392454147339e-02 5.952217429876327515e-02 1.274027954787015915e-02 -7.875615730881690979e-03 2.157920226454734802e-02 -2.452978678047657013e-02 -1.121830493211746216e-01 -9.455162286758422852e-02 -6.441678106784820557e-02 -8.476851880550384521e-02 -1.503293663263320923e-01 -6.948620826005935669e-02 -1.442653387784957886e-01 -5.829039961099624634e-02 -1.753118932247161865e-01 -9.493201971054077148e-02 -1.015339866280555725e-01 -9.657230973243713379e-02 -1.657451502978801727e-02 6.892366800457239151e-03 -3.233485668897628784e-02 -9.801531210541725159e-03 2.360411360859870911e-02 2.502496540546417236e-02 1.666330615989863873e-03 -9.568537771701812744e-02 -1.041455641388893127e-01 -5.476989224553108215e-02 3.485173732042312622e-02 1.656632870435714722e-02 1.556177996098995209e-02 4.005437251180410385e-03 -1.751480624079704285e-02 -5.016522109508514404e-02 -4.154859110713005066e-02 1.270934473723173141e-02 8.077827095985412598e-02 1.601142250001430511e-02 -1.987650096416473389e-01 -1.784457117319107056e-01 -4.211493954062461853e-02 2.205370739102363586e-02 -1.154106110334396362e-01 -6.656751781702041626e-02 -1.328903138637542725e-01 -1.009270548820495605e-01 -6.199134141206741333e-02 -1.028532907366752625e-01 -1.124774888157844543e-01 -5.497913807630538940e-02 -3.529685735702514648e-02 -7.058466784656047821e-03 -5.441962927579879761e-02 -2.166416794061660767e-01 -5.020536854863166809e-02 3.783311694860458374e-02 9.929298609495162964e-02 2.199592627584934235e-02 -3.937124460935592651e-02 -6.749432533979415894e-02 -4.705080017447471619e-02 -1.817590906284749508e-03 3.198035061359405518e-02 8.210273832082748413e-02 9.989402443170547485e-02 4.434185847640037537e-02 1.433410048484802246e-01 -1.349453628063201904e-01 -2.946502901613712311e-02 -3.769484162330627441e-02 -1.869091205298900604e-02 -4.235005006194114685e-02 -9.437795379199087620e-04 1.632484048604965210e-02 -6.466634571552276611e-02 -1.121866330504417419e-01 -1.014337036758661270e-02 -7.436349242925643921e-02 3.771268203854560852e-02 -3.891231492161750793e-02 -2.747629070654511452e-03 -3.513617813587188721e-02 1.994197815656661987e-02 9.911141544580459595e-02 7.858669012784957886e-02 -4.036271478980779648e-03 3.300392255187034607e-02 -1.878849789500236511e-02 -1.203667186200618744e-02 -2.893467992544174194e-02 -4.965496808290481567e-02 5.225800350308418274e-02 3.160497173666954041e-02 -5.607718974351882935e-02 8.368050679564476013e-03 -1.654445677995681763e-01 -2.721250616014003754e-02 -4.599901288747787476e-02 -6.872569024562835693e-02 -6.315090507268905640e-02 5.965413153171539307e-02 1.116330027580261230e-01 -1.267686337232589722e-01 -1.425214558839797974e-01 -1.178142949938774109e-01 -1.537257432937622070e-01 -1.314721256494522095e-01 -3.007516264915466309e-02 1.607540994882583618e-02 8.070456236600875854e-02 7.652541995048522949e-02 6.070107966661453247e-02 4.826721549034118652e-02 9.353987872600555420e-02 5.144339427351951599e-02 -3.486235439777374268e-02 1.808730885386466980e-02 -1.685334183275699615e-02 -4.998179152607917786e-02 5.541952326893806458e-02 7.116232067346572876e-02 -2.822032943367958069e-02 -3.333877027034759521e-02 4.557386506348848343e-03 -1.581494510173797607e-02 -9.999496862292289734e-03 2.573183365166187286e-02 4.172828793525695801e-02 1.887226700782775879e-01 2.194496244192123413e-01 9.563493728637695312e-02 -1.514248996973037720e-01 -1.628412902355194092e-01 -2.944977022707462311e-02 -5.600548163056373596e-02 -9.009948372840881348e-02 -6.468226760625839233e-02 -2.953528054058551788e-02 8.410431444644927979e-03 2.439515106379985809e-02 1.621475070714950562e-02 9.211133420467376709e-02 -1.748916506767272949e-02 1.009658947587013245e-01 1.389934122562408447e-01 6.213904917240142822e-02 1.237739622592926025e-01 7.771120220422744751e-02 2.026800662279129028e-01 4.304607212543487549e-02 3.917704895138740540e-02 -9.419274330139160156e-02 6.784937344491481781e-03 2.915424294769763947e-02 -4.439562559127807617e-03 1.497739832848310471e-02 1.368547528982162476e-01 9.595910459756851196e-02 2.668883465230464935e-02 6.673829630017280579e-03 9.899874031543731689e-02 1.211348026990890503e-01 7.165630906820297241e-02 9.427966922521591187e-02 9.935155510902404785e-02 1.384997069835662842e-01 8.746472001075744629e-02 1.730784587562084198e-02 1.235527694225311279e-01 2.083570063114166260e-01 5.121249333024024963e-02 7.920684665441513062e-02 1.177830621600151062e-01 1.440914124250411987e-01 5.044896900653839111e-02 6.941058486700057983e-02 1.599883884191513062e-01 -1.842749118804931641e-01 -1.754280626773834229e-01 -8.755073696374893188e-02 -9.242590516805648804e-03 2.943965420126914978e-02 -2.067228779196739197e-02 9.176272898912429810e-02 9.048964828252792358e-02 -5.746548995375633240e-02 6.210526451468467712e-02 8.353506028652191162e-02 1.219164505600929260e-01 1.939437836408615112e-01 1.643810123205184937e-01 2.160163372755050659e-01 1.683878451585769653e-01 1.221044510602951050e-01 1.623674780130386353e-01 6.782171130180358887e-02 7.425467669963836670e-02 1.693207621574401855e-01 1.768064498901367188e-01 1.683284044265747070e-01 2.244694232940673828e-01 2.322669774293899536e-01 2.209411263465881348e-01 8.968590199947357178e-02 2.192058712244033813e-01 6.796129792928695679e-02 -4.776792600750923157e-02 -6.480672955513000488e-02 1.406406983733177185e-02 2.253306843340396881e-02 -3.039940446615219116e-02 7.173960097134113312e-03 1.681045815348625183e-02 1.531677842140197754e-01 1.499301344156265259e-01 8.444877713918685913e-02 1.450350284576416016e-01 5.452707782387733459e-02 3.903524205088615417e-02 9.760129451751708984e-02 5.471523106098175049e-02 1.504070460796356201e-01 6.641872227191925049e-02 1.242026835680007935e-01 4.360163584351539612e-03 7.511885464191436768e-02 2.009978592395782471e-01 7.995114475488662720e-02 -1.507401317358016968e-01 4.706605523824691772e-02 7.138931751251220703e-02 -9.961587935686111450e-02 1.537846773862838745e-01 1.076624765992164612e-01 -6.196835543960332870e-03 3.270279243588447571e-02 -1.791734434664249420e-02 1.525331847369670868e-02 -1.107119303196668625e-02 3.070637769997119904e-02 2.104062773287296295e-02 -5.656187981367111206e-02 -7.875995337963104248e-02 3.652453050017356873e-02 7.809410989284515381e-02 4.929772112518548965e-03 -8.511529862880706787e-02 -5.839145556092262268e-02 -2.095552347600460052e-02 -1.258869376033544540e-02 -6.693062186241149902e-02 4.505340009927749634e-02 7.263946533203125000e-02 -6.985493749380111694e-02 -1.951458901166915894e-01 -1.456202659755945206e-02 8.746024221181869507e-02 -5.118849501013755798e-02 -8.526629954576492310e-02 -1.503187268972396851e-01 -7.203650474548339844e-02 -3.990778233855962753e-03 3.078713268041610718e-02 1.688162423670291901e-02 -1.066756714135408401e-02
3.482642397284507751e-02 -1.989449933171272278e-02 -2.128715254366397858e-02 3.485557064414024353e-02 -1.382307521998882294e-02 -5.483103916049003601e-03 -1.279582735151052475e-02 -3.551896195858716965e-03 2.468392439186573029e-02 -2.929573878645896912e-02 -2.311402186751365662e-02 1.095817796885967255e-02 -2.131342515349388123e-02 8.407220244407653809e-03 4.644408822059631348e-02 3.385436907410621643e-02 1.484659407287836075e-02 3.362325578927993774e-02 -1.166747324168682098e-02 -3.119904734194278717e-02 2.298986539244651794e-02 -3.455447498708963394e-03 2.114338241517543793e-02 -1.340998522937297821e-02 2.003671601414680481e-02 -2.047323808073997498e-02 -2.352057211101055145e-02 6.746054161339998245e-03 2.132895775139331818e-02 2.065315470099449158e-02 5.498686339706182480e-03 2.376686781644821167e-02 -3.304877877235412598e-02 2.541722357273101807e-02 4.056257382035255432e-02 -3.307119384407997131e-02 -9.139431640505790710e-03 1.733052730560302734e-02 -1.129966042935848236e-02 -1.730129308998584747e-02 -4.027571901679039001e-02 -4.507712274789810181e-02 -7.374878972768783569e-02 2.845708280801773071e-02 1.999571025371551514e-01 1.223063096404075623e-01 -6.202957127243280411e-03 -8.958947844803333282e-03 -4.741395264863967896e-02 -3.727350756525993347e-02 6.296128500252962112e-03 3.880920633673667908e-02 -2.302487939596176147e-02 -1.833993755280971527e-02 -3.006675466895103455e-02 -1.076362002640962601e-02 1.097539998590946198e-02 1.213954668492078781e-02 -3.534252569079399109e-02 2.816276624798774719e-02 -1.262366920709609985e-01 -5.873742699623107910e-02 6.829630583524703979e-02 4.185517027508467436e-04 8.976957201957702637e-02 1.595752984285354614e-01 8.706386387348175049e-02 5.223390460014343262e-02 1.004518344998359680e-01 -3.453074395656585693e-02 1.353596244007349014e-02 -4.479848593473434448e-02 -1.544418931007385254e-01 -1.501625478267669678e-01 -5.577395483851432800e-02 -1.493658721446990967e-01 -1.381443887948989868e-01 -7.593258470296859741e-02 -3.546352684497833252e-02 8.884738199412822723e-03 -1.940498501062393188e-02 -2.184443362057209015e-02 -7.540703285485506058e-03 1.621034368872642517e-02 3.062034212052822113e-02 -3.524915874004364014e-02 1.655632704496383667e-01 1.568066924810409546e-01 -1.721389219164848328e-02 -1.027016248553991318e-02 6.189207732677459717e-02 -7.353208959102630615e-02 -6.551904231309890747e-02 -6.321994960308074951e-02 -1.345136761665344238e-01 -1.354977190494537354e-01 -1.170936077833175659e-01 1.740361191332340240e-02 -1.966446191072463989e-01 -3.038027584552764893e-01 -3.294997811317443848e-01 -2.978746891021728516e-01 -2.319699972867965698e-01 -2.112807035446166992e-01 -3.710530400276184082e-01 -2.499372363090515137e-01 -1.165539547801017761e-01 6.310987472534179688e-02 2.763438597321510315e-02 9.384359419345855713e-02 -1.652621850371360779e-02 -3.208389878273010254e-02 1.953171566128730774e-02 -1.205574441701173782e-02 1.371687799692153931e-01 -1.324373930692672729e-01 -1.449257582426071167e-01 8.148580789566040039e-02 9.462965279817581177e-02 2.793144434690475464e-03 5.900635197758674622e-02 2.034251205623149872e-02 3.662281855940818787e-02 5.954256281256675720e-02 1.409050226211547852e-01 1.779592223465442657e-02 -5.651864781975746155e-02 -9.372413903474807739e-02 -1.962003856897354126e-01 -1.969568282365798950e-01 -3.347252607345581055e-01 -2.987099885940551758e-01 -1.456046700477600098e-01 -2.156553044915199280e-02 -1.173239760100841522e-02 -2.614114806056022644e-02 -5.212048999965190887e-03 1.568696498870849609e-01 1.169471666216850281e-01 -1.962730288505554199e-02 -1.023014169186353683e-02 -2.891434729099273682e-02 1.328361034393310547e-01 1.210203915834426880e-01 2.413862496614456177e-01 1.413377970457077026e-01 3.044288232922554016e-02 6.433890201151371002e-03 7.457144558429718018e-02 5.734091997146606445e-02 8.650457113981246948e-02 1.265307515859603882e-01 1.430356651544570923e-01 5.774527788162231445e-02 1.490026153624057770e-02 -9.642507880926132202e-03 -1.030843332409858704e-01 -1.637871563434600830e-01 -2.034002095460891724e-01 -2.570248246192932129e-01 -2.063389122486114502e-01 -2.004489861428737640e-02 -2.693746425211429596e-02 9.806729108095169067e-02 1.382660716772079468e-01 1.902482658624649048e-01 1.402850598096847534e-01 -5.961689166724681854e-03 9.440418332815170288e-03 -7.720867544412612915e-02 -5.283423513174057007e-02 1.876143366098403931e-01 1.765475124120712280e-01 -9.080851078033447266e-02 4.249420762062072754e-02 1.025712862610816956e-01 1.152784228324890137e-01 2.274004518985748291e-01 1.402511447668075562e-01 1.122184991836547852e-01 1.416336894035339355e-01 1.892511844635009766e-01 2.103071659803390503e-01 1.144321113824844360e-01 9.203493595123291016e-02 2.094184421002864838e-02 -1.360543668270111084e-01 -2.086284756660461426e-01 -1.689279079437255859e-01 3.002971224486827850e-02 -1.256783008575439453e-01 8.166529983282089233e-02 3.176795691251754761e-02 2.178825587034225464e-01 1.007332280278205872e-01 1.063580885529518127e-01 4.072126373648643494e-02 1.109982505440711975e-01 8.519261330366134644e-02 2.540898323059082031e-01 1.514372974634170532e-01 -2.040708251297473907e-02 1.227757558226585388e-01 1.472820490598678589e-01 2.192786335945129395e-01 1.366110295057296753e-01 5.723259970545768738e-02 2.366397343575954437e-02 8.631420880556106567e-02 1.650215536355972290e-01 1.548919230699539185e-01 1.640341877937316895e-01 1.192769557237625122e-01 -4.813290014863014221e-02 -2.144852839410305023e-02 -1.622096747159957886e-01 -1.045408323407173157e-01 -7.392723858356475830e-02 -6.151262298226356506e-02 -3.056155331432819366e-02 -1.047474145889282227e-01 -1.101990044116973877e-01 -4.894262179732322693e-03 1.262789964675903320e-01 1.002689749002456665e-01 1.128649711608886719e-01 4.347857087850570679e-02 8.487353473901748657e-02 2.023026347160339355e-01 7.499583810567855835e-02 1.853885501623153687e-01 8.055221289396286011e-02 1.950559318065643311e-01 8.491598069667816162e-02 1.167811006307601929e-01 2.170326560735702515e-02 3.475204110145568848e-02 5.364720523357391357e-02 1.431185752153396606e-01 7.283174246549606323e-02 1.055089384317398071e-01 5.901660770177841187e-02 2.919638529419898987e-02 -8.816432952880859375e-02 -1.404853761196136475e-01 -1.091103628277778625e-01 -1.757965832948684692e-01 -8.873979747295379639e-02 -1.538694649934768677e-01 -6.869342178106307983e-02 1.654317528009414673e-01 1.757377199828624725e-02 7.489851117134094238e-02 6.063614040613174438e-02 -2.371842227876186371e-02 1.116005852818489075e-01 5.855518579483032227e-02 1.522357910871505737e-01 8.559022098779678345e-02 7.505145668983459473e-02 6.174033135175704956e-02 1.005658041685819626e-02 1.003201603889465332e-01 -2.860995940864086151e-02 4.165692999958992004e-02 2.228746376931667328e-02 6.230461224913597107e-02 6.707395613193511963e-02 1.099179014563560486e-01 1.931655555963516235e-01 2.172586135566234589e-02 -6.337758898735046387e-02 -1.032193377614021301e-01 -1.673632115125656128e-01 -1.621499508619308472e-01 7.840508595108985901e-03 6.012300029397010803e-03 9.825794398784637451e-02 2.417565286159515381e-01 2.462147623300552368e-01 3.780769184231758118e-02 1.439067255705595016e-02 1.102410927414894104e-01 9.216493368148803711e-02 1.987473480403423309e-02 1.754058599472045898e-01 1.301788389682769775e-01 7.046993821859359741e-02 3.938863798975944519e-02 6.305152177810668945e-02 2.270353585481643677e-02 -3.021382726728916168e-02 -1.170744672417640686e-01 -9.877783246338367462e-03 -2.228873223066329956e-02 1.660291105508804321e-02 1.908034831285476685e-01 1.907968968152999878e-01 1.607940644025802612e-01 4.021875932812690735e-02 -1.449776142835617065e-01 -1.738477796316146851e-01 -7.019837945699691772e-02 -9.334214776754379272e-02 8.167204447090625763e-03 7.029181718826293945e-02 1.093548014760017395e-01 1.764772534370422363e-01 7.170592248439788818e-02 6.399228423833847046e-02 -4.254841804504394531e-02 -5.757647752761840820e-02 -5.362289026379585266e-02 5.016137659549713135e-02 1.192406639456748962e-01 5.528100207448005676e-02 -4.954939708113670349e-02 -1.158463116735219955e-02 5.061521660536527634e-03 -1.405423134565353394e-02 -1.412097066640853882e-01 -1.193352341651916504e-01 -5.862368270754814148e-02 3.510740026831626892e-02 1.013354957103729248e-01 1.760659217834472656e-01 2.263572812080383301e-01 5.027921870350837708e-02 2.053276635706424713e-03 -1.101872846484184265e-01 -7.171275466680526733e-02 -1.548545956611633301e-01 -1.662061214447021484e-01 -2.582336589694023132e-02 -1.078049018979072571e-01 -2.814040752127766609e-03 7.019440829753875732e-02 2.450433094054460526e-03 1.058862432837486267e-01 -1.134519055485725403e-01 -1.986113935708999634e-02 -9.958541393280029297e-02 -4.896153137087821960e-02 -9.161616116762161255e-02 -2.861744165420532227e-02 -6.092616915702819824e-02 -1.276409924030303955e-01 -1.369164586067199707e-01 -2.132832556962966919e-01 -1.848922669887542725e-01 -9.338623844087123871e-03 1.090620905160903931e-01 8.407060801982879639e-02 1.665002852678298950e-01 1.405368745326995850e-01 7.616876065731048584e-02 -7.305678725242614746e-02 -9.487801045179367065e-02 -2.288509309291839600e-01 -2.242093086242675781e-01 -2.300862967967987061e-01 -8.389431983232498169e-02 -7.931038737297058105e-02 -2.955474890768527985e-02 -7.978194206953048706e-02 2.215801924467086792e-02 1.636894941329956055e-01 -2.662382088601589203e-02 -2.378828823566436768e-01 -1.786561608314514160e-01 -1.550412327051162720e-01 -4.635090008378028870e-02 -8.091943711042404175e-02 -9.725023061037063599e-02 -1.393465101718902588e-01 -6.860420852899551392e-02 -2.400439381599426270e-01 -1.558127105236053467e-01 -1.939918845891952515e-02 7.251004874706268311e-02 1.044200882315635681e-01 1.135524660348892212e-01 7.556587457656860352e-02 -8.063620887696743011e-03 -1.477512419223785400e-01 -1.460293829441070557e-01 2.389344759285449982e-02 -5.823181197047233582e-02 -1.125633865594863892e-01 -9.347219765186309814e-02 -1.050575599074363708e-01 6.825041770935058594e-02 -8.759064972400665283e-02 1.495735370554029942e-03 7.512874156236648560e-02 -1.019960790872573853e-01 -2.030756026506423950e-01 -3.013187348842620850e-01 -1.426176577806472778e-01 -9.194630384445190430e-02 -1.054655611515045166e-01 -1.277285814285278320e-01 -1.518066525459289551e-01 -5.933790653944015503e-02 -3.080324456095695496e-02 -2.378853037953376770e-02 -4.597888514399528503e-02 4.624060168862342834e-02 7.212594896554946899e-02 6.053403764963150024e-02 6.542047113180160522e-02 -4.250074550509452820e-02 -1.824117898941040039e-01 -1.844304054975509644e-01 -1.634022593498229980e-01 -3.240056335926055908e-03 -5.936910212039947510e-02 2.098463941365480423e-03 1.114882230758666992e-01 1.060176789760589600e-01 -6.898167729377746582e-02 -3.046155348420143127e-02 -9.120873361825942993e-02 -9.986042976379394531e-02 -9.979954361915588379e-02 -2.838515043258666992e-01 -1.863082498311996460e-01 -9.949584305286407471e-02 -4.670039564371109009e-02 -1.240892708301544189e-01 -1.181885376572608948e-01 -3.965799137949943542e-02 -3.043391369283199310e-02 3.137217462062835693e-02 7.390213431790471077e-05 9.463225305080413818e-02 1.022440493106842041e-01 8.174595981836318970e-02 3.480327501893043518e-02 -9.885600209236145020e-02 -9.919562190771102905e-02 -1.403093785047531128e-01 -1.723736524581909180e-01 -2.040962129831314087e-01 -6.792552769184112549e-02 -3.990407660603523254e-02 -4.869579896330833435e-02 1.288666129112243652e-01 7.870074361562728882e-02 1.750818826258182526e-02 -9.594760835170745850e-02 -7.488171011209487915e-02 -1.174613684415817261e-01 -2.642669081687927246e-01 -2.877500951290130615e-01 -2.143757194280624390e-01 -1.891118288040161133e-01 -1.981148868799209595e-01 -2.025092765688896179e-02 1.037863120436668396e-01 8.228050917387008667e-02 5.089291557669639587e-02 1.210234593600034714e-02 -2.328462339937686920e-02 4.964580386877059937e-02 2.874117717146873474e-02 -1.834986917674541473e-02 -7.678711414337158203e-02 -4.333181679248809814e-02 -2.073113620281219482e-02 -1.379488706588745117e-01 -8.506424725055694580e-02 -5.989755317568778992e-02 3.922401368618011475e-02 1.004927009344100952e-01 1.567298024892807007e-01 2.165533415973186493e-02 -2.890385873615741730e-02 1.097181532531976700e-02 -7.160491496324539185e-02 -7.589419186115264893e-02 -1.382229477167129517e-01 -2.587463855743408203e-01 -4.409269392490386963e-01 -3.116447031497955322e-01 -1.331440806388854980e-01 3.566487133502960205e-02 7.119075953960418701e-02 7.469160854816436768e-02 -1.186970248818397522e-02 2.279053255915641785e-02 -3.380969911813735962e-02 -4.348234459757804871e-02 -6.540533900260925293e-02 -3.495834767818450928e-02 -8.698827028274536133e-02 -8.063873648643493652e-02 -1.679505705833435059e-01 -1.490906327962875366e-01 -1.817769259214401245e-01 1.815598644316196442e-02 2.758239209651947021e-01 1.660161763429641724e-01 2.231108844280242920e-01 1.878276765346527100e-01 -3.822498768568038940e-02 5.175184458494186401e-02 -1.254614908248186111e-03 -5.021768435835838318e-02 -9.403476119041442871e-02 -3.238420486450195312e-01 -4.090100228786468506e-01 -2.798793613910675049e-01 -6.128853559494018555e-02 1.560520976781845093e-01 9.317545592784881592e-02 6.089901551604270935e-02 -3.644108399748802185e-02 -1.754053682088851929e-02 8.580704219639301300e-03 -5.000877752900123596e-02 -5.497931316494941711e-02 8.397775702178478241e-03 -4.570605605840682983e-02 -6.360641121864318848e-02 -8.503850549459457397e-02 -9.397155791521072388e-02 -5.788091570138931274e-02 -4.804993048310279846e-02 1.499040722846984863e-01 1.971383839845657349e-01 1.542231142520904541e-01 -7.893981039524078369e-02 1.304088979959487915e-01 -8.752117305994033813e-02 7.106525357812643051e-03 -3.213592991232872009e-02 -2.306527793407440186e-01 -3.502868413925170898e-01 -2.719984948635101318e-01 -2.064217776060104370e-01 9.234072640538215637e-03 2.522891759872436523e-01 8.814784139394760132e-02 1.005535349249839783e-01 2.852676063776016235e-02 2.361216029385104775e-04 -7.871781475841999054e-03 -3.937775269150733948e-03 2.739182114601135254e-02 -5.006781965494155884e-02 -2.788894809782505035e-02 -2.923494018614292145e-02 -1.267892867326736450e-01 -4.743165150284767151e-02 -6.072810664772987366e-02 -5.668544024229049683e-02 6.445068120956420898e-02 1.952450722455978394e-01 9.863002598285675049e-02 2.254511788487434387e-02 -9.084176272153854370e-03 -5.705976486206054688e-02 8.647253736853599548e-03 -1.106747016310691833e-01 -2.305463254451751709e-01 -1.998743712902069092e-01 -1.442469954490661621e-01 -1.004623323678970337e-01 2.845416404306888580e-02 1.379748284816741943e-01 1.933164894580841064e-01 1.801696568727493286e-01 1.054253727197647095e-01 9.021087735891342163e-02 5.607320740818977356e-02 2.575752884149551392e-02 -5.012824013829231262e-02 -1.489565819501876831e-01 -8.394269645214080811e-02 4.460008442401885986e-02 -1.713742874562740326e-02 -1.453728973865509033e-01 -1.667900197207927704e-02 6.051716580986976624e-02 1.260806918144226074e-01 4.213619604706764221e-02 -9.342734515666961670e-02 -7.144957780838012695e-02 -2.603245712816715240e-02 -1.055098101496696472e-01 -1.772492825984954834e-01 -2.639859616756439209e-01 -1.909137964248657227e-01 -2.159376442432403564e-01 -1.816729307174682617e-01 -1.264303773641586304e-01 -8.734341710805892944e-03 1.229032799601554871e-01 9.300330281257629395e-02 1.299651414155960083e-01 5.819275975227355957e-02 1.123401820659637451e-01 4.763649404048919678e-02 1.993544027209281921e-02 -6.518441438674926758e-02 -9.544905275106430054e-02 8.242300152778625488e-02 -2.822701074182987213e-02 -3.763956204056739807e-02 8.992653456516563892e-04 2.569998614490032196e-02 -6.225644052028656006e-02 4.348653554916381836e-02 1.430042088031768799e-01 3.686268627643585205e-02 -3.040113486349582672e-02 -1.730447448790073395e-02 3.198195248842239380e-02 -6.305291503667831421e-02 -2.119632661342620850e-01 -1.860982626676559448e-01 -1.346054077148437500e-01 -1.280270814895629883e-01 -7.742744684219360352e-02 6.457364559173583984e-02 6.980779021978378296e-02 -2.288531279191374779e-03 1.007908359169960022e-01 1.544720232486724854e-01 1.005499735474586487e-01 7.756491750478744507e-02 -3.500976413488388062e-02 -1.340607702732086182e-01 -2.286127768456935883e-02 -1.494954619556665421e-02 7.493658363819122314e-02 4.571675509214401245e-02 4.641157388687133789e-02 9.721536189317703247e-02 4.094269499182701111e-02 5.980270728468894958e-02 -1.009325608611106873e-01 1.877925731241703033e-02 -7.187498733401298523e-03 1.320893503725528717e-02 -9.132201224565505981e-02 -2.034607827663421631e-01 -2.337959855794906616e-01 -1.948097050189971924e-01 -2.444886565208435059e-01 -1.649271249771118164e-01 -9.774459898471832275e-02 -7.754953578114509583e-03 3.474696725606918335e-02 1.501243412494659424e-01 2.121070027351379395e-01 1.926346123218536377e-01 1.039814352989196777e-01 1.458445638418197632e-01 8.017081767320632935e-02 5.179914087057113647e-02 9.935944527387619019e-02 4.928663000464439392e-02 1.078263521194458008e-01 4.070014506578445435e-02 1.336801201105117798e-01 1.646855026483535767e-01 5.104555562138557434e-02 5.417580530047416687e-02 -1.186360344290733337e-01 -1.920610293745994568e-02 -3.222255781292915344e-02 3.639544884208589792e-04 -7.639200426638126373e-03 -2.947354614734649658e-01 -4.748450964689254761e-02 -6.056446116417646408e-03 -2.418320029973983765e-01 -3.041622340679168701e-01 -1.897291243076324463e-01 -2.114349007606506348e-01 -9.991751611232757568e-02 -7.024182472378015518e-03 5.389818549156188965e-02 7.797836326062679291e-03 6.707968562841415405e-02 1.233517602086067200e-01 -9.527632966637611389e-03 3.249165415763854980e-02 9.918034821748733521e-02 7.529246807098388672e-02 2.388767339289188385e-02 -4.610401019454002380e-02 2.900915406644344330e-02 7.847304642200469971e-02 6.999600678682327271e-02 1.634034812450408936e-01 5.385674163699150085e-02 -9.451726451516151428e-03 2.560916729271411896e-02 -3.440236672759056091e-02 -4.560324922204017639e-02 -4.075583070516586304e-02 -2.857346646487712860e-02 -1.030121743679046631e-01 -2.031245827674865723e-01 -1.580017209053039551e-01 -1.394872814416885376e-01 -1.355616450309753418e-01 -1.292345523834228516e-01 -5.407967790961265564e-02 -5.856442078948020935e-02 -1.242925599217414856e-01 7.498724758625030518e-02 -3.562014177441596985e-02 1.876178383827209473e-02 1.338167190551757812e-01 4.664641246199607849e-02 -6.562057416886091232e-03 -6.539511680603027344e-02 -1.343405246734619141e-01 -2.070046067237854004e-01 -1.794737130403518677e-01 -1.130994558334350586e-01 2.331165038049221039e-02 2.160746417939662933e-02 3.530418127775192261e-02 1.856749877333641052e-02 2.582507673650979996e-03 -2.068638429045677185e-02 8.514618501067161560e-03 -1.410703957080841064e-01 -1.658207625150680542e-01 -1.069059371948242188e-01 9.233455359935760498e-02 1.545858234167098999e-01 1.552425920963287354e-01 1.328860074281692505e-01 2.944499440491199493e-02 2.469015121459960938e-02 -3.191987425088882446e-02 1.463506668806076050e-01 -2.883715555071830750e-02 -1.352368108928203583e-02 6.425458192825317383e-02 2.129778861999511719e-01 2.577463984489440918e-01 2.367961704730987549e-01 1.362314969301223755e-01 1.156650707125663757e-01 9.235510230064392090e-02 -4.019531235098838806e-02 4.800685867667198181e-02 -1.051049586385488510e-02 4.615613725036382675e-04 -3.500165790319442749e-02 -2.680027671158313751e-02 -1.348255388438701630e-02 1.373388990759849548e-02 6.856781244277954102e-02 9.055151790380477905e-02 5.446185916662216187e-02 4.027450457215309143e-02 2.875022962689399719e-02 2.944211848080158234e-02 1.907559335231781006e-01 1.536515206098556519e-01 1.366797089576721191e-01 1.374936997890472412e-01 2.330858260393142700e-01 1.134992092847824097e-01 1.028692573308944702e-01 2.327217012643814087e-01 3.299356698989868164e-01 2.912969887256622314e-01 6.460550427436828613e-02 2.308258228003978729e-02 -4.902422428131103516e-02 1.399101316928863525e-02 2.803594432771205902e-02 -5.363204982131719589e-03 2.061395719647407532e-02 2.058227732777595520e-02
-1.326755620539188385e-02 -1.376355160027742386e-02 6.998624652624130249e-03 6.248776800930500031e-03 -5.116432905197143555e-03 -1.900947093963623047e-02 -1.076800562441349030e-02 3.006099909543991089e-02 -8.026225492358207703e-03 1.052652578800916672e-02 -3.030879795551300049e-02 -2.388325892388820648e-02 4.788816720247268677e-02 3.819708898663520813e-02 9.531096369028091431e-02 5.284106731414794922e-02 -2.350452728569507599e-02 -4.109327681362628937e-03 -2.610073424875736237e-02 2.857727743685245514e-02 -2.487144060432910919e-02 -1.787098497152328491e-02 4.371792078018188477e-03 -1.310012210160493851e-02 -1.908086612820625305e-02 9.252178482711315155e-03 2.447267249226570129e-02 -4.186881706118583679e-03 -2.105540223419666290e-02 2.526759728789329529e-02 1.985018700361251831e-02 2.416313625872135162e-02 3.673092275857925415e-02 4.238178208470344543e-02 1.230842694640159607e-01 6.017958745360374451e-02 9.987550228834152222e-02 7.939193397760391235e-02 7.012188434600830078e-02 8.755449205636978149e-02 7.109595835208892822e-02 4.931300505995750427e-02 -6.960994750261306763e-02 9.229599684476852417e-02 1.883501112461090088e-01 2.312507182359695435e-01 3.368152678012847900e-02 1.103733107447624207e-01 9.361027181148529053e-02 2.187003195285797119e-02 7.365580648183822632e-02 4.464161023497581482e-02 1.490860804915428162e-02 -1.183102838695049286e-02 5.162694957107305527e-03 1.736810803413391113e-02 -1.715600490570068359e-02 8.017361164093017578e-03 8.171973377466201782e-02 5.647312849760055542e-02 1.658961474895477295e-01 7.270911335945129395e-02 1.081457063555717468e-01 1.567911505699157715e-01 1.665755510330200195e-01 4.059564769268035889e-01 3.630139231681823730e-01 4.368129372596740723e-01 2.063629031181335449e-01 1.198968887329101562e-01 2.690238356590270996e-01 4.319416582584381104e-01 3.040348887443542480e-01 1.274105310440063477e-01 1.341328620910644531e-01 8.424101769924163818e-02 1.163756772875785828e-01 1.502058506011962891e-01 8.738645166158676147e-02 1.078765392303466797e-01 1.224827170372009277e-01 8.456140756607055664e-02 -2.452565124258399010e-03 5.894618574529886246e-03 -6.397409364581108093e-03 -2.782522886991500854e-02 2.765244543552398682e-01 1.511793732643127441e-01 6.412632018327713013e-02 7.245349138975143433e-02 2.562241852283477783e-01 1.871230900287628174e-01 1.837986409664154053e-01 1.134095191955566406e-01 2.704779431223869324e-02 1.077406480908393860e-01 9.208226203918457031e-02 3.257155045866966248e-02 -3.718596324324607849e-02 -3.208052739500999451e-02 3.276959061622619629e-02 9.705761820077896118e-02 4.244765639305114746e-02 1.872003078460693359e-01 4.968538135290145874e-02 3.321236744523048401e-02 -8.095031976699829102e-02 -9.593673050403594971e-02 1.247602477669715881e-01 -8.175414055585861206e-02 4.281408712267875671e-02 -9.723565541207790375e-03 -1.106782536953687668e-02 4.758829250931739807e-02 1.952687948942184448e-01 2.356668002903461456e-02 5.798730626702308655e-02 2.676316499710083008e-01 3.046624660491943359e-01 -4.714119434356689453e-02 1.716859452426433563e-02 -6.574285775423049927e-02 -7.429354637861251831e-02 -1.664981991052627563e-02 -1.055899411439895630e-01 -5.280784517526626587e-02 -5.796799901872873306e-03 4.009377676993608475e-03 -4.590761661529541016e-02 -1.868593841791152954e-01 -7.010861486196517944e-02 -4.121260251849889755e-03 -4.107764363288879395e-02 -2.171414941549301147e-01 -1.226908043026924133e-01 -7.276611775159835815e-02 -1.411886960268020630e-01 -3.866094723343849182e-02 1.599581353366374969e-02 1.145289838314056396e-01 -2.747337892651557922e-02 -3.229282796382904053e-02 1.701315194368362427e-01 6.709551066160202026e-02 1.388405710458755493e-01 1.566385775804519653e-01 1.225447207689285278e-01 -3.323202580213546753e-02 1.929310336709022522e-02 -5.017928313463926315e-03 -5.822206847369670868e-03 -8.918457478284835815e-02 -4.633903130888938904e-02 -6.649264693260192871e-02 -8.635726571083068848e-02 7.064594328403472900e-02 7.181206345558166504e-02 -5.005706101655960083e-02 -4.679711908102035522e-02 -4.820436611771583557e-02 -5.647868290543556213e-02 -5.830337852239608765e-02 -8.755482733249664307e-02 1.050470620393753052e-01 1.315075904130935669e-02 -8.175668865442276001e-02 7.346126437187194824e-02 1.857605017721652985e-02 -1.215478871017694473e-02 1.157472357153892517e-01 -7.552132755517959595e-02 2.302447520196437836e-02 1.665782183408737183e-02 1.144661903381347656e-01 6.741954386234283447e-02 -5.079221446067094803e-03 8.083017915487289429e-02 1.527325659990310669e-01 7.500173896551132202e-02 8.183388411998748779e-02 -3.869992122054100037e-02 8.173586684279143810e-04 4.840277880430221558e-02 2.709410898387432098e-02 1.000837311148643494e-01 -2.316971682012081146e-02 -2.301975898444652557e-02 -3.726067394018173218e-02 -1.305514872074127197e-01 -4.717012867331504822e-02 6.786423921585083008e-02 1.110000610351562500e-01 8.685726672410964966e-02 -3.129961341619491577e-02 -2.557826787233352661e-02 8.020984381437301636e-02 -1.395453116856515408e-03 2.465370744466781616e-01 1.327359490096569061e-02 2.871329337358474731e-02 6.642866879701614380e-02 8.872292935848236084e-02 -1.172696705907583237e-02 1.119867637753486633e-01 7.396670430898666382e-02 7.841392606496810913e-02 8.072210103273391724e-02 1.252748072147369385e-01 9.962189197540283203e-02 1.466791927814483643e-01 1.735813617706298828e-01 5.592883750796318054e-02 8.765406161546707153e-02 8.274187147617340088e-02 3.824830427765846252e-02 2.702993899583816528e-02 8.203551173210144043e-02 -6.663570646196603775e-03 1.306962519884109497e-01 5.950462818145751953e-02 -2.192784100770950317e-02 -1.489892452955245972e-01 8.426498621702194214e-02 1.299588084220886230e-01 1.143846529885195196e-04 8.378205448389053345e-02 -1.090088859200477600e-01 -1.376036703586578369e-01 -2.265750616788864136e-02 9.444173425436019897e-02 -5.373975262045860291e-02 8.417388051748275757e-02 6.821721792221069336e-02 7.290229201316833496e-02 1.037711054086685181e-01 1.311726868152618408e-01 1.125199705711565912e-04 3.787533193826675415e-02 8.242058008909225464e-02 4.155290871858596802e-02 4.864041507244110107e-02 1.383633464574813843e-01 3.963640704751014709e-02 2.844076976180076599e-02 2.118675038218498230e-02 -7.439156621694564819e-02 7.211758755147457123e-03 -1.711721159517765045e-02 -2.778781652450561523e-01 -2.663798630237579346e-01 5.049574002623558044e-02 -5.369824357330799103e-04 -1.441685017198324203e-02 7.247938960790634155e-02 -1.264348179101943970e-01 -4.746922478079795837e-02 -1.078119352459907532e-01 -3.409367799758911133e-02 -6.759995967149734497e-02 8.641605079174041748e-02 -1.598060945980250835e-03 -9.663610160350799561e-02 -5.358245596289634705e-02 -8.025100827217102051e-02 -8.821897208690643311e-02 -2.389112859964370728e-01 -1.150955706834793091e-01 -4.903313703835010529e-03 9.120588749647140503e-02 3.083962202072143555e-02 -6.998523324728012085e-02 -8.590522408485412598e-02 -1.391363888978958130e-01 -8.828482031822204590e-02 -2.597912587225437164e-02 -1.690555363893508911e-01 -3.866020441055297852e-01 -4.476573765277862549e-01 -2.171616069972515106e-02 4.078441485762596130e-02 8.757106028497219086e-03 4.048428311944007874e-02 -1.424989849328994751e-01 -1.609304994344711304e-01 -1.414952874183654785e-01 -1.318384259939193726e-01 -1.129536852240562439e-01 4.199428949505090714e-03 -1.160786524415016174e-01 -2.439933717250823975e-01 -2.613522708415985107e-01 -2.951203286647796631e-01 -4.857872724533081055e-01 -3.822555541992187500e-01 -2.125796526670455933e-01 -3.920942544937133789e-03 9.826059639453887939e-02 1.374400407075881958e-02 -1.138770431280136108e-01 -1.589643061161041260e-01 -1.367526352405548096e-01 -8.104411512613296509e-02 -6.271083652973175049e-02 -2.161883413791656494e-01 -2.526627480983734131e-01 -1.794047355651855469e-01 -1.614210158586502075e-01 -9.302812814712524414e-02 2.825122699141502380e-02 2.158493250608444214e-01 -9.444514662027359009e-02 -2.005810141563415527e-01 -1.600596904754638672e-01 -2.069011628627777100e-01 -2.268210053443908691e-01 -3.425869643688201904e-01 -3.921298682689666748e-01 -4.692625403404235840e-01 -4.068877995014190674e-01 -3.734329342842102051e-01 -4.906485378742218018e-01 -2.576909959316253662e-01 -3.684703633189201355e-02 2.881318330764770508e-02 -3.643824532628059387e-02 -9.505455195903778076e-02 -1.507563740015029907e-01 -6.620075553655624390e-02 2.567751146852970123e-02 3.961027599871158600e-03 8.864467963576316833e-03 -2.582257091999053955e-01 -3.022805750370025635e-01 -2.724408507347106934e-01 -4.299196898937225342e-01 -1.099529210478067398e-02 2.550546778365969658e-03 -1.962756738066673279e-02 -1.411404013633728027e-01 -2.438117265701293945e-01 -2.370702028274536133e-01 -2.953204512596130371e-01 -4.479002952575683594e-01 -6.558497548103332520e-01 -5.701798200607299805e-01 -5.664331316947937012e-01 -2.672342061996459961e-01 -1.651087105274200439e-01 -4.465254768729209900e-02 1.432786583900451660e-01 1.371320188045501709e-01 3.726260736584663391e-02 4.143406078219413757e-02 -6.925714015960693359e-02 -6.266904622316360474e-02 -1.096250582486391068e-02 6.966766715049743652e-02 4.799693450331687927e-02 -2.512643113732337952e-02 -2.166613787412643433e-01 -1.811049878597259521e-01 -3.771631792187690735e-02 -1.390873640775680542e-01 1.433707773685455322e-01 -3.128389653284102678e-04 -5.535471253097057343e-03 -1.038945466279983521e-02 -3.046074211597442627e-01 -3.177140653133392334e-01 -3.418946266174316406e-01 -4.827888906002044678e-01 -5.778077244758605957e-01 -3.374151587486267090e-01 -1.426234096288681030e-01 3.151625022292137146e-02 9.341092407703399658e-02 2.186104357242584229e-01 2.154515981674194336e-01 1.059336438775062561e-01 1.087921299040317535e-02 1.045717671513557434e-01 5.216416902840137482e-03 -4.724062979221343994e-02 8.124130964279174805e-02 6.735435873270034790e-02 9.583457559347152710e-02 -5.365560203790664673e-02 -1.345146596431732178e-01 3.053278662264347076e-02 3.592516528442502022e-03 5.002404376864433289e-02 6.057070568203926086e-02 6.424695253372192383e-02 -1.050049532204866409e-02 -5.335732921957969666e-02 -1.692302823066711426e-01 -1.763866543769836426e-01 -2.196716070175170898e-01 -2.315910160541534424e-01 -1.690020263195037842e-01 -4.317518323659896851e-02 2.303109914064407349e-01 2.797299325466156006e-01 2.484812140464782715e-01 2.809225320816040039e-01 1.718333661556243896e-01 4.850385338068008423e-02 -4.186944663524627686e-02 3.225775063037872314e-02 5.269792675971984863e-02 1.038029268383979797e-01 7.415514439344406128e-02 2.613920904695987701e-02 2.711340039968490601e-02 2.025747206062078476e-03 7.189060002565383911e-02 1.400072574615478516e-01 1.092178281396627426e-02 2.747230231761932373e-01 1.526443511247634888e-01 6.960557401180267334e-02 -4.035327211022377014e-02 -6.961016356945037842e-02 5.192963406443595886e-02 5.019916221499443054e-02 1.866149343550205231e-02 -6.738993525505065918e-02 7.152350991964340210e-02 1.214513704180717468e-01 2.692206203937530518e-01 2.030291408300399780e-01 2.356353402137756348e-01 2.191047519445419312e-01 9.253961592912673950e-02 -3.319212421774864197e-02 -3.142204508185386658e-02 -4.947385936975479126e-02 4.337044432759284973e-02 1.596346348524093628e-01 1.205732002854347229e-01 2.848099172115325928e-02 -9.771848097443580627e-03 5.064025148749351501e-02 2.247279733419418335e-01 2.405491322278976440e-01 4.601978883147239685e-02 1.133277416229248047e-01 2.190073281526565552e-01 -8.947155438363552094e-03 1.702208630740642548e-02 7.773274928331375122e-02 8.495689183473587036e-02 1.292279511690139771e-01 1.941548734903335571e-01 1.256519407033920288e-01 1.689504683017730713e-01 1.734374761581420898e-01 1.753280907869338989e-01 1.633454710245132446e-01 1.949009299278259277e-01 1.218029111623764038e-01 9.994099289178848267e-02 -6.107477936893701553e-03 -9.875006973743438721e-02 -5.611791834235191345e-02 -4.675653576850891113e-02 1.057518422603607178e-01 1.322273761034011841e-01 2.357195131480693817e-02 1.118243932723999023e-01 6.893820315599441528e-02 1.795936524868011475e-01 2.790017426013946533e-01 1.528218537569046021e-01 1.611809581518173218e-01 2.315114736557006836e-01 1.373432856053113937e-02 2.744635939598083496e-02 9.343509376049041748e-02 1.417990326881408691e-01 1.152780465781688690e-02 4.636853188276290894e-02 1.318283677101135254e-01 5.919368565082550049e-02 1.312921047210693359e-01 1.396736204624176025e-01 1.611558049917221069e-01 1.859715878963470459e-01 1.000416353344917297e-01 5.589374899864196777e-02 -1.452536694705486298e-02 -5.301941186189651489e-02 -6.611563265323638916e-02 -6.606693845242261887e-03 4.665785655379295349e-02 1.115088909864425659e-01 5.499038472771644592e-02 5.869282409548759460e-02 3.032077662646770477e-02 7.678895443677902222e-02 1.439874917268753052e-01 2.897660732269287109e-01 1.655508279800415039e-01 7.017371058464050293e-02 -3.422918170690536499e-02 6.869866698980331421e-02 -2.699841931462287903e-02 2.515745162963867188e-01 -5.945147201418876648e-02 -8.067826926708221436e-02 -7.805634289979934692e-02 -3.440082818269729614e-02 3.769217804074287415e-02 9.860863536596298218e-02 1.226597279310226440e-01 7.029080390930175781e-02 1.754264086484909058e-01 6.546641141176223755e-02 -4.337651189416646957e-03 1.628582552075386047e-02 6.048659235239028931e-02 8.592955023050308228e-02 1.614120751619338989e-01 1.139674112200737000e-01 3.045859513804316521e-03 -4.546997323632240295e-02 7.613570429384708405e-03 6.262253224849700928e-02 1.489182859659194946e-01 5.349560379981994629e-01 3.848666846752166748e-01 2.463059425354003906e-01 6.672166287899017334e-02 -7.373400032520294189e-02 9.559711068868637085e-02 2.356101945042610168e-02 -1.657690405845642090e-01 -1.979409903287887573e-01 -1.543939858675003052e-01 -1.233575195074081421e-01 -8.044461905956268311e-02 3.137068822979927063e-02 5.159547924995422363e-02 1.061102598905563354e-01 1.089673340320587158e-01 9.118035435676574707e-02 1.033651158213615417e-01 6.989063322544097900e-02 5.956790968775749207e-02 1.389584243297576904e-01 1.351908147335052490e-01 4.845309630036354065e-02 -5.830460786819458008e-02 -2.670708927325904369e-04 -1.791067048907279968e-02 8.713563531637191772e-02 8.509640395641326904e-02 3.489595651626586914e-01 2.725618481636047363e-01 2.254217565059661865e-01 1.259369542822241783e-03 -1.005718633532524109e-01 1.449932307004928589e-01 1.303621083498001099e-01 -1.512834280729293823e-01 -1.004491597414016724e-01 -1.443211287260055542e-01 -6.866387277841567993e-02 -1.140996515750885010e-01 5.290671251714229584e-03 2.280659042298793793e-02 1.045962721109390259e-01 6.863632798194885254e-02 1.182798594236373901e-01 1.605382114648818970e-01 6.005141511559486389e-02 -2.538207918405532837e-02 4.278792813420295715e-02 1.100271493196487427e-01 -3.943664953112602234e-02 -1.523505710065364838e-02 2.101992629468441010e-02 -1.098585948348045349e-01 3.572823852300643921e-02 1.916963793337345123e-02 2.187526673078536987e-01 2.012117505073547363e-01 -3.103784844279289246e-02 1.982158515602350235e-03 1.548058241605758667e-01 2.500704526901245117e-01 1.494959443807601929e-01 -1.519051343202590942e-01 -6.697673350572586060e-02 -1.170850917696952820e-01 -3.450900316238403320e-02 -7.473863661289215088e-02 -7.322036474943161011e-02 -1.129689719527959824e-02 -1.674837805330753326e-02 1.218488998711109161e-02 1.560368295758962631e-02 4.805399850010871887e-02 -1.686071627773344517e-03 2.509002201259136200e-02 -5.913057550787925720e-02 4.292987287044525146e-03 3.536863252520561218e-02 -2.219863794744014740e-02 1.052724197506904602e-02 -3.544825688004493713e-02 3.946073353290557861e-02 3.620338439941406250e-02 1.993002146482467651e-01 2.225124835968017578e-01 5.968849640339612961e-03 6.933932006359100342e-02 9.956223517656326294e-02 2.348608821630477905e-01 7.711380720138549805e-02 -3.054536134004592896e-02 7.500996440649032593e-02 -1.441061198711395264e-01 -5.763739719986915588e-02 -8.390614390373229980e-02 -6.750521808862686157e-02 -5.417038127779960632e-02 -8.876278996467590332e-02 -8.399460464715957642e-02 -4.356620833277702332e-02 -4.767325520515441895e-02 -5.250268615782260895e-03 3.224352607503533363e-03 -5.863533914089202881e-02 -4.997869208455085754e-02 -2.929862774908542633e-02 3.104703873395919800e-02 -2.281358279287815094e-02 -3.393765911459922791e-02 -2.837124280631542206e-02 -9.018345922231674194e-02 5.379042401909828186e-02 3.297126293182373047e-02 9.224222972989082336e-03 -1.009909622371196747e-02 -2.140637859702110291e-02 8.644969016313552856e-02 1.054264456033706665e-01 5.973081663250923157e-02 4.603126272559165955e-02 6.395928561687469482e-02 -4.949767608195543289e-03 -8.657067269086837769e-02 -5.241030082106590271e-02 -6.532216444611549377e-03 5.792072974145412445e-03 -2.859156765043735504e-02 8.312522619962692261e-02 3.821282833814620972e-02 -1.594311557710170746e-02 -5.870849639177322388e-02 -1.789441108703613281e-01 -2.680445015430450439e-01 -1.806513667106628418e-01 -1.337881088256835938e-01 -9.670499712228775024e-02 -9.496269747614860535e-03 2.765323035418987274e-02 -5.742480233311653137e-02 7.111206650733947754e-02 1.078706532716751099e-01 2.824395149946212769e-02 -2.111235819756984711e-02 2.149385772645473480e-02 1.338646113872528076e-01 1.513156760483980179e-02 9.739717841148376465e-02 -8.114602416753768921e-02 -6.574610248208045959e-03 -5.363344028592109680e-02 -2.079156413674354553e-02 -9.939082898199558258e-03 -7.076007127761840820e-02 -1.983134821057319641e-02 1.559686008840799332e-02 2.717279642820358276e-02 5.810744315385818481e-02 -2.136712223291397095e-01 -1.591132283210754395e-01 -5.993513762950897217e-02 -2.164714485406875610e-01 -2.825654745101928711e-01 -1.364012062549591064e-01 -1.194461286067962646e-01 -1.544891446828842163e-01 -2.704747617244720459e-01 8.570151031017303467e-02 6.296704709529876709e-02 4.394191876053810120e-02 -3.334749862551689148e-02 8.588795550167560577e-03 -3.045659884810447693e-02 1.200780924409627914e-02 1.182098239660263062e-01 1.114969700574874878e-01 1.347053647041320801e-01 1.515412628650665283e-01 1.045217439532279968e-01 1.769546419382095337e-01 3.562548756599426270e-02 4.485730454325675964e-02 1.413959115743637085e-01 1.135784015059471130e-01 -2.289124950766563416e-02 -7.556110620498657227e-03 -8.759465068578720093e-02 4.651053994894027710e-02 -1.529513858258724213e-02 -1.575470715761184692e-01 -1.560292392969131470e-01 1.076110228896141052e-01 -9.384275227785110474e-02 2.937851939350366592e-03 -1.142596378922462463e-01 -8.761117607355117798e-02 2.590957283973693848e-02 3.098475933074951172e-02 -2.363411150872707367e-02 2.955479361116886139e-02 2.915734238922595978e-02 2.004534006118774414e-02 -6.052977591753005981e-02 -1.160852983593940735e-01 -2.196897119283676147e-01 -1.931131482124328613e-01 -1.206665560603141785e-01 -2.443819073960185051e-03 -1.542515121400356293e-02 1.043022423982620239e-01 6.483520381152629852e-03 -1.855807453393936157e-01 -7.776771485805511475e-02 -5.464907735586166382e-02 -3.305075690150260925e-02 -4.355823993682861328e-02 -1.064494997262954712e-01 -9.404846280813217163e-02 -1.568537205457687378e-01 -2.661702334880828857e-01 -5.048907920718193054e-02 3.430515294894576073e-03 -3.396165370941162109e-02 1.724748685956001282e-02 1.482031308114528656e-02 2.018309943377971649e-02 -2.589464373886585236e-02 -2.086266130208969116e-02 1.724826171994209290e-02 -3.282685950398445129e-02 -2.458598092198371887e-02 -1.932558976113796234e-02 1.178571721538901329e-03 1.823142357170581818e-02 1.614604145288467407e-03 5.185844749212265015e-02 1.900441199541091919e-01 2.498560249805450439e-01 1.772658228874206543e-01 -9.571626782417297363e-02 -7.627353072166442871e-02 -2.276933379471302032e-02 -1.890070270746946335e-03 -4.028379044029861689e-04 -5.511231347918510437e-02 -3.192768618464469910e-02 -2.995539084076881409e-02 4.611928015947341919e-04 -3.233900666236877441e-02 -3.467803820967674255e-03 2.213693596422672272e-02 -8.076574653387069702e-03 3.851950401440262794e-03 -1.112945191562175751e-02 -2.322052232921123505e-02
-1.565060019493103027e-02 6.539685651659965515e-03 4.703326150774955750e-03 1.685661077499389648e-02 9.802980348467826843e-03 2.292693965137004852e-02 -2.723604626953601837e-02 1.633001305162906647e-02 1.398562639951705933e-02 -2.432838641107082367e-02 4.840190988034009933e-03 3.253494203090667725e-02 4.065850377082824707e-02 7.730358280241489410e-03 -1.667816564440727234e-02 -3.220668807625770569e-02 -2.095875330269336700e-02 -1.895444816909730434e-03 3.991569858044385910e-03 -2.137574180960655212e-02 -1.055427547544240952e-02 -1.025667786598205566e-02 2.574062906205654144e-02 -1.486539957113564014e-03 -2.857151813805103302e-02 -1.369934901595115662e-02 2.139833755791187286e-02 1.605784893035888672e-02 -2.015651576220989227e-02 -2.351713366806507111e-02 1.472759339958429337e-02 -1.441593747586011887e-03 1.611371524631977081e-02 1.450997777283191681e-03 4.105512425303459167e-02 4.030617699027061462e-02 4.903672263026237488e-02 4.640624299645423889e-02 4.667068365961313248e-03 5.810545384883880615e-02 1.039296165108680725e-01 1.007777601480484009e-01 2.173589915037155151e-01 1.753952056169509888e-01 3.107053600251674652e-02 4.813966527581214905e-02 8.503130823373794556e-02 4.912029206752777100e-02 -1.252161711454391479e-02 1.103429775685071945e-02 2.977999299764633179e-02 -3.196320962160825729e-03 5.177459679543972015e-03 -2.615717984735965729e-02 2.254536002874374390e-02 1.933651790022850037e-02 1.921155303716659546e-02 1.602782681584358215e-02 6.335249170660972595e-03 1.255897283554077148e-01 1.182868704199790955e-02 4.718450829386711121e-02 5.581692606210708618e-02 3.204358369112014771e-02 1.304471772164106369e-02 -1.450790464878082275e-01 2.642687875777482986e-03 7.774031907320022583e-02 4.878143966197967529e-02 -3.655302152037620544e-02 -5.297271534800529480e-02 4.605120420455932617e-02 1.936238408088684082e-01 2.275071591138839722e-01 2.931931018829345703e-01 3.099079728126525879e-01 2.104392945766448975e-01 6.753035634756088257e-02 4.472604393959045410e-02 8.272173255681991577e-02 -8.133019320666790009e-03 7.102094590663909912e-03 1.704102009534835815e-02 6.468313280493021011e-03 -3.108984790742397308e-02 1.437107659876346588e-02 9.220910817384719849e-02 2.453093677759170532e-01 1.874647885560989380e-01 7.818659394979476929e-02 9.717532247304916382e-02 1.572555899620056152e-01 2.036924064159393311e-01 1.229218840599060059e-01 1.746643483638763428e-01 7.257837802171707153e-03 -6.330331787467002869e-03 -8.847452700138092041e-02 -9.200716763734817505e-02 1.612178534269332886e-01 -1.998744718730449677e-02 -1.477546337991952896e-02 9.754140675067901611e-02 -1.039829626679420471e-01 6.162618473172187805e-02 2.116312682628631592e-01 1.133522465825080872e-01 1.061492785811424255e-01 1.906588673591613770e-01 2.521984279155731201e-02 6.300337612628936768e-02 2.868896350264549255e-02 1.577739790081977844e-02 1.835351344197988510e-03 1.585214212536811829e-02 2.231349050998687744e-01 1.348546445369720459e-01 -1.483716536313295364e-02 -2.618732489645481110e-02 1.325645595788955688e-01 6.818456947803497314e-02 1.033893525600433350e-01 2.411531358957290649e-01 1.371115893125534058e-01 7.865054905414581299e-02 -4.904352501034736633e-02 6.681165099143981934e-02 2.111532688140869141e-01 3.040838539600372314e-01 2.354420423507690430e-01 1.827966868877410889e-01 3.211870789527893066e-02 -3.928488120436668396e-02 -7.938659191131591797e-02 4.440104588866233826e-03 3.882643207907676697e-02 6.914638727903366089e-02 1.936836987733840942e-01 2.275083586573600769e-02 1.753118587657809258e-03 -2.268426492810249329e-02 2.635673619806766510e-02 5.788273736834526062e-02 1.640704572200775146e-01 1.175453215837478638e-01 -1.004017591476440430e-01 6.614802032709121704e-02 1.076828911900520325e-01 -1.303517371416091919e-01 2.261416800320148468e-02 1.846023947000503540e-01 1.580847799777984619e-01 1.091387867927551270e-01 6.990972906351089478e-04 -6.046161428093910217e-02 4.040498286485671997e-02 2.497982084751129150e-01 2.018348723649978638e-01 1.057393029332160950e-01 4.051914811134338379e-02 1.050987169146537781e-01 -2.975575625896453857e-02 1.686397194862365723e-02 3.690132126212120056e-02 -9.485643357038497925e-03 2.130378335714340210e-01 2.004268914461135864e-01 -5.029994621872901917e-02 -1.571663469076156616e-02 7.073014974594116211e-02 3.203145787119865417e-02 -2.779704146087169647e-02 -2.588583715260028839e-02 5.473355576395988464e-02 7.252636551856994629e-02 -1.421613525599241257e-02 5.204383283853530884e-02 8.863107115030288696e-02 8.833372592926025391e-02 4.422240331768989563e-02 -4.426490515470504761e-02 7.072865497320890427e-03 5.118094384670257568e-02 5.803803354501724243e-02 8.973075449466705322e-02 2.485071308910846710e-02 1.256803702563047409e-02 1.166463568806648254e-01 7.895925641059875488e-02 -1.080433875322341919e-01 -3.491608798503875732e-02 -1.628286391496658325e-02 -3.051475869142450392e-05 2.859303355216979980e-01 1.552287936210632324e-01 1.181542687118053436e-02 8.313234138768166304e-05 7.310367375612258911e-02 -1.447261720895767212e-01 -1.424931585788726807e-01 -4.163796082139015198e-02 1.659054309129714966e-01 -1.691221632063388824e-02 -6.391929090023040771e-02 1.018367782235145569e-01 3.772138804197311401e-02 9.730747900903224945e-03 4.845891520380973816e-02 -3.967875614762306213e-02 -1.497775409370660782e-02 8.759605884552001953e-02 1.017322987318038940e-01 7.510481029748916626e-02 -4.110815376043319702e-02 -1.276102364063262939e-01 3.732477128505706787e-02 1.209592819213867188e-01 3.733511269092559814e-02 1.070727854967117310e-01 -4.810965061187744141e-02 -2.806791849434375763e-02 1.428552865982055664e-01 4.112044721841812134e-02 6.931619346141815186e-02 -1.836731284856796265e-02 -1.490111798048019409e-01 -2.010329663753509521e-01 -2.878020331263542175e-02 -6.798072718083858490e-03 7.631492614746093750e-02 1.961138658225536346e-02 3.528408333659172058e-02 1.043786481022834778e-01 1.009325385093688965e-01 4.981042072176933289e-02 7.069667428731918335e-02 -2.274597808718681335e-02 -3.273791074752807617e-02 -9.067320078611373901e-02 -1.063391491770744324e-01 -6.318824738264083862e-02 -1.010233685374259949e-01 -9.589695930480957031e-02 2.579326368868350983e-02 -4.714741371572017670e-03 -9.635413996875286102e-03 8.678805083036422729e-03 -7.088083028793334961e-02 -9.526182711124420166e-02 3.756440058350563049e-02 2.614858001470565796e-02 5.615075305104255676e-02 -3.403297811746597290e-02 -3.473686054348945618e-02 2.313571237027645111e-02 -7.297049742192029953e-03 -2.621987089514732361e-02 1.931068301200866699e-02 1.023987233638763428e-01 1.471172124147415161e-01 1.853027492761611938e-01 1.227718293666839600e-01 1.217596903443336487e-01 1.067042127251625061e-01 -9.910876303911209106e-02 -8.256806433200836182e-02 -1.182840988039970398e-01 -1.466212272644042969e-01 -1.388358622789382935e-01 -1.566052138805389404e-01 -1.145987957715988159e-01 -1.707481294870376587e-01 -2.157002091407775879e-01 -8.102982491254806519e-02 -3.007997572422027588e-02 -8.829267323017120361e-02 6.764855701476335526e-03 2.321320585906505585e-02 4.132806137204170227e-02 -1.328171114437282085e-03 -4.856516420841217041e-02 -3.896091505885124207e-02 2.309170737862586975e-02 1.308611482381820679e-01 -6.083267182111740112e-02 4.260002449154853821e-02 1.461321767419576645e-02 1.587579548358917236e-01 1.733155250549316406e-01 1.729741320013999939e-02 1.145560219883918762e-01 -1.179442508146166801e-03 -1.834944076836109161e-02 -4.871975257992744446e-02 3.922934830188751221e-02 -3.280829265713691711e-02 -9.865702129900455475e-03 -6.953603029251098633e-02 -6.435577291995286942e-03 -8.172754198312759399e-02 -1.094555407762527466e-01 -2.457372993230819702e-01 -3.819982111454010010e-01 -2.706672847270965576e-01 -1.651506125926971436e-01 2.490545623004436493e-02 5.520389974117279053e-02 -1.165534462779760361e-02 -8.598034083843231201e-02 -1.123488917946815491e-01 -2.292155623435974121e-01 -6.270231306552886963e-02 -1.736483573913574219e-01 -1.115686520934104919e-01 -3.409000858664512634e-02 -2.683055773377418518e-02 8.701150305569171906e-03 -9.634485468268394470e-03 1.089167594909667969e-02 4.914464429020881653e-02 1.695383489131927490e-01 1.544290632009506226e-01 1.967791318893432617e-01 1.236306056380271912e-01 6.303751468658447266e-02 5.781717225909233093e-02 5.378880724310874939e-02 -3.792911767959594727e-02 -3.035605140030384064e-02 -2.015665769577026367e-01 -2.913110554218292236e-01 -3.992920815944671631e-01 -2.362556159496307373e-01 -1.823128573596477509e-02 6.433661282062530518e-02 -6.898898282088339329e-04 1.059798337519168854e-02 -1.171180158853530884e-01 -2.740229368209838867e-01 -1.472370028495788574e-01 -2.958232462406158447e-01 -8.977425098419189453e-02 -3.402708098292350769e-02 -7.397103309631347656e-02 -2.440869808197021484e-02 -1.405801437795162201e-02 9.090615808963775635e-02 1.276451647281646729e-01 1.933209449052810669e-01 2.047816365957260132e-01 2.570187151432037354e-01 8.884327858686447144e-02 -1.147870556451380253e-03 1.270406544208526611e-01 4.543218389153480530e-02 -8.093529380857944489e-03 -2.996186539530754089e-02 -7.049194723367691040e-02 -1.595936864614486694e-01 -1.696952581405639648e-01 -3.632824718952178955e-01 -1.814845055341720581e-01 1.142989564687013626e-02 -3.340934589505195618e-02 1.498137712478637695e-01 -3.620620816946029663e-02 -2.025480121374130249e-01 -1.656385362148284912e-01 -3.761078715324401855e-01 -1.299047470092773438e-01 -1.372570991516113281e-01 -4.192005470395088196e-02 7.716086693108081818e-03 -6.994283944368362427e-02 -2.439084649085998535e-02 7.010307908058166504e-02 1.937606036663055420e-01 1.849008053541183472e-01 1.522618979215621948e-01 4.285728931427001953e-02 9.577566385269165039e-02 1.155904158949851990e-01 8.264072984457015991e-02 8.270369470119476318e-02 -7.779575884342193604e-02 -1.039533466100692749e-01 -9.548152983188629150e-02 1.081804651767015457e-02 -3.591801272705197334e-03 -1.789940595626831055e-01 -8.108214288949966431e-02 -3.752255812287330627e-02 4.721653833985328674e-02 -2.519667893648147583e-02 -6.319208443164825439e-02 -1.831787228584289551e-01 -4.918771684169769287e-01 -5.213211178779602051e-01 -1.997251212596893311e-01 -1.159264892339706421e-01 -1.921539008617401123e-01 -1.418821066617965698e-01 -1.292805224657058716e-01 -3.820766136050224304e-02 -3.382564987987279892e-03 8.082858473062515259e-02 1.487902700901031494e-01 3.540924936532974243e-02 1.001866534352302551e-01 1.154121831059455872e-01 5.668778344988822937e-02 -9.841524809598922729e-02 -1.500017642974853516e-01 -9.066474437713623047e-02 -8.178476244211196899e-02 -3.305207565426826477e-02 4.434241726994514465e-02 -5.647959932684898376e-02 -2.434259047731757164e-03 -1.087027043104171753e-01 -2.180715277791023254e-02 3.787661343812942505e-02 8.815383166074752808e-02 -2.271811962127685547e-01 -3.192370235919952393e-01 -6.177259087562561035e-01 -2.399614006280899048e-01 -2.441327422857284546e-01 -2.065029740333557129e-01 -2.106529176235198975e-01 -2.185029238462448120e-01 -1.399777233600616455e-01 -4.712437465786933899e-02 7.538764923810958862e-02 1.255384385585784912e-01 -5.052526295185089111e-02 9.402032196521759033e-02 8.286312967538833618e-02 7.162019610404968262e-02 3.650224581360816956e-02 -9.615670144557952881e-02 4.723005369305610657e-02 -1.063889171928167343e-02 1.484409272670745850e-01 1.902693659067153931e-01 1.414661854505538940e-01 4.412467032670974731e-02 -6.247486919164657593e-02 -1.184328868985176086e-01 1.090867966413497925e-01 4.802813008427619934e-02 -9.735944122076034546e-02 -2.106381654739379883e-01 -2.609505653381347656e-01 -1.733460873365402222e-01 -1.927168518304824829e-01 -2.103541493415832520e-01 -3.002651929855346680e-01 -3.602835536003112793e-01 -2.813775539398193359e-01 -1.592944413423538208e-01 2.611585333943367004e-02 -3.681305423378944397e-02 -3.957064449787139893e-02 5.432955175638198853e-02 -1.519833598285913467e-02 1.039851680397987366e-01 1.126982420682907104e-01 1.907614618539810181e-02 8.208598196506500244e-02 1.774324923753738403e-01 2.888639271259307861e-01 1.446140557527542114e-01 1.891280263662338257e-01 -6.203421950340270996e-02 -5.502026900649070740e-02 3.372149169445037842e-02 9.397611021995544434e-02 -7.018730975687503815e-03 3.355089128017425537e-01 -4.873120412230491638e-02 -2.120324596762657166e-02 -4.387797787785530090e-02 -5.246546864509582520e-02 -1.313356608152389526e-01 -3.377549350261688232e-01 -4.360208213329315186e-01 -4.889766871929168701e-01 -3.944834470748901367e-01 -2.160650044679641724e-01 -1.371075958013534546e-01 -7.121129333972930908e-02 1.162395533174276352e-02 1.083750836551189423e-02 1.588505208492279053e-01 1.675733774900436401e-01 1.079761683940887451e-01 1.430461406707763672e-01 1.042255088686943054e-01 7.238845527172088623e-02 -4.204877465963363647e-02 -2.790113687515258789e-01 -3.038680255413055420e-01 -5.417616665363311768e-02 -7.503907382488250732e-02 3.007525205612182617e-02 -7.537323981523513794e-02 4.541803002357482910e-01 2.306793034076690674e-01 9.307952225208282471e-02 8.027826994657516479e-02 -1.204534918069839478e-01 -1.649404019117355347e-01 -2.459271401166915894e-01 -3.098179399967193604e-01 -3.859879076480865479e-01 -3.271573781967163086e-01 -2.057995796203613281e-01 -1.403205096721649170e-01 -9.009225666522979736e-02 4.484324529767036438e-02 9.522169083356857300e-02 2.917822822928428650e-02 1.832734495401382446e-01 1.782317161560058594e-01 9.150197356939315796e-02 -5.634256638586521149e-03 2.049727179110050201e-02 -3.341805189847946167e-02 -1.678512990474700928e-01 -3.266130685806274414e-01 -8.336085081100463867e-02 4.235472902655601501e-02 -2.195191532373428345e-01 -3.720576316118240356e-02 3.879639506340026855e-01 3.048820197582244873e-01 2.243022173643112183e-01 8.568896353244781494e-02 -7.002008706331253052e-02 -4.936504364013671875e-02 -3.926942870020866394e-02 -2.223936282098293304e-02 -1.352171748876571655e-01 -1.909801065921783447e-01 -1.340717971324920654e-01 -1.678472906351089478e-01 -4.017767310142517090e-02 1.219715401530265808e-01 8.670162409543991089e-02 1.441470980644226074e-01 1.457875519990921021e-01 1.445750296115875244e-01 8.885709941387176514e-02 5.966024100780487061e-02 9.609250724315643311e-02 -3.047229908406734467e-02 -6.261722743511199951e-02 -3.540012612938880920e-02 -1.007447838783264160e-01 2.875216677784919739e-02 -4.285078495740890503e-02 -7.185605168342590332e-02 2.614570260047912598e-01 1.689893901348114014e-01 2.103678584098815918e-01 1.035414114594459534e-01 -1.460282504558563232e-02 1.337269693613052368e-01 1.776523441076278687e-01 1.752679198980331421e-01 7.057350873947143555e-02 -1.099646389484405518e-01 -4.523532465100288391e-02 -1.061729937791824341e-01 -4.512709751725196838e-02 7.970253378152847290e-02 1.041683480143547058e-01 1.382844001054763794e-01 1.428014934062957764e-01 1.291708201169967651e-01 1.104066893458366394e-01 1.627019047737121582e-01 1.173445507884025574e-01 -7.204829901456832886e-02 -1.663392782211303711e-01 -5.465855449438095093e-02 2.939991280436515808e-02 6.392692029476165771e-02 4.472572822123765945e-03 -1.184994876384735107e-01 1.311862170696258545e-01 2.667615413665771484e-01 1.513092666864395142e-01 1.013083010911941528e-01 1.860382705926895142e-01 2.332231998443603516e-01 2.997080683708190918e-01 1.354723572731018066e-01 9.918873012065887451e-02 8.546787500381469727e-02 2.521647140383720398e-02 8.818522095680236816e-03 -5.548454076051712036e-02 -4.222508519887924194e-02 6.996697187423706055e-02 1.286653131246566772e-01 1.035550534725189209e-01 1.685418337583541870e-01 7.235126942396163940e-02 1.947029531002044678e-01 -2.704772166907787323e-02 -1.112798303365707397e-01 -1.348858475685119629e-01 -7.625246047973632812e-02 -1.442521112039685249e-03 6.523480266332626343e-02 4.130197688937187195e-02 -3.588487207889556885e-02 1.569710671901702881e-01 1.999930143356323242e-01 3.263685107231140137e-02 -2.423582971096038818e-02 1.630452275276184082e-01 1.236279830336570740e-01 2.700659446418285370e-02 8.764965832233428955e-02 7.595247030258178711e-02 4.283022880554199219e-02 7.416787743568420410e-02 -4.074555262923240662e-02 -7.744421064853668213e-02 4.204699769616127014e-02 9.293716400861740112e-02 4.477669019252061844e-03 6.415535509586334229e-02 9.870693087577819824e-02 6.785620003938674927e-02 1.582828760147094727e-01 2.506729215383529663e-02 -2.023472934961318970e-01 -2.198479473590850830e-01 4.253270849585533142e-02 -1.069828635081648827e-03 -2.402787655591964722e-02 -2.311798185110092163e-02 1.666707545518875122e-01 3.068006634712219238e-01 2.315339595079421997e-01 1.279025673866271973e-01 5.434531718492507935e-02 8.494566380977630615e-02 9.836357086896896362e-02 1.792982779443264008e-02 9.216900914907455444e-02 8.419165015220642090e-02 1.213185265660285950e-01 5.583268776535987854e-02 7.679173722863197327e-03 -7.471009157598018646e-03 9.492561966180801392e-02 -8.925008587539196014e-03 2.952480874955654144e-02 -5.337620526552200317e-02 1.013649329543113708e-01 1.026450619101524353e-01 1.554999500513076782e-01 -4.577672481536865234e-02 -6.793006509542465210e-02 -1.298444569110870361e-01 1.230895668268203735e-01 1.299045793712139130e-02 -1.720500877127051353e-03 -1.829966157674789429e-02 -1.509389560669660568e-02 2.626282870769500732e-01 7.957551628351211548e-02 2.168437698855996132e-03 8.502454310655593872e-02 9.481730312108993530e-02 6.676597148180007935e-02 4.381325840950012207e-02 1.579764671623706818e-02 4.132865369319915771e-02 1.161695644259452820e-01 -5.462624505162239075e-02 -7.751759141683578491e-02 -7.399128377437591553e-02 5.976603180170059204e-02 -3.552405908703804016e-02 -1.018363609910011292e-01 -1.610569953918457031e-01 -3.313425183296203613e-02 2.650504931807518005e-02 1.001332253217697144e-01 4.128943756222724915e-02 3.876132145524024963e-02 -1.108753457665443420e-01 -9.829114377498626709e-02 3.824115032330155373e-03 -2.416728250682353973e-02 -3.402307629585266113e-02 7.490409910678863525e-02 -6.190313957631587982e-03 -6.066538393497467041e-02 3.923624381422996521e-02 1.234509870409965515e-01 1.369402855634689331e-01 8.637217432260513306e-02 1.724805235862731934e-01 2.875546514987945557e-01 1.106887310743331909e-01 2.059635221958160400e-01 1.408881843090057373e-01 8.826380968093872070e-02 4.382504522800445557e-02 7.904183864593505859e-02 -1.758856698870658875e-02 -7.097437232732772827e-02 1.454877573996782303e-02 1.265258938074111938e-01 1.107578128576278687e-01 2.239578664302825928e-01 1.424945145845413208e-01 9.688032418489456177e-02 5.036107823252677917e-02 -1.950235478579998016e-02 -2.139002084732055664e-03 -9.056496433913707733e-03 -1.480590086430311203e-02 -2.567578293383121490e-02 9.618197381496429443e-02 1.695879697799682617e-01 -1.039903163909912109e-01 -1.176047697663307190e-01 2.088451012969017029e-02 -7.036373019218444824e-02 1.230266168713569641e-01 1.334043741226196289e-01 8.168711513280868530e-02 -5.182192474603652954e-02 -1.482662260532379150e-01 -5.317113175988197327e-02 -2.425350807607173920e-02 -7.272336515597999096e-04 -5.102581344544887543e-03 -2.192859537899494171e-02 -2.851068079471588135e-01 -1.890246868133544922e-01 -8.798492699861526489e-02 -5.616268515586853027e-02 9.731093049049377441e-02 -1.334137190133333206e-02 2.902244776487350464e-02 -8.335893042385578156e-03 8.047032169997692108e-03 -1.109349820762872696e-02 -3.434045985341072083e-02 1.187118515372276306e-02 -8.292666636407375336e-03 4.599516279995441437e-03 -3.083359450101852417e-02 3.906893078237771988e-03 -9.526111930608749390e-02 -1.417299360036849976e-01 -2.221999466419219971e-01 -3.288363516330718994e-01 -2.201911360025405884e-01 -2.281341403722763062e-01 -3.062632679939270020e-01 -1.013654842972755432e-02 1.346134990453720093e-01 -1.779342815279960632e-02 -3.025541007518768311e-01 -4.101878404617309570e-02 -1.982951164245605469e-01 -2.708454430103302002e-01 -1.295392066240310669e-01 -1.216620355844497681e-01 2.397456439211964607e-03 -2.006779424846172333e-02 1.989736407995223999e-02 9.154511615633964539e-03 -1.534940116107463837e-02
