-3.675544857978820801e-01 -1.381064057350158691e-01 3.421387970447540283e-01 -8.198256045579910278e-02 -5.477508306503295898e-01 -3.602793216705322266e-01 -1.430883705615997314e-01 1.437550485134124756e-01 2.622991800308227539e-01 1.941920816898345947e-01 9.492161683738231659e-03 -5.772976577281951904e-02 4.518869519233703613e-02 -9.665353596210479736e-02 1.308811902999877930e-01 1.256141811609268188e-01 1.468336135149002075e-01 -7.807850092649459839e-02 2.747936844825744629e-01 1.191191747784614563e-01 -1.658293902873992920e-01 9.142753481864929199e-02 1.320514380931854248e-01 1.368821859359741211e-01 2.327125668525695801e-01 -2.132675796747207642e-01 -3.554298579692840576e-01 6.989464163780212402e-03 -3.830359280109405518e-01 2.954271063208580017e-02 1.781325191259384155e-01 1.290834099054336548e-01 -1.609290391206741333e-01 1.447358876466751099e-01 -3.108133077621459961e-01 -1.304665803909301758e-01 2.776829898357391357e-01 -1.771343052387237549e-01 2.437836825847625732e-01 1.295235157012939453e-01 -4.071635305881500244e-01 -3.650509417057037354e-01 1.622352302074432373e-01 -4.289830029010772705e-01 1.289038658142089844e-01 -2.693706154823303223e-01 -7.047914862632751465e-01 -2.306415140628814697e-01 1.361127644777297974e-01 -2.523202598094940186e-01 -2.315327227115631104e-01 2.130409479141235352e-01 -7.351781427860260010e-02 -2.890858948230743408e-01 -1.530042439699172974e-01 9.143447875976562500e-02 1.556614413857460022e-02 6.386249512434005737e-02 -1.921216249465942383e-01 1.229191869497299194e-01 -2.067966759204864502e-02 -1.832975298166275024e-01 -2.042907625436782837e-01 -2.253822833299636841e-01 1.415525227785110474e-01 1.600435823202133179e-01 -4.699131250381469727e-01 1.182580739259719849e-01 -3.617046475410461426e-01 1.295858770608901978e-01 9.270826727151870728e-02 8.778043091297149658e-02 -3.720507025718688965e-01 -5.907042026519775391e-01 2.185887470841407776e-02 1.268303394317626953e-01 1.327326148748397827e-01 2.275508642196655273e-01 1.690506935119628906e-01 -4.060092270374298096e-01 3.634607652202248573e-03 -2.028010189533233643e-01 -1.160548552870750427e-01 -1.818289309740066528e-01 1.136621758341789246e-01 -4.158295989036560059e-01 -1.402053833007812500e-01 -1.863334476947784424e-01 -2.601080834865570068e-01 1.091048792004585266e-01 1.531281024217605591e-01 1.847560852766036987e-01 1.091672182083129883e-01 -4.517684578895568848e-01 2.185786068439483643e-01 1.191303506493568420e-02 1.691448986530303955e-01 -4.021263495087623596e-02 3.771124035120010376e-02 -2.417376041412353516e-01 -1.632805913686752319e-01 3.415262699127197266e-02 2.744316160678863525e-01 -2.002149634063243866e-02 8.036495000123977661e-02 -8.916383236646652222e-02 8.338759094476699829e-02 1.767377406358718872e-01 -1.878190599381923676e-02 -1.049024634994566441e-03 -1.930638998746871948e-01 -2.871787250041961670e-01 5.921071022748947144e-02 -6.015457510948181152e-01 1.531656682491302490e-01 2.178211510181427002e-02 1.160313263535499573e-01 -2.308407127857208252e-01 -4.230200350284576416e-01 -4.845100641250610352e-01 -9.574544429779052734e-02 6.051409617066383362e-02 1.806659102439880371e-01 1.544105857610702515e-01 -4.111704602837562561e-02 9.705587476491928101e-02 -3.721163868904113770e-01 -1.635866165161132812e-01
-2.523445524275302887e-02 -1.558067947626113892e-01 -4.385026544332504272e-02 1.939914226531982422e-01 -3.668121621012687683e-02 -2.990256249904632568e-01 -5.951257348060607910e-01 2.156076580286026001e-02 1.717363297939300537e-01 9.698355942964553833e-02 -1.700340211391448975e-01 1.245424225926399231e-01 -1.487044095993041992e-01 -2.975478470325469971e-01 -2.971757948398590088e-02 2.807106077671051025e-01 -4.621807634830474854e-01 -2.364898771047592163e-01 2.308832705020904541e-01 2.793249487876892090e-02 -8.534546941518783569e-02 8.595366030931472778e-02 -2.841902077198028564e-01 2.478409558534622192e-01 -2.782268226146697998e-01 3.565640449523925781e-01 2.087605148553848267e-01 -1.257546544075012207e-01 1.532627642154693604e-01 -2.204085588455200195e-01 2.694403529167175293e-01 -1.431047022342681885e-01 1.195674017071723938e-01 -9.503930062055587769e-02 -3.885162174701690674e-01 2.274001985788345337e-01 -3.671242594718933105e-01 -1.479446291923522949e-01 1.838760524988174438e-01 -9.209749102592468262e-02 -3.402746981009840965e-03 -4.088611304759979248e-01 -3.593082129955291748e-01 2.563073933124542236e-01 -1.272834837436676025e-01 1.755429506301879883e-01 -2.613130509853363037e-01 1.544606387615203857e-01 6.116465479135513306e-02 -7.451965659856796265e-02 5.407362431287765503e-02 1.280386894941329956e-01 9.306210279464721680e-02 -2.987394928932189941e-01 1.725478470325469971e-01 -7.945389300584793091e-02 -8.462337404489517212e-02 -9.480074979364871979e-03 -6.304457783699035645e-02 1.096260622143745422e-01 2.869808487594127655e-02 2.055852860212326050e-02 1.157930195331573486e-01 -6.119673140347003937e-03 -4.669699072837829590e-01 -1.993867605924606323e-01 3.947613239288330078e-01 2.993977665901184082e-01 1.226402968168258667e-01 -5.633797645568847656e-01 3.895807266235351562e-01 -2.207799851894378662e-01 1.516494601964950562e-01 -6.901214271783828735e-02 3.087025284767150879e-01 6.964455246925354004e-01 1.231699138879776001e-01 2.332762032747268677e-01 -2.120089679956436157e-01 -2.842234671115875244e-01 -2.482081651687622070e-01 2.786651253700256348e-01 5.924046784639358521e-02 8.754549175500869751e-02 -2.409708201885223389e-01 -1.131597608327865601e-01 1.275868564844131470e-01 3.281993791460990906e-02 -3.690351843833923340e-01 -1.804492063820362091e-02 -9.200602769851684570e-02 -3.880682215094566345e-02 5.601064562797546387e-01 7.720830291509628296e-02 1.706333011388778687e-01 1.285771876573562622e-01 -2.526863515377044678e-01 -1.827502995729446411e-01 -5.256802588701248169e-02 1.114174053072929382e-01 5.295020528137683868e-03 -2.549261748790740967e-01 5.200535058975219727e-02 9.591840207576751709e-02 -3.576630651950836182e-01 1.286625564098358154e-01 -5.090708136558532715e-01 1.972608864307403564e-01 -3.716944754123687744e-01 4.914714023470878601e-03 -7.250193506479263306e-02 4.107713401317596436e-01 -5.858637094497680664e-01 8.926045894622802734e-02 -4.018447920680046082e-02 -9.563937783241271973e-02 -3.099049627780914307e-01 3.773872554302215576e-02 -3.477663099765777588e-01 -6.670476496219635010e-02 -5.754820629954338074e-02 1.265290975570678711e-01 -2.335666865110397339e-01 -2.596473693847656250e-01 3.787982836365699768e-02 1.244696676731109619e-01 -3.184325397014617920e-01 -3.874903917312622070e-01
2.383970618247985840e-01 -9.458104521036148071e-02 2.441449761390686035e-01 2.799280881881713867e-01 -4.580725729465484619e-02 2.649999558925628662e-01 -2.073290795087814331e-01 2.370682954788208008e-01 -3.662679493427276611e-01 1.901345103979110718e-01 -3.948992118239402771e-02 8.488206192851066589e-03 -1.721922755241394043e-01 -1.850711703300476074e-01 1.404213756322860718e-01 -1.243645921349525452e-01 -2.006957530975341797e-01 4.466439783573150635e-02 8.763832598924636841e-02 -6.697261333465576172e-02 3.324589133262634277e-02 -6.595032811164855957e-01 9.795495122671127319e-02 -2.951899468898773193e-01 2.218331843614578247e-01 -2.805860340595245361e-01 1.873764991760253906e-01 6.333006173372268677e-02 1.434264779090881348e-01 1.162880435585975647e-01 -1.195890456438064575e-01 6.726671755313873291e-02 -3.525783717632293701e-01 6.369645893573760986e-02 2.136142104864120483e-01 -1.052336990833282471e-01 1.317905187606811523e-01 -2.850963920354843140e-02 2.447483837604522705e-01 3.526436164975166321e-02 -4.346816241741180420e-01 -6.824330985546112061e-02 -1.896210163831710815e-01 1.776603236794471741e-02 5.187231674790382385e-02 8.817936480045318604e-02 -1.769698560237884521e-01 4.811471402645111084e-01 1.611404567956924438e-01 -3.742191940546035767e-02 2.261328743770718575e-03 -5.392705202102661133e-01 5.460257828235626221e-02 3.208977282047271729e-01 1.087431907653808594e-01 1.089652106165885925e-01 1.271805316209793091e-01 6.847419589757919312e-02 -9.929051250219345093e-02 1.601761393249034882e-02 -4.648069292306900024e-02 6.613465398550033569e-02 1.054117679595947266e-01 -4.471554234623908997e-02 3.489245176315307617e-01 8.792148530483245850e-02 -5.094121098518371582e-01 2.930056154727935791e-01 1.718256175518035889e-01 -1.961970031261444092e-01 2.660866640508174896e-02 6.407124549150466919e-02 5.452177673578262329e-02 -3.970982730388641357e-01 -3.627188131213188171e-02 -1.575423479080200195e-01 1.420087516307830811e-01 2.971263825893402100e-01 -1.821183040738105774e-02 -1.103115305304527283e-01 -5.719130858778953552e-02 2.385821640491485596e-01 1.677467375993728638e-01 6.536024063825607300e-02 -5.311560034751892090e-01 5.117942765355110168e-02 -5.264914631843566895e-01 6.782720983028411865e-02 3.102964255958795547e-03 -3.126747012138366699e-01 1.508931368589401245e-01 3.995071724057197571e-02 1.320937275886535645e-01 1.087872758507728577e-01 2.453962415456771851e-01 1.999357640743255615e-01 -9.817760437726974487e-02 1.360708568245172501e-02 -5.662814527750015259e-02 -2.268511056900024414e-02 -1.149878054857254028e-01 -5.302603542804718018e-02 6.635072827339172363e-02 -9.153162688016891479e-02 -1.852789707481861115e-02 1.248143166303634644e-01 1.073756963014602661e-01 1.573736965656280518e-01 -9.650444984436035156e-02 -1.719841361045837402e-01 1.696597784757614136e-01 4.945796355605125427e-02 -2.174030840396881104e-01 1.427442282438278198e-01 1.854493468999862671e-01 -1.231552287936210632e-01 1.647745072841644287e-02 -6.705574989318847656e-01 1.449417322874069214e-01 -2.487488538026809692e-01 -6.180186867713928223e-01 9.826330095529556274e-02 -7.511806488037109375e-02 5.819068849086761475e-02 1.621830016374588013e-01 1.180550232529640198e-01 -1.309931576251983643e-01 1.021529287099838257e-01
2.437062114477157593e-01 5.310461670160293579e-02 -5.986237898468971252e-02 1.459693610668182373e-01 1.267710179090499878e-01 -2.159100212156772614e-02 -5.912300571799278259e-02 -2.235523462295532227e-01 -1.004408523440361023e-01 8.385991305112838745e-02 1.249235570430755615e-01 -4.982526600360870361e-02 7.841193675994873047e-02 1.559431999921798706e-01 -1.469330489635467529e-01 -6.055094599723815918e-01 1.334631294012069702e-01 6.109463050961494446e-02 -3.912804126739501953e-01 -2.894850447773933411e-03 -1.702044010162353516e-01 1.463315188884735107e-01 6.020338088274002075e-02 -1.963184922933578491e-01 4.911661520600318909e-02 1.806842237710952759e-01 6.311276555061340332e-02 1.641652435064315796e-01 7.455406337976455688e-02 1.024178415536880493e-01 -7.372657209634780884e-02 -1.138846874237060547e-01 3.220933675765991211e-02 9.276114404201507568e-02 2.711978852748870850e-01 -2.608877122402191162e-01 4.093994945287704468e-02 1.019324138760566711e-01 -4.286461770534515381e-01 1.950079798698425293e-01 -4.858443979173898697e-03 3.778145909309387207e-01 1.539055556058883667e-01 1.429457217454910278e-01 -1.188029274344444275e-01 1.528398096561431885e-01 -2.510653138160705566e-01 -3.648709058761596680e-01 9.677435457706451416e-02 -1.466715037822723389e-01 5.407750606536865234e-02 -2.440997958183288574e-01 -1.415613759309053421e-02 4.556560516357421875e-01 -1.644995957612991333e-01 2.510250210762023926e-01 1.354243606328964233e-01 -7.491952180862426758e-02 1.133118793368339539e-01 -2.991707623004913330e-01 1.724504306912422180e-02 1.278394460678100586e-01 2.616482675075531006e-01 8.388293534517288208e-02 -1.533183455467224121e-01 -2.154091894626617432e-01 2.099599391222000122e-01 -5.515116453170776367e-02 -6.637094914913177490e-02 -1.988643854856491089e-01 -4.754116535186767578e-01 -2.548591196537017822e-01 -5.081381797790527344e-01 2.680644094944000244e-01 -6.863666176795959473e-01 5.943422019481658936e-02 -1.536882296204566956e-02 -3.553725779056549072e-01 1.648735404014587402e-01 6.150004267692565918e-02 2.415215522050857544e-01 -7.690630555152893066e-01 -1.250479966402053833e-01 1.689693331718444824e-01 -2.301911562681198120e-01 2.151080965995788574e-01 -2.993883099406957626e-03 -4.551084339618682861e-02 6.426691543310880661e-03 4.538364708423614502e-02 5.956515669822692871e-02 8.556818217039108276e-02 6.111816689372062683e-02 3.001432716846466064e-01 1.670686304569244385e-01 3.703240677714347839e-02 1.615898609161376953e-01 6.330515444278717041e-02 4.564340692013502121e-03 9.143467992544174194e-02 1.842459887266159058e-01 5.741545930504798889e-02 -7.373400032520294189e-02 8.088980615139007568e-02 6.530883163213729858e-02 -5.777589082717895508e-01 5.575081333518028259e-02 -2.930359542369842529e-01 -4.452563077211380005e-02 -4.524058997631072998e-01 -3.297891914844512939e-01 3.144507706165313721e-01 -4.604860544204711914e-01 1.948631405830383301e-01 4.321052134037017822e-02 -4.775175452232360840e-01 1.677567511796951294e-02 -5.313799977302551270e-01 -2.993368357419967651e-02 9.519164450466632843e-03 3.127542436122894287e-01 -1.266621947288513184e-01 -2.849259078502655029e-01 -6.970375776290893555e-03 -2.625925652682781219e-02 -2.048938870429992676e-01 -4.686662554740905762e-02 3.632982373237609863e-01
-2.248498201370239258e-01 7.923471927642822266e-02 -2.713034749031066895e-01 -1.171452403068542480e-01 -8.714733645319938660e-03 -9.070474654436111450e-02 -8.544321060180664062e-01 2.090685218572616577e-01 1.805965453386306763e-01 -4.742855727672576904e-01 -2.115325778722763062e-01 5.605422332882881165e-02 1.384921818971633911e-01 4.489830136299133301e-02 -3.512671291828155518e-01 3.459520041942596436e-01 -8.105878531932830811e-02 1.304022222757339478e-01 1.254804134368896484e-01 -4.640351533889770508e-01 1.147915124893188477e-01 -2.830730974674224854e-01 -1.690682605840265751e-03 1.692007035017013550e-01 -5.050101876258850098e-01 1.996654421091079712e-01 -5.122652053833007812e-01 -5.238487124443054199e-01 -2.156546562910079956e-01 -3.877949118614196777e-01 -2.499425411224365234e-01 -2.010650336742401123e-01 -8.494871109724044800e-02 2.182876169681549072e-01 2.648490667343139648e-02 -7.922826707363128662e-02 -4.021508693695068359e-01 -6.267755758017301559e-03 -3.300509601831436157e-02 -6.054807901382446289e-01 1.270018368959426880e-01 5.653963610529899597e-02 2.284404262900352478e-02 3.681174516677856445e-01 7.012478262186050415e-02 9.397458285093307495e-02 2.189155519008636475e-01 -8.884671330451965332e-02 -6.394817233085632324e-01 2.797224819660186768e-01 1.540495902299880981e-01 2.186848819255828857e-01 2.004144713282585144e-02 -6.917869448661804199e-01 -1.608233004808425903e-01 1.122597530484199524e-01 3.045574948191642761e-02 -1.279640849679708481e-02 1.707274764776229858e-01 -5.430538654327392578e-01 6.775297224521636963e-02 6.570550799369812012e-02 7.939289510250091553e-02 8.996351808309555054e-02 2.225253498181700706e-03 1.771960034966468811e-02 -3.074131906032562256e-02 -2.522975206375122070e-01 2.308114171028137207e-01 2.097519487142562866e-02 1.803769767284393311e-01 -1.689581871032714844e-01 -6.691412627696990967e-02 8.834389597177505493e-02 6.846759468317031860e-02 -4.932142049074172974e-02 -6.046094894409179688e-01 -1.816665567457675934e-02 -7.392831891775131226e-02 -5.353838801383972168e-01 -3.303629159927368164e-02 2.191211283206939697e-01 1.917675286531448364e-01 -5.450275540351867676e-01 1.443118005990982056e-01 1.286590993404388428e-01 1.091917678713798523e-01 -1.320541352033615112e-01 6.324435770511627197e-02 -2.028895020484924316e-01 -5.293452739715576172e-01 -6.882322430610656738e-01 4.638375341892242432e-01 -1.125217974185943604e-01 -3.251274228096008301e-01 -6.243793368339538574e-01 -6.884648650884628296e-02 -7.843799889087677002e-03 -3.180801495909690857e-02 -1.027411371469497681e-01 -4.992691576480865479e-01 1.616368740797042847e-01 -2.737525105476379395e-02 -2.123366743326187134e-01 1.030206605792045593e-01 3.666350245475769043e-02 -8.870969526469707489e-03 2.768261432647705078e-01 -4.283027350902557373e-02 2.263429760932922363e-02 5.554453656077384949e-02 1.912658959627151489e-01 2.073692083358764648e-01 -1.051197052001953125e-01 -5.324482452124357224e-03 3.714953064918518066e-01 6.084080412983894348e-02 1.046696975827217102e-01 7.302062958478927612e-02 1.215517669916152954e-01 2.110531479120254517e-01 4.367589056491851807e-01 -3.283407688140869141e-01 1.295772343873977661e-01 -1.015104293823242188e+00 1.596396565437316895e-01 1.972985267639160156e-01 -6.013134717941284180e-01
-1.029338464140892029e-01 1.073853000998497009e-01 -5.941029787063598633e-01 1.038480699062347412e-01 2.001569867134094238e-01 3.743208050727844238e-01 7.402009963989257812e-01 7.972069084644317627e-03 -2.900400161743164062e-01 8.076419681310653687e-02 1.513269916176795959e-02 -3.145351707935333252e-01 -8.396027982234954834e-02 1.106307879090309143e-01 -1.228168979287147522e-02 1.345766335725784302e-01 -2.412317879498004913e-02 -5.128075480461120605e-01 -2.162822037935256958e-01 3.223189339041709900e-02 1.990992873907089233e-01 4.293148517608642578e-01 -3.033585250377655029e-01 -2.404290437698364258e-01 -1.178301200270652771e-01 -5.695918202400207520e-01 -8.575975894927978516e-02 -2.371824234724044800e-01 1.915731579065322876e-01 1.344242393970489502e-01 3.379594907164573669e-02 -1.255484670400619507e-01 2.684709727764129639e-01 -7.440704852342605591e-02 -4.337986558675765991e-02 -2.469780743122100830e-01 -2.662166953086853027e-02 1.691344678401947021e-01 -2.388317584991455078e-01 1.933377794921398163e-02 2.333537638187408447e-01 4.001253247261047363e-01 1.320481598377227783e-01 -2.512145638465881348e-01 2.311265841126441956e-02 -2.838145494461059570e-01 3.157077431678771973e-01 -2.728324830532073975e-01 1.405606269836425781e-01 -3.814109861850738525e-01 -5.815277248620986938e-02 -2.343744933605194092e-01 -5.612177029252052307e-02 6.947407126426696777e-02 1.848188787698745728e-02 1.369963586330413818e-01 1.144662126898765564e-01 -7.269172370433807373e-02 -7.637837529182434082e-02 -2.330779470503330231e-02 -4.787926375865936279e-02 -1.127749681472778320e-01 -1.084977909922599792e-01 -3.846352919936180115e-02 -2.681597694754600525e-02 -4.289516655262559652e-04 4.017485082149505615e-01 -2.626931369304656982e-01 -8.893985152244567871e-01 9.086244553327560425e-02 3.803027868270874023e-01 -4.424937069416046143e-02 2.147347480058670044e-01 2.010749578475952148e-01 1.403596848249435425e-01 2.717698365449905396e-02 -3.552628159523010254e-01 3.766945376992225647e-02 6.422750651836395264e-02 4.265557229518890381e-01 -5.006303787231445312e-01 -6.306778788566589355e-01 -1.933855414390563965e-01 1.957886070013046265e-01 2.059700936079025269e-01 -7.812549173831939697e-02 -5.472733378410339355e-01 1.136653274297714233e-01 -2.126730084419250488e-01 2.205723375082015991e-01 7.116681337356567383e-02 1.054814830422401428e-01 -1.947422027587890625e-01 1.878715008497238159e-01 2.007402926683425903e-01 -2.622914314270019531e-01 2.586900256574153900e-02 7.484334707260131836e-02 -8.938457816839218140e-02 1.113445013761520386e-01 2.307515442371368408e-01 4.567884374409914017e-03 -5.139115452766418457e-01 -2.311850637197494507e-01 9.108693152666091919e-02 -3.509150817990303040e-02 4.331976920366287231e-02 -5.623145699501037598e-01 7.677404582500457764e-02 7.911770790815353394e-02 1.491072475910186768e-01 -9.959895014762878418e-01 1.593235880136489868e-01 2.177194505929946899e-01 1.524182409048080444e-01 1.673330366611480713e-01 5.494233220815658569e-02 2.505668103694915771e-01 2.006117105484008789e-01 4.803147912025451660e-02 -3.268670439720153809e-01 5.385553464293479919e-02 1.277289539575576782e-01 4.158779233694076538e-02 4.900180995464324951e-01 -1.131002753973007202e-01 6.681744754314422607e-02 -2.082512825727462769e-01
1.360099315643310547e-01 1.753285825252532959e-01 -1.756893396377563477e-01 1.308493614196777344e-01 -7.628106325864791870e-02 -3.071928918361663818e-01 3.535631299018859863e-01 1.362630426883697510e-01 2.429350316524505615e-01 -2.431970648467540741e-02 -3.982957601547241211e-01 -6.897331774234771729e-02 -1.179119870066642761e-01 -2.909821569919586182e-01 -4.544933736324310303e-01 -1.687295585870742798e-01 1.459280401468276978e-01 -2.150602042675018311e-01 2.220897190272808075e-02 1.416706591844558716e-01 8.892644196748733521e-02 1.358758658170700073e-01 -3.433033227920532227e-01 -1.452715545892715454e-01 -1.837657988071441650e-01 4.093698263168334961e-01 -2.048038542270660400e-01 -4.929370582103729248e-01 8.608305454254150391e-02 -6.731521487236022949e-01 2.450256794691085815e-01 2.869621291756629944e-02 2.055841088294982910e-01 9.201724082231521606e-03 -3.426658809185028076e-01 2.127962410449981689e-01 -1.030960679054260254e-01 -4.007296264171600342e-01 2.834907174110412598e-01 1.123692318797111511e-01 -2.687344551086425781e-01 -7.645418643951416016e-01 3.337880969047546387e-02 -3.302590250968933105e-01 -1.633462309837341309e-02 -1.635315120220184326e-01 -3.305719494819641113e-01 -1.609749943017959595e-01 -5.176517367362976074e-02 1.629230827093124390e-01 -2.364872097969055176e-01 1.395961344242095947e-01 8.883274346590042114e-02 -3.794176280498504639e-01 1.747816950082778931e-01 1.313704997301101685e-01 1.266912966966629028e-01 9.430283308029174805e-02 9.349946677684783936e-02 1.229510381817817688e-01 -5.142257362604141235e-02 -5.323866605758666992e-01 1.788665205240249634e-01 2.774254605174064636e-02 1.469106376171112061e-01 1.448561102151870728e-01 -1.356884390115737915e-01 -8.567428588867187500e-02 -5.186830759048461914e-01 1.829083859920501709e-01 -3.772468864917755127e-01 7.204680889844894409e-02 2.050227373838424683e-01 -7.313506603240966797e-01 3.556062579154968262e-01 1.176316514611244202e-01 -2.210769206285476685e-01 -5.768680572509765625e-01 1.081917732954025269e-01 2.741399407386779785e-01 3.377905189990997314e-01 9.483426809310913086e-02 2.824741303920745850e-01 -4.591712951660156250e-01 1.194515004754066467e-01 -3.694380819797515869e-01 1.318565905094146729e-01 -3.996100649237632751e-02 5.049060285091400146e-02 1.201005131006240845e-01 4.036555066704750061e-02 2.014135718345642090e-01 -3.218177258968353271e-01 -8.087238073348999023e-01 -4.590519368648529053e-01 -3.362715542316436768e-01 -1.422233134508132935e-01 1.199223250150680542e-01 6.737455725669860840e-02 1.008523106575012207e-01 -6.725061535835266113e-01 6.943850219249725342e-02 -2.163744270801544189e-01 9.014662355184555054e-02 -1.181655451655387878e-01 2.255739718675613403e-01 -2.943481802940368652e-01 1.825273409485816956e-02 -1.547495275735855103e-01 2.150070220232009888e-01 1.735491156578063965e-01 -5.298814177513122559e-01 2.156027555465698242e-01 -2.227416783571243286e-01 1.315212575718760490e-03 -2.096531987190246582e-01 1.264458298683166504e-01 3.594784140586853027e-01 -4.245935007929801941e-02 -4.645041823387145996e-01 -8.718927949666976929e-02 6.108937039971351624e-02 -4.146588742733001709e-01 8.010839670896530151e-02 4.192122444510459900e-02 -1.780885457992553711e-01 -6.458632946014404297e-01 1.374064832925796509e-01
7.369819283485412598e-02 -9.244813770055770874e-02 1.022248268127441406e-01 3.284879922866821289e-01 -5.787697434425354004e-01 3.139230012893676758e-01 4.447140395641326904e-01 -3.268939852714538574e-01 -2.129694521427154541e-01 2.764599025249481201e-01 7.772693783044815063e-02 -2.337345182895660400e-01 7.151057571172714233e-02 6.228431314229965210e-02 1.514478921890258789e-01 -8.189997822046279907e-02 -3.588541597127914429e-02 8.089713007211685181e-02 1.737283617258071899e-01 -2.993438839912414551e-01 -4.185640811920166016e-01 4.453779757022857666e-02 2.519169151782989502e-01 2.159330099821090698e-01 -1.574164330959320068e-01 -3.512478992342948914e-02 4.278527796268463135e-01 6.568513065576553345e-02 1.771616488695144653e-01 1.382510662078857422e-01 -1.295167952775955200e-01 5.018323287367820740e-02 -2.976177334785461426e-01 3.977091610431671143e-02 1.765716671943664551e-01 2.992753088474273682e-01 1.741987280547618866e-02 1.308014430105686188e-02 9.714874625205993652e-02 3.083869069814682007e-02 1.264533251523971558e-01 1.993982940912246704e-01 2.234987728297710419e-02 1.693323403596878052e-01 -2.139060944318771362e-01 5.075404420495033264e-02 -2.285608276724815369e-02 1.162853240966796875e-01 -6.060263141989707947e-02 1.629373431205749512e-01 1.055780127644538879e-01 2.900975644588470459e-01 -2.734050452709197998e-01 4.721509814262390137e-01 2.512233257293701172e-01 -5.286552011966705322e-02 -4.736700952053070068e-01 -4.278870522975921631e-01 -3.453738242387771606e-02 -9.722588956356048584e-02 -3.791317343711853027e-02 1.469957679510116577e-01 2.794426493346691132e-02 -2.519861757755279541e-01 1.491574645042419434e-01 -4.904029071331024170e-01 -4.111725389957427979e-01 2.963906824588775635e-01 -2.510404884815216064e-01 1.319310367107391357e-01 -1.876586526632308960e-01 -2.710371613502502441e-01 -3.051712214946746826e-01 1.244872529059648514e-02 1.900923699140548706e-01 4.213239848613739014e-01 -4.554732702672481537e-03 8.498329669237136841e-02 -3.229276239871978760e-01 5.680301692336797714e-03 -4.008621443063020706e-03 2.152810245752334595e-01 1.315071433782577515e-01 7.806688547134399414e-02 1.271180510520935059e-01 -1.099435761570930481e-01 6.959176063537597656e-02 -2.217181324958801270e-01 -2.452182918787002563e-01 -4.198074340820312500e-01 1.520252376794815063e-01 -2.934232652187347412e-01 2.660732343792915344e-02 -1.974526941776275635e-01 -5.401392579078674316e-01 1.118030697107315063e-01 -7.443164009600877762e-03 -1.430120766162872314e-01 -2.615317888557910919e-02 -3.626356422901153564e-01 1.575386077165603638e-01 -1.648796200752258301e-01 1.021691784262657166e-01 -3.349849581718444824e-02 2.069285698235034943e-02 6.627696007490158081e-02 -2.636899948120117188e-01 1.536107659339904785e-01 1.748850569128990173e-02 -2.692039608955383301e-01 -4.609703719615936279e-01 2.240523248910903931e-01 -1.355855315923690796e-01 7.273346930742263794e-02 -4.853383004665374756e-01 4.222036600112915039e-01 8.674899488687515259e-02 -4.690943658351898193e-02 -4.504868686199188232e-01 7.546525448560714722e-02 6.495428830385208130e-02 1.982244104146957397e-01 2.233849614858627319e-01 -6.183695793151855469e-01 1.949855089187622070e-01 -9.602314233779907227e-02 9.267036616802215576e-02 1.522015184164047241e-01
-1.370121389627456665e-01 1.102615222334861755e-01 3.609768301248550415e-02 -4.580025374889373779e-01 1.476210206747055054e-01 -1.986449062824249268e-01 -1.605851352214813232e-01 -9.579867124557495117e-02 8.230514079332351685e-02 -3.985371291637420654e-01 8.279648423194885254e-02 7.928901165723800659e-02 1.060706898570060730e-01 8.920168876647949219e-02 -2.737836539745330811e-01 1.723793894052505493e-01 -5.100765824317932129e-02 7.021081447601318359e-02 -4.441769719123840332e-01 1.166791468858718872e-01 2.033897638320922852e-01 1.845286414027214050e-02 2.306234091520309448e-02 -1.650106906890869141e-02 1.201701536774635315e-01 -2.900896221399307251e-02 -5.469390004873275757e-02 4.893029481172561646e-02 6.464987248182296753e-02 -1.516198460012674332e-02 7.155115157365798950e-02 -1.106018386781215668e-02 9.818399697542190552e-02 6.149417534470558167e-02 -1.617631763219833374e-01 -5.689180493354797363e-01 1.420894116163253784e-01 1.035056486725807190e-01 2.314866334199905396e-01 -9.095890447497367859e-03 -1.923249801620841026e-03 -4.089086055755615234e-01 -5.392141640186309814e-02 -9.995588101446628571e-03 1.034023836255073547e-01 1.464782804250717163e-01 2.893549203872680664e-01 3.051566481590270996e-01 -5.364461615681648254e-02 -7.378863692283630371e-01 1.215258538722991943e-01 1.620622165501117706e-02 1.239216327667236328e-01 -2.071619480848312378e-01 1.251829415559768677e-02 -3.435078561305999756e-01 -7.703917566686868668e-03 2.693533152341842651e-02 1.171801164746284485e-01 1.650106757879257202e-01 -1.349085476249456406e-02 1.492937356233596802e-01 -1.825314313173294067e-01 6.537798047065734863e-02 -6.755027770996093750e-01 7.557587325572967529e-02 -4.436466395854949951e-01 -3.109271228313446045e-01 1.307312995195388794e-01 9.377839416265487671e-02 -4.571772515773773193e-01 1.191756874322891235e-01 -2.176767438650131226e-01 -2.215436995029449463e-01 -2.301590442657470703e-01 -5.670183897018432617e-01 1.053787916898727417e-01 -5.028017163276672363e-01 8.095782250165939331e-02 3.659490495920181274e-03 -4.808676429092884064e-03 -1.336877793073654175e-01 4.103227704763412476e-02 2.605567127466201782e-02 -3.082234561443328857e-01 1.265568584203720093e-01 -6.237451732158660889e-02 1.012087985873222351e-01 1.342569589614868164e-01 1.946434974670410156e-01 1.756147667765617371e-02 1.119659468531608582e-01 -5.226387977600097656e-01 -1.618571132421493530e-01 -3.679856956005096436e-01 2.974542975425720215e-02 1.339590251445770264e-01 1.440232843160629272e-01 7.755295187234878540e-02 1.273846328258514404e-01 -2.015416696667671204e-02 8.895687758922576904e-02 1.102547347545623779e-01 1.474647670984268188e-01 4.847428575158119202e-02 6.443344801664352417e-02 6.005273759365081787e-02 -2.165758013725280762e-01 5.483589693903923035e-02 1.824952512979507446e-01 3.608888387680053711e-02 -2.590596377849578857e-01 2.631418108940124512e-01 2.091987989842891693e-02 3.696755692362785339e-02 -5.428650230169296265e-02 7.893908023834228516e-02 -8.046966046094894409e-02 -1.515154540538787842e-01 -1.473644631914794445e-03 -1.361862123012542725e-01 -4.441072642803192139e-01 1.151613518595695496e-01 -1.331325322389602661e-01 -2.928341031074523926e-01 1.377645134925842285e-01 4.889832437038421631e-02 1.285694167017936707e-02
-3.493265807628631592e-01 9.405181556940078735e-02 1.645531207323074341e-01 -9.203935861587524414e-01 8.046132326126098633e-02 -1.488467603921890259e-01 -3.455502986907958984e-01 -2.258888036012649536e-01 9.864578396081924438e-02 -1.776126027107238770e-01 3.962290287017822266e-02 1.786486655473709106e-01 6.134671345353126526e-02 8.037564903497695923e-02 1.844009608030319214e-01 -3.157560229301452637e-01 1.371858716011047363e-01 7.901099324226379395e-02 4.998635035008192062e-03 -6.219027563929557800e-02 -1.607023626565933228e-01 6.063129752874374390e-02 9.418312460184097290e-02 -2.581649646162986755e-02 1.680044531822204590e-01 2.952294051647186279e-02 -7.086740732192993164e-01 2.277071177959442139e-01 -7.875325083732604980e-01 4.771379753947257996e-02 1.730847172439098358e-02 1.192803904414176941e-01 -1.407457888126373291e-01 -4.385180771350860596e-01 9.891333058476448059e-03 8.699419349431991577e-02 1.278212815523147583e-01 5.836598947644233704e-02 -7.412942647933959961e-01 3.612001612782478333e-02 7.692734897136688232e-02 1.765692234039306641e-01 1.069843098521232605e-01 -5.188264846801757812e-01 -5.119327828288078308e-02 -3.665727078914642334e-01 6.085966899991035461e-02 -5.569663643836975098e-01 -2.942489683628082275e-01 2.759810388088226318e-01 1.134966034442186356e-02 -2.509941346943378448e-02 4.865303635597229004e-02 -4.801398813724517822e-01 -7.009094357490539551e-01 -5.528649091720581055e-01 -6.078256368637084961e-01 -2.400868013501167297e-02 -2.870165556669235229e-02 -1.134204417467117310e-01 3.867580741643905640e-02 8.391264081001281738e-02 -6.408287882804870605e-01 8.809542655944824219e-02 -4.358873143792152405e-02 1.136116590350866318e-02 2.425566762685775757e-01 -6.673380732536315918e-01 2.922518551349639893e-01 -1.621825061738491058e-02 1.622105948626995087e-02 -2.344906888902187347e-02 3.623734712600708008e-01 2.270455509424209595e-01 -1.736076921224594116e-01 -2.667745351791381836e-01 2.112348079681396484e-01 3.930027782917022705e-01 4.651937261223793030e-02 7.512571662664413452e-02 -2.899411134421825409e-02 -2.711055567488074303e-03 -6.095613837242126465e-01 1.906775832176208496e-01 2.280467003583908081e-01 -1.538344100117683411e-02 2.056005150079727173e-01 1.484938561916351318e-01 7.436265796422958374e-02 1.713001132011413574e-01 -3.018341660499572754e-01 -1.358191370964050293e-01 -3.510228395462036133e-01 1.742672622203826904e-01 1.421166211366653442e-01 1.919810287654399872e-02 3.056659479625523090e-04 -1.403912007808685303e-01 -2.067286521196365356e-02 -1.307995617389678955e-01 1.438155621290206909e-01 1.321043521165847778e-01 1.833209395408630371e-01 1.940277777612209320e-02 -1.529029663652181625e-02 -2.183510214090347290e-01 1.956201791763305664e-01 1.587096303701400757e-01 6.421738862991333008e-02 1.163550466299057007e-01 3.890069201588630676e-02 -1.782234460115432739e-01 -1.286020129919052124e-01 -3.320184350013732910e-01 -1.164050698280334473e-01 -3.033191263675689697e-01 5.157667025923728943e-02 1.222430914640426636e-01 1.073334217071533203e-01 1.001999601721763611e-01 2.771775722503662109e-01 -1.023270711302757263e-01 8.918666094541549683e-02 1.224653199315071106e-01 6.831030827015638351e-03 -1.525567471981048584e-01 1.227858290076255798e-01 2.023440748453140259e-01
